9996 16
. 0.033932567 -0.038744025 0.016084867 0.0048716064 -0.004813323 -0.063589014 0.014717524 0.040324952 -0.0062856884 -0.00829687 -0.0035140463 -0.02220438 -0.058446195 0.0060164896 0.014297203 -0.01150368
영화 0.09672977 -0.03835988 -0.06502422 -0.030563192 0.032581646 -0.07346433 0.042273987 -0.018835852 -0.0160852 -0.07141991 -0.02758319 0.0131334765 0.02669425 -0.0460762 -0.027127497 0.07184097
다 0.034988537 -0.0042140814 -0.0029829424 0.055412713 0.045234714 -0.05733815 0.028557356 0.003645307 -0.0744015 0.010840353 -0.041103218 -0.0054375017 0.018150909 0.075780585 0.020164989 0.014848404
고 0.04426695 0.07720898 -0.1652317 0.026789865 -0.011382741 -0.010780012 0.0678915 0.0062037595 0.033672612 0.012712923 0.010881177 -0.05564797 -0.02663723 -0.05964361 -0.0071581947 -0.0024898967
하 -0.04311116 -0.009092134 -0.10012562 -0.0653424 0.05938865 0.041398246 -0.04516728 0.020759149 0.05630402 -0.054297023 -0.005220312 0.024352992 -0.047228996 -0.042822964 0.033770353 -0.06641179
을 -0.0061104735 0.0563751 -0.02246976 0.03626304 -0.015661873 -0.0036053113 -0.057031844 0.0118765915 0.039962225 0.05170689 -0.04139854 0.0020796962 -0.020961674 -0.002184408 -0.09376477 -0.055793256
보 -0.029258445 0.049731456 0.022501132 0.041849565 0.049484015 0.010708438 0.052187 0.011187093 -0.042392008 -0.04463399 0.11932664 0.0005192597 -0.009733908 -0.007147344 -0.018426841 -0.04685106
.. 0.0031054527 -0.07891548 0.024273343 0.077606626 7.360608e-05 0.0091537945 -0.01528124 0.001541054 -0.013359857 0.0033839727 -0.020092404 0.015798349 -0.09364508 -0.001816528 0.030369893 -0.0074049346
게 -0.062135037 0.079747915 -0.009743021 0.018321548 0.009531543 -0.049963344 0.039826047 -0.020297427 0.059944596 0.09763221 0.041127272 0.027293645 0.01542688 -0.0198685 -0.071321875 0.04720375
, 0.008017038 0.025407933 -0.0058858916 -0.05271425 0.029395193 -0.0419691 -0.06184256 0.024495058 -0.059746508 0.023738781 -0.026755704 0.0073353355 -0.01366546 -0.013006938 0.0445236 0.0039347056
! -0.06548977 -0.0046830187 -0.08302713 -0.02794055 0.025033105 -0.12232762 -0.026763659 0.11256753 -0.056539256 0.096330315 -0.037351243 -0.019542633 0.031058587 0.09767556 -0.108838804 0.05423198
지 -0.008211938 0.056682616 0.012055348 -0.017878924 0.073154114 0.062303092 -0.062861726 0.06665779 0.03094679 -0.004363486 -0.016661184 -0.03977838 -0.042232275 0.014895511 0.041549247 -0.09476751
있 -0.0167448 0.07933887 -0.05935331 0.02650136 0.09668543 0.037570357 -0.07781405 0.067221165 -0.0646403 -0.012156345 -0.043362692 -0.016294513 0.06584313 0.05290457 0.010156813 -0.0060831523
없 -0.0037406543 -0.0692913 0.06889677 0.04714074 -0.067543186 -0.051131755 -0.25611904 -0.090160646 -0.11665357 0.098045774 -0.22939432 0.09376068 -0.09635838 -0.035915107 0.14473887 -0.10950174
? -0.016035318 -0.037711184 0.08279699 0.04826611 0.19635086 0.02333592 -0.061678234 0.06763241 0.0942623 0.0025731986 -0.020094227 -0.0026584694 -0.08613867 -0.058111705 0.06729994 -0.04337184
좋 -0.09187273 0.124568865 -0.052217823 -0.16268402 0.07434078 0.009659078 0.14001386 0.0019358365 -0.11053704 0.10657318 0.026250351 -0.05865704 0.15281999 0.049887013 -0.10577165 0.15200295
나 -0.055708192 -0.07865074 -0.020914473 0.036297586 -0.02081971 -0.0987234 -0.04866133 -0.030247657 -0.026260689 0.091004305 0.0016480896 -0.054082245 0.021219973 0.07807765 0.10745874 0.024662042
었 -0.020905243 -0.031982876 -0.0057606446 -0.020158047 -0.0071761766 -0.045952566 0.019231655 0.03387547 -0.02299708 0.061774664 0.064042516 0.013690042 -0.0070677823 0.032865133 0.03992554 0.12882172
만 0.031167407 -0.00031418452 -0.011978251 -0.02000926 0.02229244 -0.10998594 -0.066096574 0.12166059 -0.0015337598 0.015174817 0.0064443094 0.038555305 -0.016856126 -0.0014309422 0.083636306 -0.17743246
는데 -0.035537187 -0.04455268 -0.013566709 0.12968846 0.08036737 0.14328426 -0.03519245 0.06962587 0.029186057 0.028604675 -0.04395447 0.025931088 0.007845844 -0.027335927 -0.056561753 -0.023325477
너무 0.053408254 0.012186391 0.007788948 0.043004215 0.15465283 0.14306013 -0.054990657 0.03878139 0.055781007 -0.20127499 0.002911375 0.08664793 -0.009054988 -0.07583839 0.11641576 0.066215076
봤 -0.05321326 0.018552322 0.10733337 -0.07687467 0.027860237 -0.12375758 0.071663976 -0.09270553 -0.041281436 0.002542949 0.03674708 -0.12082526 0.024725053 0.04676045 -0.018016415 0.0694986
적 -0.083860256 0.008736978 -0.08930334 0.0656871 0.026975347 -0.04699517 -0.023782378 -0.04954008 -0.021041056 -0.041292798 -0.055998687 -0.0846364 -0.0052453093 0.035476465 -0.02179592 0.016413921
안 -0.07318528 -0.062628105 0.090536945 -0.013126991 -0.026793791 -0.12643076 -0.059345234 -0.03007054 -0.0679396 0.05265373 -0.17553398 0.12900272 -0.03939129 0.034426972 0.08419718 -0.15462376
정말 -0.05773811 0.011535572 -0.091702774 0.0025687092 0.0044140895 0.04416479 0.04568596 -0.0543852 0.115085 0.027692167 -0.0929795 -0.009887078 -0.007777569 -0.0115950955 -0.079319455 0.16280045
로 0.02911374 -0.0008743289 -0.016776837 0.14616181 0.013433341 0.028282296 -0.03220451 -0.03312157 0.01230299 0.03373943 -0.09410439 -0.02288896 -0.0006120191 -0.07953403 0.04882268 -0.013031917
음 0.19644524 0.03692896 0.009350174 -0.048504557 0.015363102 -0.10419144 0.004866161 -0.08502419 -0.005264503 -0.016078288 -0.09756401 0.037834276 0.040195685 -0.046408746 -0.057422925 0.044100124
것 -0.029852068 -0.0007185228 -0.026168244 -0.043692715 0.065219246 0.0007851688 0.025718857 0.0323457 -0.06880206 -0.018109227 0.040203854 -0.083298594 -0.054307904 -0.02741751 0.011752869 -0.07565447
아 -0.049023684 -0.071822725 -0.09039578 -0.0500406 -0.051101383 -0.0074830884 -0.02260372 -0.010111722 0.023430416 0.0298592 0.04671586 -0.010075613 -0.04863467 -0.019947162 0.009358048 0.03536552
네요 0.011454647 -0.023427865 -0.075238034 -0.045478504 -0.07501776 -0.095216945 0.023148855 0.027669694 -0.028892875 0.012617958 0.09804398 -0.011234216 0.06678435 -0.026143806 -0.11644972 0.095883235
재밌 -0.14401148 0.15529712 -0.1384262 0.015897332 0.049373016 0.15792918 0.22843294 -0.021253416 -0.053667318 0.15777148 0.17672722 -0.061184846 0.21689267 0.17382394 -0.12006514 0.04450745
어 0.030099474 -0.030192029 -0.011419593 -0.019647537 0.069416456 0.061623752 -0.0150178 0.08575791 0.09443808 0.010165091 -0.048837274 -0.0283446 -0.049549848 -0.0685812 -0.02810807 -0.0480202
같 -0.09973438 -0.065429956 0.008738974 0.010919191 -0.003234768 0.05399257 0.017549474 -0.17401464 0.115701705 -0.013872804 0.030375717 0.031112747 0.045557417 -0.021620855 0.017832698 -0.061988443
점 0.14146681 -0.056114595 -0.20380521 0.03081496 -0.082402855 -0.035411473 0.06037181 -0.11081813 -0.037977096 -0.027379312 0.06778653 -0.0016527914 -0.038716953 -0.16924335 0.023533275 -0.16869543
지만 -0.24821046 0.04396776 0.13063177 0.08634406 0.08795797 0.3010137 -0.18960375 0.016596051 0.051176812 0.120595634 -0.10087758 -0.084217176 -0.020679235 -0.14865012 -0.018550076 0.06717743
진짜 -0.14024335 0.10152124 -0.1487134 0.08202126 0.061630584 -0.0062924796 0.06653027 -0.08066001 0.011222045 -0.056372605 -0.031679068 0.0070870714 -0.045712207 -0.033005215 -0.076474756 0.114890866
했 -0.075404756 -0.014323761 -0.06898402 -0.07611778 -0.038512144 -0.08052369 -0.056394454 0.005153759 0.019473987 0.008992434 0.04594275 -0.10038184 -0.017655512 0.083042614 0.017798975 0.0059260544
에서 -0.07442948 0.009907639 0.057001393 -0.022585876 0.0489146 0.035396256 0.019467073 0.06025725 0.03651104 0.03336377 -0.08454791 -0.09049185 0.037112705 -0.10477356 0.028136402 0.062300526
기 0.0915567 0.085783035 -0.022979517 -0.016757866 -0.038508482 -0.03512193 0.06572601 -0.06482315 0.074751124 -0.04092983 0.024328535 0.05560044 -0.12855911 -0.015514176 0.06220277 -0.032813795
네 -0.11036974 -0.075191036 -0.103934474 0.06762551 -0.23364754 0.021887181 0.081276715 -0.05117375 0.06347945 -0.022908635 0.093400225 0.065344155 0.011170181 -0.027997758 -0.0007267137 0.027571134
않 -0.21638827 -0.115913846 -0.03591396 -0.0039068256 0.032697342 0.21365649 -0.22501816 0.113246486 -0.06305175 -0.0034251306 -0.18477702 -0.0038528729 -0.13674168 0.013012659 0.004730123 0.042868644
거 0.020166717 -0.0661243 -0.01779059 -0.07892282 -0.12383752 0.06633734 -0.014537729 -0.00026254024 0.055701725 0.0049562026 -0.13971353 0.055662956 0.07715751 -0.11929098 -0.056544088 -0.092067115
았 -0.06690248 -0.03908673 -0.055353392 -0.05751584 0.049352825 0.13363558 -0.028981829 -0.049585007 0.11217956 -0.08104185 0.109995745 0.052752998 0.08147977 -0.150808 -0.06851483 -0.06190886
수 0.067698754 0.049929027 -0.109532684 -0.112693004 -0.084439255 -0.018234393 -0.003275907 -0.104507826 -0.07064053 0.10036795 -0.008297587 0.013162235 -0.038439006 0.058956467 -0.055320524 0.037886858
되 0.059747785 0.07940508 -0.09585081 -0.102654286 0.04603267 0.039552394 0.05789805 0.025547499 0.004634999 -0.038831368 0.04881127 0.016060703 -0.024040258 -0.02943899 0.030419221 -0.036606647
면 0.08411756 0.008367251 0.09323974 0.048399653 0.038723517 0.12970382 -0.05738502 -0.051924586 -0.09873795 0.09994989 0.0014872653 0.052573588 -0.09000383 0.079958335 -0.0958837 -0.06192701
ㅋㅋ -0.031739112 0.07107542 0.04823467 0.016993767 0.036741372 0.035639696 0.017841663 -0.044175643 0.040096596 -0.04509054 0.00061817234 0.045896675 0.0017673958 0.13536368 -0.0083499 0.04654438
말 -0.022252781 -0.061196994 0.050798476 -0.055783287 0.00085915206 0.0069459034 -0.039499044 -0.080966786 -0.057086557 0.08351872 -0.021499934 0.03499711 -0.03852104 -0.02020605 -0.07878169 0.018158691
연기 0.13693325 0.016817294 -0.044197496 0.0022061917 0.027492002 -0.031232292 0.011431459 0.20524946 0.032386202 0.049769714 -0.036478713 0.06717341 -0.06780069 0.08621304 -0.051746536 -0.045972884
인 -0.03413698 -0.011446475 -0.015351217 0.005591478 -0.15942095 -0.15841639 -0.06319744 -0.010479561 -0.036832713 -0.032670006 0.12597063 0.09934677 -0.109652266 0.119063474 -0.048767786 -0.0199702
주 -0.08157411 -0.084735565 -0.0147494 0.019755106 -0.02093071 0.05644346 0.051742285 0.04870381 0.006331812 -0.0034609293 0.09358408 -0.040493112 0.07572471 -0.0019136448 0.040020183 0.008105758
내 -0.010284415 -0.03624421 -0.002203435 0.025362212 0.020234007 0.03458437 -0.072244674 -0.015357878 0.0519662 -0.008048225 0.032069363 -0.036054935 -0.034528546 0.017911274 0.044594005 -0.035457604
최고 -0.36920872 0.054137815 -0.20714961 -0.09572017 0.1410741 0.18014574 0.061149646 -0.1618197 -0.057668723 -0.004682634 0.159132 -0.101650216 0.1897654 0.049933903 0.014243256 0.024851507
~ -0.037601423 0.022113213 0.02136023 -0.120964825 -0.053743415 -0.09710348 0.03198803 -0.02906126 -0.03386353 -0.09736676 -0.13020921 0.06719615 0.02870075 0.05745393 0.071339615 -0.0087601105
평점 -0.12928787 0.115264826 0.08283107 -0.05280703 0.009115547 0.090804696 0.024399182 0.07570821 0.10174064 -0.0421947 -0.17055011 0.16827197 0.0014330263 0.0865873 0.044220123 0.06975556
이런 -0.0121143125 0.055415265 0.13350931 0.10175597 0.07179208 0.12067141 0.012743322 0.00045465626 0.03793374 -0.0046351915 -0.0120558785 -0.05687236 0.03628507 -0.055987243 0.100844726 0.08768351
던 -0.053722642 0.07742012 -0.025681084 0.03291673 0.0321704 -0.06258888 0.021391546 0.028412301 0.14283252 0.0072632194 0.042444695 -0.028054247 0.02474649 -0.06084382 -0.09872508 0.09759455
어요 -0.0106368 0.066060476 -0.1371892 -0.14093195 0.0987474 -0.07977502 -0.070976846 0.18407524 -0.03730979 -0.10067637 0.07762965 0.0686347 0.13734806 0.076899536 -0.07935746 0.0734694
할 -0.030483304 0.15333606 0.09487355 -0.08349059 -0.03897437 0.15150371 -0.045064066 -0.031155223 0.036537666 0.040989723 0.039350487 0.032039367 -0.041338317 0.014114105 -0.036866188 -0.028253233
왜 -0.10194693 0.29446974 0.012262875 0.025327777 -0.1267772 -0.1381095 0.12987761 0.02087935 0.07778566 0.0032367609 0.013884066 0.06441024 -0.068723895 0.0018048487 -0.034853578 -0.023538431
겠 0.06949335 -0.0031179457 -0.040970635 -0.016947057 0.003709082 -0.08809112 -0.02737335 -0.06851922 0.084491014 0.07201067 -0.094964415 -0.06644418 -0.022634175 -0.11349457 0.1130106 -0.045605384
1 -0.06427673 -0.11176127 0.21273722 0.018920725 -0.005939125 -0.10407086 -0.05061728 -0.022923008 -0.009447919 0.12061357 -0.11987735 0.022555642 -0.06803155 0.06485248 0.03751925 -0.11697742
스토리 0.011105165 -0.17309225 -0.12683834 0.028762352 0.06877996 0.01922176 -0.061933715 -0.14913607 0.05411336 0.025653476 -0.018873679 0.08284944 0.009428719 0.018589884 -0.069575034 -0.022259919
해 -0.041089714 0.01922983 0.002091224 0.055374566 0.0030276382 -0.009404824 0.0094347615 0.022204053 -0.010420682 0.045993324 -0.016591603 -0.00925368 0.06812167 -0.06665881 -0.0017785605 -0.090987094
습니다 -0.031707704 -0.012030267 -0.10316553 -0.035769105 0.048886005 -0.05647967 0.03469006 0.007456148 -0.07668879 0.020956835 0.067530856 -0.056195777 0.03798837 -0.04164287 -0.03582889 -0.062192015
ㅋㅋㅋ -0.08441551 0.039475277 -0.018482948 -0.06408431 -0.1038041 -0.061724912 -0.05610791 0.06615743 0.11679275 -0.05432117 0.0820081 -0.070114926 -0.035966717 0.07897078 0.01898763 -0.10032497
... -0.02028688 -0.030606678 0.013875021 -0.038721256 -0.009205314 -0.0068830266 -0.037460003 -0.13184664 0.033104546 -0.046515062 0.048764076 0.01813767 -0.11783417 0.14887685 -0.021475738 0.086895175
드라마 0.1565945 0.084271856 -0.22610487 -0.09132296 0.0767965 0.002936127 0.18263735 -0.023262063 0.0009783397 0.019642204 -0.03676947 0.098884046 -0.07967906 0.06811407 -0.042958263 -0.038468234
생각 -0.011124897 0.11150734 0.021655122 -0.0037235122 0.025442835 0.028001714 -0.03360902 -0.045126166 -0.10721798 -0.03486877 0.066922665 -0.13416792 -0.038083285 0.036216665 0.038374633 0.058455344
아니 -0.11576422 -0.17447814 0.06357339 0.10102973 0.034123924 0.15126093 -0.25777915 -0.020918325 0.11947572 0.0020077939 0.07387425 -0.10894136 -0.11263442 -0.012258845 0.00831909 -0.037616592
더 0.23390123 0.006109523 0.029614408 -0.041445587 -0.09566489 0.016190205 -0.025532745 0.031326883 -0.012260067 0.002283559 -0.04787272 0.030961126 -0.0936144 0.0189252 0.09269873 -0.10609257
그 -0.035483748 0.026084263 0.017155958 0.124982305 0.085387625 0.031050287 0.15789117 0.03243599 -0.07142581 0.0058003617 -0.047941197 0.015354166 0.08771051 0.09220197 0.078615665 -0.028779795
싶 -0.046527322 0.057301085 0.11628369 -0.035998043 0.08284535 -0.07467487 0.033462916 0.0333295 -0.16123275 0.040025305 -0.03996286 0.0813986 -0.017823065 0.10536202 0.02786056 -0.027803753
사람 -0.18801655 -0.029534752 0.06365988 -0.09390059 0.040270474 0.0710673 0.090179116 0.041343026 -0.022464626 -0.028455857 -0.14215475 -0.04070203 -0.016259719 -0.070899084 -0.0035652788 0.026052264
듯 -0.10029638 -0.031105822 -0.071959496 -0.023677252 0.054773845 0.0051237815 -0.05271922 -0.016232226 -0.06272073 0.0074825105 0.07033078 -0.008987289 0.039887246 -0.058128573 -0.033877246 -0.009415909
때 -0.008248381 0.016699744 0.053406242 -0.051639877 -0.00036311575 -0.014204739 0.0765964 0.08608037 -0.024509236 0.077624284 0.11239981 -0.08614934 0.057130955 -0.029459558 -0.0831844 -0.019164069
감동 0.07238178 -0.0099396985 -0.1225582 -0.0118438555 0.06452003 0.10518854 0.026050953 0.1427705 -0.005687572 -0.003834151 0.21503215 -0.013874528 0.050135303 0.003767244 0.004528053 0.13705753
함 0.034691446 -0.051882405 -0.00034116412 -0.08636842 0.025725069 -0.051472344 0.05885839 -0.050814 0.123822495 0.056744754 0.022759123 0.061653625 -0.0788326 0.059704907 -0.0652393 0.0601996
배우 -0.05960739 0.04523488 0.047956455 0.025402766 0.023584073 0.04192376 -0.06938111 0.034527592 0.14102912 -0.040949192 -0.10776724 0.03540061 -0.07465009 0.08276489 0.06452067 0.0739673
본 0.10211954 0.07499771 -0.12563218 0.0029917152 0.047270816 -0.056071773 -0.04943909 0.016931297 0.09454096 -0.013685008 -0.07474917 0.03720804 -0.048891306 -0.01792191 -0.0061516087 0.048043586
까지 0.03792952 0.09905651 -0.036409914 -0.05408149 0.04968189 0.084597275 0.047703303 0.07640187 0.02266063 0.011356827 -0.038774982 -0.12506217 0.11751678 -0.069733135 0.06411581 -0.17370819
뭐 -0.0027868254 -0.092136055 0.11715113 0.048210498 0.019635627 -0.052530974 -0.012151057 -0.0080783535 0.10992215 -0.1617289 -0.08570344 0.017962294 0.09011535 -0.07988646 0.020441446 -0.1663892
알 0.022044221 -0.05942446 -0.114757724 0.045112576 0.030595928 -0.05492404 -0.11559614 -0.023180086 0.06215179 -0.07169699 -0.016368505 -0.042377334 -0.020376159 -0.09500059 0.12247345 0.119683266
만들 0.04847114 -0.031342003 0.067539945 -0.06495677 -0.022202956 -0.0139574 -0.0012534374 -0.10197531 -0.06703785 -0.04365418 -0.038338117 0.008633876 0.0023131664 -0.036460835 0.13069895 0.032664116
내용 -0.014078233 -0.014594094 -0.01503791 0.10357338 0.103212684 -0.0006468855 -0.13078146 0.13480672 -0.012511495 -0.06373132 -0.038082946 0.08127872 -0.05424416 -0.1973337 0.103810675 -0.11557953
볼 -0.081179775 -0.06734544 -0.03871367 -0.040981784 -0.0015645414 0.006856897 0.09711233 0.059795126 -0.0767851 0.08719648 0.102902345 -0.106231794 0.027686935 -0.005624238 -0.077209406 0.04056882
감독 0.054785337 -0.064954735 0.1150104 0.11233024 -0.0124450475 -0.076690555 0.028180547 -0.03888789 0.08940673 0.015200199 -0.048498757 0.13168773 0.023947237 -0.05297641 0.10774403 -0.07940679
보다 0.034667727 -0.047716938 -0.030662373 0.012509423 0.059852898 0.12911555 -0.0021101548 -0.056818217 -0.02315608 -0.0776725 0.02915421 -0.10312198 0.03303377 0.080972575 0.041611437 0.031806808
라 -0.030280367 -0.02003912 0.08414764 -0.07186096 -0.004092341 0.021939663 -0.007635283 -0.053444557 -0.14987423 0.0021549189 0.07524771 0.00729682 -0.18158473 -0.0095394 -0.022929067 -0.00193965
그냥 0.03310375 -0.12216917 0.09323431 0.09968499 0.001208378 0.0058327233 -0.0034257488 -0.09521508 0.017731778 -0.060118724 0.03184018 0.060477685 -0.002185351 0.081247665 0.07270953 0.06181578
재미 0.023368824 0.12036237 -0.079858534 0.021223288 0.20356007 0.034013193 0.13371322 0.103717595 0.0052735694 -0.11541441 0.0032417644 0.19822234 -0.020276954 -0.021837428 -0.0222754 0.14663662
시간 -0.016376588 -0.15937302 0.03363422 0.073039554 0.05093098 -0.020096993 -0.0750017 -0.19388662 0.04129872 0.04799501 0.04550214 0.2302468 0.020150727 -0.07627748 -0.030764328 -0.027766703
지루 -0.12724236 -0.18574575 0.08156756 0.1686648 0.009931998 -0.022716733 -0.25566876 -0.2461717 0.07655809 -0.09376438 -0.13098672 0.20904124 -0.18392633 -0.010480008 0.050489563 -0.21484202
중 0.11744512 0.048361722 -0.04107383 -0.065611325 0.052144505 0.08269613 -0.025325302 0.16343471 -0.009662547 0.110259905 -0.006512225 -0.086769864 0.07396686 -0.03177351 0.01633526 0.0286507
재미있 0.0012281811 0.14083937 -0.17650327 -0.14920239 0.09790012 0.18984863 0.2060174 0.09703333 -0.24889937 0.009499277 0.056469508 0.007978784 0.20722443 0.044823192 -0.03002566 0.13041748
년 -0.012445638 -0.066546835 -0.194012 0.053687412 0.020402113 -0.03153321 -0.06960648 0.018265504 0.025713664 0.02340506 -0.037278213 0.17787589 -0.10490434 0.005733297 0.02884254 0.018439611
10 -0.053332873 0.20295767 -0.0683246 -0.07345499 0.018992074 0.08153266 0.09915342 0.041143145 -0.048702426 -0.027299277 0.124826916 -0.08358077 -0.022453932 0.08225321 -0.044219803 0.050331127
였 -0.017858868 0.020121086 0.036798734 -0.064066015 -0.0030881986 -0.08420536 0.067616396 0.042488787 -0.14310423 0.04641217 -0.038703777 0.01926273 0.15821847 -0.053200874 0.06002229 0.06682185
잼 -0.02701115 0.096216805 -0.17156829 -0.003306501 -0.044316553 0.2128362 0.17486373 0.17674114 -0.004703859 -0.050372362 0.059987538 -0.03406503 0.05779727 0.034796584 -0.0011525265 0.1882857
사랑 -0.17213966 -0.009732587 -0.05641854 -0.1273246 0.119478054 0.13056931 -0.014896264 0.11554187 -0.08303211 0.048455488 0.07607566 -0.034040224 0.14641632 -0.010623697 -0.120939516 0.060968272
못 0.013323909 -0.05230463 0.1148023 0.10321237 0.07133716 0.0075385 -0.25538334 -0.042570125 -0.051862877 -0.020768078 -0.08616052 0.016593795 -0.19209819 -0.024179237 0.09895156 -0.017632933
냐 -0.10764471 0.0916133 0.09501531 0.022880955 0.051914774 0.088091634 -0.104907475 0.0640143 0.24059713 -0.13899551 0.02072376 0.13012725 -0.05328112 -0.10158627 0.16697338 -0.05536252
재미없 0.18282679 -0.14533548 0.28853455 0.28042942 -0.124828696 -0.18894753 -0.07780351 -0.28357285 0.14767513 -0.1255518 -0.21466723 0.27444598 -0.073526315 -0.18196929 0.36457846 -0.050422292
쓰레기 0.10422519 -0.17072114 0.18752047 0.18250613 0.025008084 0.029001378 -0.22410774 -0.06764898 0.19012065 -0.09317926 -0.17750452 0.1239453 -0.1016818 -0.13510378 0.25225353 -0.01459439
서 -0.023098327 0.026023563 0.043544833 0.056138325 0.07178382 0.056028496 0.092767484 0.15559334 0.17392735 0.0007072393 -0.0057008546 -0.07183635 0.06401198 -0.056140013 0.0003865072 -0.0057654222
2 0.020730242 0.07493821 -0.075303555 0.06894053 0.09263786 0.043591555 -0.14512426 0.017098345 -0.006871321 0.11226447 -0.23501755 0.0431297 0.035333112 -0.106429234 0.17618525 -0.03451465
라고 -0.017765583 0.01844306 0.12693642 0.0651715 0.11108131 0.106472455 -0.09168606 -0.061429515 0.017559113 0.116165265 -0.15219744 0.04355565 -0.03628432 0.09332259 -0.058076564 -0.1019265
야 -0.010525915 -0.020341616 -0.11070054 -0.027750293 0.014658804 0.028137036 0.00938201 0.08874865 -0.033507936 -0.066333525 0.062922046 -0.031376004 -0.101607114 -0.021098863 0.069167525 -0.033904407
니 -0.039639227 -0.12535349 0.079335965 0.06378404 0.062075544 0.0769769 0.05078471 0.07416576 -0.0050966307 -0.022256311 0.038905423 0.001443149 -0.040900026 -0.038798194 -0.09898053 -0.033670988
면서 -0.02050119 -0.03902518 -0.13308622 -0.0064986194 0.057838798 0.029681865 -0.002286311 -0.069288775 -0.063804924 0.08835867 0.047843553 0.08481178 -0.032619637 -0.02569363 -0.017441235 0.13216197
번 -0.0822695 0.050134502 0.09949182 -0.08878307 0.017025825 -0.012173378 -0.023648167 0.07221507 -0.03428376 0.09564898 -0.083932854 -0.13778865 0.045819767 0.08938173 -0.019786503 0.10503588
다시 -0.007945414 0.100665495 -0.06312809 0.18601617 0.10367901 0.10166061 -0.087771 0.026429243 -0.036724735 0.042723775 0.015300151 -0.10821697 0.0359783 -0.001454249 -0.055905204 0.11736849
나오 0.03351348 0.039714765 0.008464911 0.012755303 0.05189639 -0.052109163 0.0636621 -0.23511826 -0.11253474 0.0070354734 -0.024451809 -0.04568041 -0.072026685 0.0078043835 0.036736436 -0.029464694
작품 -0.0555975 0.057367016 -0.009759074 -0.06768631 -0.004308249 -0.030555699 0.03570083 0.037311465 -0.013517271 0.06622313 -0.091695 0.013073966 -0.0042286487 -0.0005493915 -0.02724903 0.073846355
이거 -0.059796587 -0.016535126 -0.034450024 -0.015861362 0.05123314 0.01688722 0.0071570217 -0.09090484 -0.07016678 -0.04736091 -0.0019378068 0.06415126 0.085217565 -0.06678856 0.0023591374 -0.027941654
하나 0.07620042 0.019465908 0.12547258 -0.0449931 0.07750402 -0.049839925 -0.03583925 -0.23634693 0.0012206164 0.05017692 -0.044658504 -0.07952307 0.049573123 0.052786004 0.110801056 0.0050322334
줄 -0.081077226 -0.063363075 0.121968955 -0.0153813185 0.12114844 0.0580127 0.082217544 0.01901063 -0.02056729 0.08667197 0.003457729 0.15703346 0.032174364 0.0035897205 -0.034359716 0.08157343
해서 0.03673643 0.053210102 0.03246455 0.019337524 0.15296695 0.10687703 0.10806559 0.07962343 0.11558762 -0.1161599 0.051509574 -0.012577767 0.010586892 -0.11519145 0.096055456 -0.109730855
개 0.061333235 -0.117099896 -0.039524294 0.031693466 -0.07637429 0.2063484 0.05735748 0.012686914 -0.097024225 -0.0063777794 -0.029452037 0.12859038 -0.022546029 -0.04716212 0.084671274 -0.1501749
남 0.13659158 0.15308914 -0.030719653 -0.062081564 -0.054406878 -0.104285866 0.06616245 0.0667406 -0.07159582 0.06866252 0.073763594 -0.028128594 -0.026758363 -0.08122301 0.11000313 0.11729647
정도 0.007833341 -0.058744743 0.12162477 0.01132878 0.06097672 -0.11526443 0.0804661 -0.008523585 -0.0814654 0.11783189 0.036375616 -0.0034596622 -0.03996618 -0.031020924 -0.012788519 0.040944885
마지막 -0.15447436 0.13226414 -0.117047586 0.100919314 0.10808796 -0.15990089 -0.00070626254 0.14978473 -0.1374012 0.09029309 0.13313472 -0.011894511 0.04341469 0.08746745 -0.007741292 -0.012627754
끝 0.027556634 -0.117224574 -0.16273844 -0.09931556 0.011269112 -0.1613338 -0.017504534 -0.009328595 -0.028625723 0.016062362 -0.058022697 0.119172186 -0.13071373 -0.03172007 0.12364794 -0.1299761
이건 -0.11152182 0.035769425 -0.07972096 0.12876143 -0.042362668 -0.00047300046 -0.10323078 -0.16129188 -0.0063841287 -0.032908373 -0.001583659 0.079586595 -0.101898596 -0.19036889 0.26834682 0.017174013
액션 -0.028148212 0.09578374 -0.065696225 -0.14564836 0.033929616 -0.10988686 0.028473062 -0.025411827 0.031565245 0.021830961 0.0013725007 -0.03753971 0.010648706 0.010999738 -0.10569862 0.07427839
임 0.09136938 0.1373428 -0.04802474 -0.021183489 0.052337185 -0.026878374 -0.00873634 0.12000586 -0.13837984 0.055131976 -0.048937038 -0.019499416 0.013223133 0.0037458544 -0.06289336 0.024268206
ㅋ 0.069816895 0.020782148 -0.03330886 0.06923447 -0.05123245 -0.10783326 -0.032910716 -0.068614535 -0.015319155 -0.0057813246 -0.121339306 -0.19576582 -0.003409256 0.08570774 0.012303982 -0.0070900028
3 -0.08871673 -0.22162102 0.08076688 0.008703448 -0.08604902 -0.05950152 0.050138913 -0.15007672 -0.08031569 -0.081580795 -0.2432065 0.09210458 -0.06280489 -0.037492394 0.063802235 0.04406343
기대 -0.13987216 -0.15222442 0.15939261 0.08993111 -0.031033846 0.16130616 -0.15758382 0.07761841 0.038006477 0.052498106 0.11551914 0.12064163 0.07436609 0.03753227 -0.15223227 0.074316606
입니다 -0.0033064089 -0.07984029 -0.08991272 0.04527374 -0.03848498 -0.07732744 0.05117562 0.07696894 0.065262444 -0.015675172 -0.0031795993 0.1344858 0.1289095 0.08166372 0.13978957 -0.08635582
건 -0.094928704 -0.059917632 0.13152578 0.039949678 -0.003669178 0.067111924 -0.021676287 -0.08853582 -0.022123216 0.012914394 0.004180137 0.017416053 -0.046103816 0.076517865 0.12678862 -0.08710428
라는 0.012134294 0.019631488 0.027513424 0.07121117 -0.04298792 -0.041820448 -0.045597848 0.028600814 -0.043308865 0.12558113 0.014042493 0.028289052 0.05707112 -0.024917759 0.0490656 0.081660256
분 -0.1707533 0.09742508 0.04294026 -0.04381646 0.1533471 -0.057101466 -0.12190531 0.016237214 0.20710386 -0.16654846 -0.25704977 0.010725916 -0.029116232 0.011969777 -0.005353602 -0.21002866
완전 0.16152613 0.069527365 -0.089058444 0.18617718 -0.01757126 0.007068449 0.02988998 0.058455672 -0.09092326 -0.079302825 0.007363837 0.020950677 -0.048365008 -0.16214137 0.026056116 0.26114267
다는 -0.15452604 0.09583301 0.13912535 -0.09532664 0.096478485 0.009441561 -0.06780861 -0.002292476 -0.022743458 -0.0020720777 -0.15141366 0.06290495 -0.091615655 0.05155605 -0.12956059 0.034706313
참 0.054172955 -0.027441006 -0.025614293 0.060844038 -0.0896928 0.016510936 -0.09539588 -0.07524906 0.047718696 -0.019993963 -0.06668191 -0.017319052 -0.050817214 -0.11460664 0.046577185 0.10978782
많 -0.0224321 -0.04104965 -0.05823741 0.13286057 0.07913875 0.050406568 -0.10129669 0.041478157 0.07268244 -0.078200094 0.18939246 -0.19756186 0.06961516 0.10980403 -0.11774671 -0.06315784
처음 0.041767713 0.22247247 0.07838907 0.10434537 0.09282313 -0.04568043 0.114456825 -0.13359046 -0.009420988 0.036186766 0.1741602 0.081766434 -0.07937219 0.0052756965 0.11808163 -0.05160708
장면 0.04902991 -0.03961383 0.014022951 -0.088528804 -0.06348524 0.12069 -0.011407953 -0.11886611 -0.100237444 0.0042908727 -0.09418033 -0.0601969 -0.04378659 0.06974262 0.05067235 -0.09595464
대 0.020901276 -0.08665095 -0.10376216 0.11463577 0.002322435 0.046258226 -0.09986667 0.104525186 0.13056591 0.18324618 -0.09734206 0.072280124 0.031700667 0.0042994325 0.12283429 -0.021294065
아깝 0.2293151 -0.14779031 0.077552915 0.085186735 0.066487 -0.16722228 -0.05702065 -0.06669065 0.28653908 -0.24814187 -0.00774993 -0.05730089 0.024388641 -0.12505893 0.015938453 -0.2068979
다가 -0.119768694 -0.10257977 0.13290451 0.14641117 -0.12888652 0.1496543 -0.12528192 0.070937745 -0.05314941 -0.18676974 0.001967613 0.07484307 -0.003740751 -0.034499116 -0.01092256 0.007848407
으면 -0.08223382 0.075766236 0.21593389 -0.038676128 0.114673674 0.0238207 -0.10986535 -0.12480421 -0.024997067 0.04977738 -0.19475633 -0.014044835 -0.026016722 0.11057979 -0.07169426 0.012705725
지금 0.08787747 0.011136768 -0.010852267 0.17218618 0.11902303 -0.2384287 -0.06848857 0.1945135 0.004684575 -0.015530295 0.13313878 -0.124806695 -0.09437863 0.10870208 0.043803412 0.16350856
모르 -0.0915051 -0.04305854 0.13511719 -0.060975567 0.14266513 0.013045521 -0.006455995 -0.025663747 0.118112855 -0.05561166 0.12372403 -0.15285215 -0.0042742575 -0.086091466 -0.003929325 0.16614154
이렇게 0.08203128 -0.10236999 -0.043962773 0.067807935 0.044825166 0.16358249 0.08642986 -0.016445577 0.019328585 -0.121086895 0.04919339 -0.003032129 -0.11433125 -0.07565499 -0.022495277 -0.016143335
' -0.09048899 -0.037646007 -0.07055008 0.030659767 -0.17836273 -0.04252381 -0.1085873 0.066711895 -0.019560607 -0.019433713 0.09733097 -0.019459624 -0.02242723 -0.054093108 0.030213248 0.12141794
편 -0.1183874 -0.040392783 -0.16007382 0.011045203 0.06268301 -0.10203015 -0.052595578 -0.03988362 0.26488057 0.009479987 -0.08672571 -0.034083422 -0.037934773 0.07095308 0.07785011 0.044686466
일 -0.0314921 0.045701057 0.03936813 -0.044068415 -0.08289138 0.20928212 0.078299455 -0.045486208 0.036958467 -0.043726407 -0.10661106 0.0291266 -0.10738 -0.07689148 -0.029983558 0.013837416
돈 0.16031334 0.056898035 0.054272465 0.028542517 -0.20247717 -0.029877903 -0.22422698 -0.15356544 0.07885401 0.23127508 -0.06556248 0.18817382 0.11496403 -0.13841562 0.15921149 -0.119418085
이게 -0.0030400706 0.13449575 -0.02627227 0.042044915 -0.03479228 0.0011309122 -0.026729275 0.01702257 0.012578151 0.020233894 -0.08418486 0.19175166 0.013056038 0.042542443 0.17716382 0.012859327
성 -0.039419528 0.030753423 0.0043025436 0.17952655 -0.06758354 -0.0043550394 0.06563385 0.061619982 -0.014637843 -0.06380485 0.06156154 0.02256986 -0.022827951 0.048955295 -0.033565328 -0.016024161
느낌 0.04512381 0.142848 -0.060670942 -0.0147177335 0.020226903 -0.040289022 -0.05350045 -0.084529094 0.02345016 -0.0562836 -0.072918996 0.121551305 -0.10908009 -0.042330526 -0.07792499 0.025136227
시 0.027824137 -0.07784423 -0.0007125754 0.068176396 0.038745865 0.022845164 -0.016486688 0.103366844 0.08541507 0.054272834 0.19029316 0.0019973177 0.004111956 -0.010698512 0.11143344 -0.056636307
이야기 0.058960814 -0.037548948 0.0954676 -0.09454086 -0.03973676 0.09437367 0.0050400263 0.059320413 0.05636216 -0.021210924 0.04618679 -0.005284781 0.072324805 0.032550644 -0.047906693 0.12863639
최악 0.15031224 -0.29559544 0.32419103 0.2088882 -0.25447142 0.04552711 -0.38531798 -0.23169143 0.25749555 -0.247142 0.028800644 0.2754535 -0.13990094 -0.23810266 0.22876951 -0.026027583
된 0.0993307 0.0809235 -0.07367939 0.063292876 0.067387134 -0.026750706 0.0643595 -0.070062496 -0.1330985 -0.057118353 0.0019180125 -0.011213386 0.037471097 -0.0038200712 -0.07303298 -0.076952055
봐도 0.06516912 0.059739117 -0.16657066 0.009094541 0.028827803 0.057989623 -0.021419931 0.11969938 -0.24506621 -0.1515494 -0.123382054 0.0038862643 0.194638 -0.14147258 -0.16315934 0.075038545
님 -0.22600357 0.092409074 -0.17061892 -0.10896856 -0.106203124 0.063180186 0.15811345 0.081264555 0.08014625 0.049832698 0.027401717 -0.08980613 0.008415633 -0.051218957 -0.07317655 -0.10507085
어서 -0.009864828 -0.029237544 0.0025213596 -0.060226988 -0.09063032 -0.07953202 -0.08006549 -0.11504533 -0.06848631 -0.21647505 0.12935324 -0.051702812 0.18460612 -0.14323613 -0.10375543 -0.05635632
애 0.036122866 -0.010432648 0.036749206 -0.010998765 -0.090046234 -0.14249122 0.037941962 0.16355117 -0.09108135 0.055002347 -0.2071096 -0.05088998 -0.0740846 0.13727093 0.042234957 -0.12019922
전 0.014122022 -0.06300043 0.108564265 0.03392356 0.021948293 -0.04811848 0.0649351 0.0723733 0.01666478 -0.01896024 0.12224275 0.09517285 0.025810355 0.011454392 -0.031253807 -0.034909304
넘 -0.13428886 -0.006354493 -0.058575146 -0.06891089 0.00942319 0.060494814 -0.031077266 -0.13676466 -0.19343674 -0.12353343 -0.046483897 0.113438174 -0.031798795 0.012944558 0.0854823 0.036991082
ㅠㅠ -0.024612997 0.084894806 -0.1358249 -0.043255676 0.08005464 -0.039062805 -0.122518495 0.074122846 -0.17661722 -0.010800335 0.11126609 -0.0954308 -0.026917059 0.14723621 0.045758143 0.010842346
인데 0.06874318 0.002682092 0.021666646 -0.027884059 0.059347596 0.04556013 -0.08348451 0.022018308 0.027153632 -0.086185 0.011084964 -0.23065364 0.076479346 -0.048817534 0.021897651 0.10403672
다고 -0.2542058 -0.024480816 0.16313832 0.024492484 0.092664674 -0.02104094 -0.093112454 0.0006682293 0.14010248 0.09095536 -0.016593454 -0.057683446 -0.04121288 0.1047945 0.04510742 0.041614663
이해 -0.0051735924 0.01388559 -0.004872992 -0.03129816 -0.10074505 0.041378494 -0.0010410451 -0.0016148887 0.02466229 -0.07247946 -0.05868692 -0.013912869 0.019297516 0.0032299494 -0.11193334 -0.067859
별로 0.032563638 -0.1630196 0.18712671 0.15428308 -0.18734564 -0.06578909 -0.13179608 -0.16494244 0.16878189 0.17225453 -0.24370234 0.09334691 -0.20230576 -0.18864901 0.16213173 -0.20799586
그리고 0.0019936583 0.15938075 0.018884907 -0.029398127 -0.13152125 0.12479577 -0.04421963 0.098889366 -0.22012195 -0.011024079 -0.050507188 0.06676555 -0.13469231 0.12887841 -0.08262937 0.013752124
명작 -0.1467848 0.16365251 -0.032219596 0.06629875 0.3319555 0.077783845 0.07278168 0.19425182 0.007555298 0.048031013 0.005011864 -0.20681638 0.20032188 -0.024569932 0.00017912507 0.21316355
여자 -0.020174446 0.0053257076 0.154579 0.058624733 -0.07983388 -0.22856964 0.054494914 -0.04443765 0.04248028 -0.06886274 -0.08712304 0.055713754 -0.07508988 -0.042832762 -0.016114535 -0.10785721
^^ -0.091965996 0.18305683 -0.09582446 -0.049943157 0.10101246 0.066233225 -0.12214861 -0.05336126 -0.24677786 0.07696433 0.14941177 -0.08971872 0.0464299 0.091084026 -0.3060602 0.08600511
역시 -0.06952957 -0.02687508 0.13282812 0.09237528 -0.009759585 -0.07059694 -0.18133248 0.08270525 0.014534547 0.096816495 0.029117282 -0.12090602 0.06783437 0.09592415 0.108146325 0.20970184
난 0.134801 -0.0036596702 0.072017394 0.039190535 0.056729488 -0.011990823 0.049611688 -0.01613368 -0.030095844 -0.023088535 0.06873517 -0.22184967 0.0043140384 0.04511212 -0.048308313 0.08068651
이상 0.021969639 0.01601124 0.089599624 0.092898756 0.27575448 0.13081957 0.043799713 -0.07136268 -0.08323471 -0.02504216 -0.039041404 0.028707646 0.024913238 0.16678429 0.05558571 0.05529031
또 -0.095443666 0.036673468 -0.1029947 0.055388294 0.031724703 -0.029561568 0.034100637 -0.0026334706 0.07945482 0.012286474 0.03155799 -0.073605336 -0.0866413 0.123604774 -0.0902927 0.080161326
걸 0.033215303 -0.022025758 0.018720223 0.13170923 0.048427448 0.014304166 1.878362e-05 -0.13180281 0.06610236 0.020175928 0.07072749 -0.0431034 -0.027461005 -0.10793059 0.020160438 -0.049183886
한국 -0.0120578 0.00983249 0.01416398 -0.0032157106 0.11754949 -0.08713824 0.039924137 0.09424175 0.0106469 0.034862887 -0.103164054 -0.01579266 -0.10978512 0.056801192 -0.05382834 0.014815324
는지 -0.15544146 -0.13795531 0.028340949 0.049010616 0.009967378 0.11056634 -0.18118659 0.08222401 0.08286655 -0.09737743 0.02276773 -0.016832981 -0.07925814 -0.05558765 0.016700007 -0.030107042
많이 0.045446966 -0.15731192 -0.0091039855 -0.06258186 0.10538295 0.05698557 -0.069920175 -0.03949969 -0.051821712 -0.009149963 -0.09003633 0.020399274 -0.06948038 0.06231003 -0.043501195 0.046810947
에게 -0.13827796 0.029390607 -0.17748903 -0.11005811 0.046743654 -0.04444547 0.09385543 0.11883029 0.045460444 -0.023104342 0.20544836 -0.08201681 -0.061678674 0.047220003 0.008296882 0.05096941
부터 -0.077581115 0.0024506028 0.0242357 0.075901665 -0.065914914 0.07887842 -0.07322102 -0.09224826 -0.0513097 0.05123951 -0.11998513 -0.031868782 0.027581856 -0.1345457 -0.0392214 0.025814058
만든 0.15238471 0.0421737 -0.00707842 -0.081984416 -0.008122863 -0.07163535 0.13107798 -0.0026057328 -0.19526452 0.10813864 0.047357153 0.11860944 -0.105507165 0.049193256 0.010667816 0.061693367
주인공 0.020693691 -0.0035218108 0.049402002 0.06680512 -0.122632325 -0.075947925 -0.14746235 -0.117009744 -0.06518579 -0.039767053 -0.046744034 0.054428343 -0.12086406 0.07435134 0.038748655 -0.016459044
받 0.040585805 0.073686495 0.0584562 -0.041906092 -0.022468466 -0.11638067 0.11522578 0.13198231 0.13877349 -0.006127195 -0.017715307 -0.057009403 0.041051283 0.062275905 -0.11441473 -0.0724436
합니다 -0.048986517 -0.09344349 0.08899987 -0.09315621 0.12685537 0.08309219 -0.11981037 0.009283945 -0.058290098 -0.040156785 0.09354496 0.07292242 0.08854138 -0.077596664 -0.013016088 0.12441549
우리 -0.06854915 0.07489805 -0.09877907 -0.057161305 0.148722 0.24675386 0.06266484 0.006582729 -0.016555699 0.11309078 0.1277709 0.12465036 -0.0061291754 -0.01109529 -0.049333002 0.1316924
두 -0.08915539 -0.113595575 0.0028831565 -0.05873592 0.083839886 -0.026408749 -0.054267168 -0.1307235 0.05094948 -0.09922547 -0.038218454 -0.041921217 0.056275703 -0.16299681 -0.07212349 0.034044385
살 -0.25593588 0.040310655 -0.040008083 -0.081457116 0.0044354373 0.055439442 0.12565233 -0.015562412 0.07362425 -0.012782832 0.035087425 -0.1292646 0.15475513 -0.08404959 -0.011435642 -0.1717247
!! 0.0024415096 0.06836688 0.0053000962 -0.11258938 0.0430079 -0.12827623 -0.015477456 -0.032675438 0.19262448 -0.10678678 -0.004685418 0.04913742 -0.028118813 0.03006631 0.030535363 0.004879243
길 0.0882478 -0.09224614 -0.19030914 -0.03858405 0.012373309 0.017009366 -0.03769383 -0.01656368 -0.13739783 -0.016887942 0.058276717 0.04981368 -0.019451676 -0.12417507 -0.038767394 -0.013637093
엔 -0.02546595 0.073397875 -0.0054653473 -0.07366993 0.047451556 -0.0681631 -0.08573469 -0.061152074 -0.06500967 0.18620388 -0.06100534 0.032358807 0.12443436 -0.08413771 -0.0076031433 -0.06259462
괜찮 -0.07543996 0.16749364 -0.19596742 -0.07352249 0.06162245 0.04118571 0.20692709 0.028481785 -0.14909913 0.2033586 0.13356014 -0.072943814 0.11244071 0.112802245 -0.028056713 0.0004368137
기억 -0.108764865 0.076254144 -0.17391099 0.07150172 0.0010924676 0.01915537 0.008571768 -0.022752127 -0.09285628 -0.04386919 0.029398113 -0.17230113 -0.07898451 -0.00506292 -0.11006535 -0.082215056
연출 0.09361542 0.067318164 0.054749597 0.01201187 0.033238553 0.015969133 -0.012764876 -0.12869105 0.11147119 -0.10103262 0.004324495 0.12086298 -0.1527849 -0.11411893 -0.14602433 0.08369427
한다 -0.17493188 -0.067962214 0.023417337 -0.055638276 -0.24699232 0.19964494 0.0369626 0.015942594 -0.003525446 0.037228875 0.08660001 -0.12743412 -0.023534797 -0.023833575 -0.07498475 -0.096116826
때문 -0.25325486 -0.0029340354 0.12645403 0.019713275 -0.030780908 0.08383636 0.0890957 -0.021505294 -0.0007368431 0.009484512 0.13954613 -0.059922047 -0.07325286 0.024941511 -0.025338018 -0.048412774
이나 0.099955924 -0.0051762653 0.14865461 0.021483133 -0.058610406 0.12405553 -0.07269534 -0.11869716 -0.1347385 0.060961843 -0.04029091 0.070500836 0.012963394 0.047977354 0.060211614 -0.094971314
ㅎㅎ -0.17191407 0.010014186 -0.14700685 -0.09196631 -0.035403304 -0.0005606704 0.15747324 -0.20875059 0.032244205 -0.008833489 -0.07458148 -0.17399737 -0.015674654 0.12786177 -0.11364033 -0.14150335
요 0.1946195 -0.06150813 -0.048353422 -0.091777086 -0.016510954 -0.11203459 -0.1474806 0.07943462 0.024046082 0.05622382 0.11933299 0.03163534 0.013185907 0.07349896 -0.11573499 -0.028387362
저 0.0504929 0.037956286 -0.037985787 0.05458846 0.10903117 -0.10191073 0.06055206 0.14256613 -0.031672973 -0.04908656 -0.087579474 -0.023522628 0.2936461 -0.02548991 -0.0024979028 -0.0076135322
재 -0.088880606 -0.010713172 -0.31134686 -0.0710924 -0.034763504 0.07802747 0.069675736 0.0027063368 -0.102738604 0.13201621 -0.055096257 -0.21518667 0.006876134 0.0852257 -0.019752014 0.024321461
꼭 -0.14291537 0.42103478 -0.08808804 0.11218789 0.053025946 0.11711654 -0.010018411 0.03051791 -0.09450423 0.05902161 0.19442625 -0.021299494 -0.035012733 -0.018413927 -0.058210135 0.10233622
랑 -0.09337183 -0.03780416 0.17036608 0.017119722 -0.06023777 -0.0459153 0.11439751 0.047484245 -0.00811756 0.07612431 -0.05961123 0.099753916 -0.22153147 0.1033765 0.13205776 -0.080926225
며 -0.17525005 0.014649104 0.007292297 0.012418579 0.01008386 0.04879732 0.065089926 0.20823383 -0.10106077 0.18023391 -0.07154377 -0.07359255 -0.03538919 0.0021598598 -0.05325538 0.08984307
현실 0.04011477 0.049886014 0.040028915 -0.1548277 0.079544514 -0.06949709 0.08734721 0.108296916 -0.058005642 0.031907808 0.15715508 0.032150213 -0.04080678 0.10004146 -0.15803841 0.08534444
긴 -0.11450488 0.038837466 0.105254725 0.032006998 0.022041991 0.3154211 -0.12436599 -0.07781843 0.16999109 -0.018290523 -0.06683113 -0.10715329 -0.25553387 0.05275569 -0.079525396 0.010237347
ㅡㅡ 0.030621381 -0.11852259 0.020900054 -0.009409524 0.11000299 0.10951067 -0.0052374033 -0.07776156 0.13910942 -0.09172448 0.030550957 0.033939514 -0.16486986 -0.13894989 -0.04847682 -0.15727484
무슨 -0.011439972 -0.05274203 0.05566239 0.13280676 -0.07028888 -0.05548858 -0.07518668 0.22281192 0.017654855 -0.047383774 -0.042991657 0.06537049 -0.14443704 -0.054300357 0.16148862 -0.10742928
내내 -0.08518215 -0.08087749 -0.103277996 0.20726697 0.02964105 0.025300909 -0.03318863 -0.1130402 -0.10511695 -0.11405744 -0.06501959 0.036462512 -0.083366044 -0.03801648 0.055397414 -0.04521247
결말 -0.07388867 -0.11104208 -0.039648872 -0.1537381 0.0067952704 -0.104904175 -0.00043975902 -4.031462e-05 0.077420235 -0.03338493 0.019748697 0.034854576 -0.006508443 0.060725693 -0.003851845 -0.042581145
죽 -0.12478139 0.09242446 0.02696709 0.16189529 0.03756578 -0.040702175 -0.02488039 -0.077785775 -0.08367587 -0.111495785 0.02428023 0.01636466 -0.16848022 0.11328425 -0.04361269 -0.14275733
남자 0.078552395 0.0029518115 -0.094966546 0.04581416 -0.0077258027 -0.03969546 -0.12011042 0.10635195 -0.14596614 0.1638328 0.05931587 -0.019082123 -0.026162509 -0.016129786 0.02871028 -0.013690864
세요 -0.060429975 -0.03332139 -0.11249513 0.15112 -0.102293916 0.01608081 0.01280909 0.099422224 0.04433441 -0.056901243 0.07495287 -0.053124934 0.09752729 -0.11328194 -0.06670078 -0.02786143
전개 0.10364739 -0.075806044 0.09668665 0.038326636 0.08879226 0.037429236 -0.04557656 -0.05232244 0.021296706 -0.030614965 -0.043441672 0.013311677 0.08523334 -0.10326993 0.24152592 -0.0734851
마음 -0.13651153 0.076940306 -0.2094594 -0.084352255 0.04133068 0.093528315 0.046744864 0.04128033 -0.20136158 0.15658964 0.12697855 -0.08179624 0.13213521 -0.0055641783 -0.2589169 0.03164042
소재 -0.22172 0.08660214 0.01438355 0.030789658 -0.07523351 0.09692226 -0.06998348 0.15578027 0.07693109 -0.0372105 -0.08963405 -0.054508742 -0.15312938 0.027060037 0.072284326 0.0068380767
속 0.2544661 -0.12871021 -0.03711746 0.22304061 -0.010513436 0.10940976 0.0037987211 -0.119977124 -0.13433948 -0.1188713 -0.054035462 0.05091778 -0.027971838 0.012032024 0.066151075 0.09599749
공포 -0.11507835 -0.061302207 -0.0071711177 0.13066362 0.019779628 0.06649268 -0.03306537 -0.118884236 -0.0945015 0.06672575 -0.17213458 0.10859611 0.17308384 -0.09724829 0.100597255 0.07355008
아서 0.031382643 -0.014049421 0.045434803 -0.014153027 0.084036015 0.09899803 -0.042561814 0.039946206 0.07083092 0.062374398 0.0531043 0.088669814 -0.13039206 0.02639314 -0.054887425 0.024326218
다른 0.087770745 0.11242936 -0.11610484 -0.036296733 -0.16300333 -0.0858909 -0.03334845 0.059482895 0.08761182 0.059248608 -0.034286395 -0.013908323 -0.07555484 -0.066552885 -0.08967718 0.07191737
씨 0.101769365 0.09006544 0.02081858 0.054494917 -0.066299215 0.011754218 0.037944827 -0.085171826 -0.039628267 0.027643528 -0.10670421 0.13710754 -0.06122426 -0.05514143 -0.029098842 0.1512004
인생 -0.44065806 0.25597358 -0.20620386 -0.28961062 0.1326228 -0.08162698 -0.1370776 0.14972186 -0.012210271 0.11744939 0.040654726 0.100731246 -0.09136434 0.099933095 -0.17079957 0.016167494
~~ 0.051852044 0.07078869 0.0156036075 -0.0349685 -0.033044986 -0.01746929 0.07116272 0.14521444 -0.10463061 -0.016779868 0.07162382 -0.14651544 -0.0877928 0.054495282 0.099065825 0.08593306
짜증 0.044055197 -0.24288173 0.004215632 0.13276306 -0.10303142 0.08455431 -0.026693061 -0.12197416 0.105385154 -0.11804223 0.005609945 0.22112921 -0.15660739 -0.14281242 0.24920459 -0.16380121
짱 -0.24437639 0.10275724 -0.076259166 0.05236967 -0.031170055 0.15162867 0.1880229 -0.0124697285 -0.06080347 -0.04279533 -0.10800316 0.12437557 0.032814845 0.021425325 -0.058853988 0.16924636
뿐 -0.08095233 -0.019052649 0.16473609 0.11669822 0.05883547 0.06112163 -0.07822628 -0.05946861 0.031598113 0.1944537 -0.067662075 0.07678426 -0.06939681 -0.015339111 0.074433275 0.015622365
은데 -0.07138738 0.07048056 -0.13563612 -0.088140346 0.19166519 0.07629469 -0.09330753 0.18556921 -0.07068059 -0.19102731 0.18454942 0.17969206 -0.15043393 -0.036142107 -0.1043477 0.008019992
별 0.17979194 -0.18483792 0.07109191 -0.030429287 0.051436026 0.1900762 0.02306362 0.06068665 0.22505976 -0.08810366 -0.11919365 0.09957453 0.12707503 -0.13136683 0.21631728 0.06513356
아요 -0.015829284 -0.07438009 0.035810865 -0.05593621 0.03577022 0.026389318 0.046871684 0.18289179 -0.0547754 0.038899846 0.019172112 -0.067206524 0.033469915 0.03918302 -0.030225387 0.032241266
유치 -0.21554929 -0.18852746 0.15905078 0.05140636 0.098234735 0.06288631 -0.08409803 -0.3160605 0.3185615 -0.09405166 -0.051220346 0.046335097 -0.109945156 -0.14401342 0.16109796 -0.19854231
가장 -0.07461118 -0.28905648 -0.06359163 0.009938036 0.04608525 0.19554912 -0.078041166 0.06486625 -0.12058138 0.06844431 0.064863086 -0.0035788058 0.0043731327 -0.001024962 0.044411678 -0.033865266
필요 -0.117747806 0.097388566 -0.0989427 -0.18792874 -0.017762251 -0.011910208 -0.10996144 -0.2559317 -0.23234132 0.113386735 -0.0816405 -0.211604 0.06418915 0.25605118 -0.17290652 0.10458167
음악 -0.045829583 0.11420754 0.11395099 -0.06316316 0.14974344 -0.05013811 -0.09208904 0.04409123 -0.026516475 0.20656182 0.110808454 0.06723482 -0.08086607 -0.043881077 -0.21688412 -0.055374343
) -0.15650085 0.03977681 -0.15091303 -0.117222235 -0.037625477 -0.10708765 0.03272636 -0.001490131 -0.07113645 0.08637916 -0.028248884 -0.04897912 0.04371601 0.042449065 -0.016283916 0.060068678
일본 -0.07724145 -0.010199431 0.123027384 -0.002765542 -0.084645726 -0.10116971 -0.083801694 -0.044935737 0.09888969 0.0016593214 -0.07706123 -0.09860857 -0.19228007 0.08216279 0.034869447 -0.19598247
낮 -0.17160241 0.27326578 0.13673873 -0.07128221 -0.06935847 -0.13802733 -0.000901511 0.06857134 -0.010854495 0.27123114 0.20381859 -0.14098354 -0.040748924 0.057084072 -0.16686626 0.23501888
아이 -0.15846692 0.055660404 -0.094939224 -0.24040842 0.036950827 -0.05522529 0.02696402 -0.009197133 0.016573116 0.010246414 0.024797274 0.05760315 0.046486944 -0.0885592 -0.0029987334 0.12640235
;; 0.0731672 -0.020522423 -0.009931539 -0.121039204 -0.18227509 -0.07513094 0.08112131 -0.00022661785 -0.033615816 -0.019913247 0.09608388 -0.07700946 -0.12085557 -0.06426329 -0.06793732 0.018935096
오 0.0053324364 -0.059615128 -0.041175812 -0.028273853 -0.0028319978 -0.102184944 0.123074815 -0.07975887 -0.1063505 -0.025505891 -0.13228169 0.03534819 0.11559366 -0.024960762 -0.023109773 -0.055353414
반전 -0.14351965 0.003010549 -0.074717075 0.11807327 0.07853887 0.013085289 0.06675906 0.14827222 -0.18296729 0.036458556 -0.0299883 0.07000586 -0.04656346 -0.03942291 -0.027363556 0.12132481
수준 0.16737977 -0.12035262 0.007665881 -0.0713379 -0.16984949 -0.1275508 -0.16478045 -0.16136199 0.12885042 0.1952647 -0.055288758 0.017190918 0.07319746 -0.13321732 0.10301807 -0.18670991
다니 -0.054830916 -0.03725235 -0.15156129 -0.07291345 -0.0067800167 -0.009563727 -0.13111474 -0.052373257 -0.07655466 0.058406647 0.030847695 -0.0022438718 -0.04074493 -0.043486107 -0.18809102 0.0057758223
웃 -0.13058457 -0.056262232 -0.025139594 0.021258136 -0.039091494 0.1636716 0.06303426 0.05638127 0.09941527 -0.08610032 -0.015584085 -0.0850181 0.050862413 -0.10033463 0.023145087 0.0708056
매력 0.08652822 0.09528026 0.03767057 0.043039467 0.09835809 0.11908737 0.061050754 0.105070986 0.009883371 0.094656765 0.06719101 0.10943748 0.080499835 0.08237834 -0.012851721 0.19996276
맞 -0.14304815 -0.10650549 0.0028497553 0.02643695 -0.0018567035 -0.008702733 0.03991865 0.0012123658 -0.08614268 -0.013189018 -0.11824559 0.024275979 -0.041354537 -0.122805044 0.17041528 -0.07551933
인지 0.10157391 -0.049397454 -0.026873687 -0.008027307 0.0458271 -0.015787745 -0.27335057 -0.06513035 -0.008423349 -0.12322373 0.075197294 0.008352172 0.010028756 -0.088949785 0.12522511 -0.015006572
가슴 -0.15162885 -0.0077488925 -0.08740273 -0.031122392 0.1945704 0.08084096 0.22941184 0.039530993 0.022122638 0.13735655 0.17210838 -0.08786299 0.23638333 0.008404704 -0.2578494 0.12054346
없이 -0.13296244 -0.024237582 0.049448773 0.014782029 0.026466431 0.2102886 -0.05321956 -0.06782378 0.01115565 -0.14492281 -0.052785337 0.037791617 -0.13188526 0.120980345 0.018866628 0.0014576304
원작 0.06160609 0.15001684 0.051289562 0.06706436 -0.055867236 0.15835501 -0.029958818 0.10379152 -0.09043367 -0.1383307 -0.26297572 0.095035486 -0.011472127 -0.13775882 0.013289333 -0.04718252
ㄷ -0.012862174 0.19558835 0.24336992 -0.11075177 0.0024616872 -0.028631492 -0.047122274 0.06490646 -0.021116894 0.07798707 -0.07075016 -0.035153665 0.051010203 0.035207435 -0.03531787 -0.13703726
인간 -0.092587255 0.0660853 -0.072834566 -0.0043337634 0.035489652 -0.08765869 0.10373117 0.22093104 -0.03750545 0.12424923 0.15822838 -0.1221798 0.01708165 0.072206706 0.04884394 -0.017047405
데 -0.06392523 0.010083081 -0.025097555 0.12938927 0.1047485 0.04073016 0.00125481 -0.05483451 -0.07512232 -0.06924212 -0.018613635 0.0023895144 0.06555099 -0.013529283 -0.023966068 -0.025410678
굿 -0.14712033 0.021708315 -0.20046379 -0.10164132 0.10704329 0.16982248 -0.13796736 -0.013423557 0.00899182 0.10826862 0.060917318 -0.1347945 0.33199677 0.20225222 -0.0888743 0.17008072
ㅠ -0.09803506 -0.082913496 -0.109159745 -0.078349 -0.012777579 0.05721679 -0.21760175 0.12419159 -0.03914062 0.06986198 0.17133503 -0.07460874 0.0010322029 0.07563052 0.045245033 -0.0110224895
높 -0.10856107 -0.17359833 -0.112155564 0.15597431 0.01973582 -0.1077023 -0.06610418 0.15232894 -0.067490526 -0.06784902 -0.018282728 0.09558484 -0.085400075 -0.096476726 0.09760644 -0.14216442
밋 -0.17256027 0.06209082 -0.071473666 -0.31263193 0.13481249 0.15410247 0.14795026 0.14962627 0.037796654 -0.042488966 0.09210739 0.049791597 0.036262255 0.121275686 0.024699165 0.1369538
( -0.05279255 0.039365593 0.2005922 0.10904963 -0.1648718 -0.19161303 -0.041044556 -0.10535514 0.09418197 -0.043014847 -0.06635809 0.10045355 0.024167469 -0.017480113 0.0025199293 0.1390605
만드 0.039175104 -0.0656363 0.06280297 -0.017626446 0.05298676 -0.039268292 -0.070863344 -0.123450235 0.047275882 0.016647028 -0.01366108 -0.016881859 0.20997848 0.06371326 -0.00731155 -0.070911594
급 0.0381697 0.026389455 -0.048537746 0.01899515 -0.043273617 0.018417796 -0.04364012 0.12585263 -0.076575704 -0.038164973 0.1263802 0.053258374 -0.121450014 -0.09773594 0.058538526 -0.029218143
눈물 -0.15825224 0.21437085 -0.1358152 -0.10860364 0.112857945 0.1261476 0.19801138 0.07927006 -0.08388354 0.09689905 0.2315326 -0.19929561 0.2772712 -0.082884654 0.016648171 0.18234865
보여 -0.042804636 0.014650656 0.019241573 0.061669637 0.026155792 -0.088178456 -0.09181185 0.0862084 0.13959241 0.12441168 -0.027242647 -0.05313988 0.06335549 -0.13212846 0.035144016 0.037288975
준 -0.104852416 0.088545404 0.03160584 -0.007748718 0.014896253 0.3379396 -0.07910432 0.06468014 0.056329485 -0.06303059 -0.10750796 -0.038155675 -0.093537666 0.14963475 0.12738489 -0.17156805
찍 -0.037018567 -0.099711604 0.07399269 -0.049907044 -0.15586524 -0.06586633 0.04552108 -0.04038202 -0.11219911 0.011264163 0.08446369 0.060300466 0.005729366 -0.32721728 -0.011452186 -0.21109381
인가 0.0118402755 0.05881557 0.041727457 -0.025491055 -0.038059276 0.06897144 0.00013934518 -0.121776514 -0.07152453 -0.037793163 -0.021075854 -0.034414265 -0.18718633 -0.033089112 0.1263462 -0.08127001
노 -0.12483785 -0.10448801 0.2501942 -0.074436754 -0.07503089 -0.22419503 -0.23344061 -0.1938681 0.27360642 0.10272706 -0.23105253 0.10597062 -0.09039451 -0.22997639 0.22400612 -0.3038577
을까 0.120713964 0.054167528 0.09706541 0.07918965 0.06613455 0.011296518 0.08114915 0.07448994 0.026444508 0.05565702 -0.04870191 0.07546768 0.10204935 0.10554522 -0.0006408289 -0.018676817
용 -0.015568639 0.016145365 0.11579354 -0.061490055 0.09234654 0.07716063 0.0416689 -0.0036440147 0.044913433 0.049707703 -0.12805481 0.13283843 -0.0065853787 0.035635192 0.0320058 -0.1703861
코미디 0.083057486 -0.11049217 0.041427318 0.13848718 -0.12145296 -0.02627893 -0.046752054 0.16864157 0.100382105 -0.012439906 0.025259797 -0.042729303 0.04771724 0.033613753 -0.15115468 -0.1032377
마 0.030441951 0.15175024 -0.04181056 0.19441083 -0.06878832 -0.044557378 -0.080156274 0.02221448 -0.0596084 0.07145829 -0.012294283 0.037545267 0.021206398 0.0023845658 0.066881604 -0.09474337
화 0.06384515 0.06128792 0.015990943 0.10581721 0.14783676 -0.13011327 0.022281405 0.031681105 0.22588593 -0.023976684 -0.057397168 0.00031214603 0.07241823 -0.09524732 0.19326437 -0.1114656
신 -0.05741255 0.06962382 -0.021836841 0.030247947 0.111733966 0.04931081 0.023378775 0.06752145 -0.03580354 0.0012801952 0.15102156 -0.03241446 0.08518111 -0.02504657 -0.20843494 -0.071146265
모든 -0.027114278 0.111043684 -0.2299439 -0.093991704 0.122386225 -0.057056054 -0.043816503 0.17994022 -0.12087129 -0.12767366 0.025768774 -0.1606591 0.17590937 -0.022784345 0.05285225 0.10812484
쓰 0.047780346 0.11046048 0.1415544 0.09053688 0.012788637 0.16661224 -0.095981725 -0.012290438 -0.12233201 -0.041471183 -0.023557432 0.046115465 -0.0048948065 -0.032310992 0.32109278 0.022355147
여 0.18077514 -0.017126294 -0.011135799 -0.0007781245 0.04520727 -0.11709459 -0.04002935 -0.01571354 -0.06359894 -0.11385755 -0.0012201407 0.085942894 0.042718653 0.047939997 0.053471856 0.09923814
5 0.00420982 0.13110924 -0.032738708 -0.18933232 -0.20014034 0.10627314 0.09998434 -0.16488945 0.030169744 0.027436242 0.011355487 0.14612208 -0.05064652 -0.015822371 -0.2508414 -0.014129819
아직 0.02192378 0.096524544 0.029308384 -0.16702013 0.096499294 -0.1755395 0.051559344 0.074011944 -0.0010864219 0.016152095 0.10703762 0.16704126 -0.040262856 0.21525474 -0.11612998 0.03633531
추천 0.001924017 -0.04607219 -0.0033811992 0.052623197 0.16608255 0.05721422 0.051915195 0.10202522 -0.14631166 0.2563232 0.01294269 -0.103976 0.12194921 0.07305997 -0.22341275 0.12246833
처럼 0.032834284 -0.104382806 0.01954348 0.1078047 0.021187644 0.046843275 -0.09291474 0.059886567 -0.05700112 -0.0045860065 0.3182192 0.040099904 -0.06205053 0.061309364 -0.09461175 0.044391826
눈 -0.0863868 -0.07991606 -0.049550124 0.0011735079 -0.15154575 -0.09415532 -0.07676242 0.038644478 -0.0061317487 0.06753575 -0.09553788 -0.11280819 0.04440647 0.0057621105 -0.033612955 -0.092163034
아닌 0.06654789 -0.060131572 0.09745733 -0.013074421 -0.0045224493 0.13512668 -0.16780773 -0.056888588 -0.001825356 0.0077275746 0.011584302 0.083625354 0.06881766 -0.13590881 0.07506984 0.06043305
자체 0.0491499 -0.08374517 -0.19594485 -0.041295942 0.007621303 -0.10377243 -0.15107708 -0.20126165 -0.036091227 0.094239034 -0.017511662 0.06808382 -0.026875138 0.03701187 0.0048326864 -0.07773662
울 -0.08291938 -0.035975475 -0.18754339 -0.2096484 -0.07633482 0.12748975 0.18593173 0.14957543 0.004638606 -0.04962221 0.093206145 -0.14521542 0.06305833 0.09849425 -0.018641908 0.1662917
몰입 -0.17736326 0.0069129206 -0.05244049 0.014592796 0.08421943 0.021096421 0.12436307 0.19133346 0.021963734 0.018323222 0.23222966 -0.1795966 -0.016023338 -0.092030086 -0.031575743 0.05922892
4 -0.019634617 0.074895725 0.028823666 0.015684836 -0.07986847 -0.11961761 -0.083527826 -0.0025806532 0.059309445 -0.016471643 -0.094555296 0.12210782 0.011719154 -0.065954044 -0.08034394 0.029080093
대박 -0.17408603 0.070375085 0.124973536 -0.4295095 0.1637934 0.11271145 -0.055889048 -0.058552705 0.075182006 -0.1289501 0.15783986 -0.16437826 0.2035481 0.27735716 -0.0024907081 0.22170322
몇 -0.049829613 0.021561185 -0.030162804 -0.049823668 -0.10849929 -0.037582655 0.01300915 -0.12560558 -0.07214399 -0.05756512 -0.016958633 -0.069383755 0.03476491 0.1372451 -0.12149311 -0.049915705
스럽 0.026239868 -0.02422225 -0.09266868 -0.030385012 -0.048023533 -0.10622504 -0.0019011929 0.0060209283 0.0061571244 -0.15744914 0.098078564 0.04977152 0.07997128 0.06295721 -0.21471925 0.0036434988
실망 0.23988836 0.10694824 0.2705424 0.22690827 -0.22085127 -0.34942582 -0.47326398 -0.09887101 0.034280024 -0.01924104 -0.17456539 0.2189025 -0.28838202 -0.27663726 0.18558146 -0.18775655
는다 0.12606004 -0.163652 -0.0032771989 -0.060301576 -0.0845976 -0.03789571 -0.0677937 0.013990776 0.09016333 0.123166166 -0.207547 0.12209583 0.026618263 0.030799197 -0.01030421 0.06933315
대한 -0.099446096 0.106550604 -0.026569927 0.008408074 -0.024982143 0.04547568 -0.02010341 0.11834909 0.018021375 -0.024609974 0.086187854 -0.042281367 0.03451852 0.074981764 0.14976913 -0.14420451
죠 0.02228555 0.0049921144 -0.055057123 -0.09244925 0.076595046 -0.004607024 -0.018595437 0.010696116 0.0023328967 -0.01864742 -0.13351768 -0.011358659 0.047275398 0.029763926 -0.11344517 0.08174415
란 0.032124024 0.18345581 -0.1807212 -0.010990722 -0.029547766 -0.0012153949 0.021368833 -0.040159564 -0.05027435 0.096613556 0.12727727 0.0036781323 0.13915099 0.048645638 0.16556154 0.08827131
그런 0.23662752 0.0034478633 -0.042742938 0.112368666 0.0746144 0.017995225 0.11685689 -0.169048 0.13208401 -0.035136584 0.005873438 0.19111148 0.053386725 0.036574494 -0.005880655 -0.060222566
솔직히 0.046200093 -0.17210612 0.022564517 0.14688168 -0.16786034 -0.057318013 0.024436666 0.08749832 -0.045425788 -0.14463137 0.059812408 0.32371226 -0.04666157 -0.04511506 0.10127626 -0.01193857
캐릭터 0.13691671 -0.028636334 -0.017335273 0.018986031 -0.07848945 -0.004738185 -0.047102645 -0.053345032 0.023275867 0.0042506536 -0.03937213 0.18191665 -0.20658214 0.114593245 0.20952989 0.0706188
ㅎ 0.109595455 0.012403431 0.09154597 -0.12376218 -0.05554297 0.14874217 0.012038036 0.08742148 -0.07768556 0.041946154 0.030280434 0.11363232 0.1401988 0.1587807 -0.018167345 0.075272895
모두 0.054506384 0.064938 -0.016600398 0.017133333 0.059369285 0.13491872 0.013049651 0.09704696 -0.19136344 0.059183434 0.15615073 0.012660911 0.032268807 -0.066885404 -0.02425992 0.010801674
아주 0.018737447 -0.16632882 -0.18870944 -0.121871434 0.0077831643 0.030314956 0.15611199 0.1418306 0.10588754 0.078628145 0.011522386 0.0074291937 -0.00019939535 0.035090398 0.073836684 0.009627576
- 0.10102805 0.06018129 0.16002 -0.15902625 -0.16934016 -0.01672941 -0.15869237 0.2567649 0.056740988 0.12188946 -0.011842323 0.0010990568 -0.0011154102 -0.0928912 -0.110987 -0.13986623
가족 -0.022842953 0.08455555 -0.011772115 -0.01106952 0.18937458 -0.18263835 -0.040121064 0.011982166 -0.10101637 0.1424629 -0.020688467 -0.07663528 -0.0046699326 -0.017047022 -0.0071695815 0.054782864
여운 -0.15040463 0.10074216 -0.24105512 -0.02998649 0.23420095 0.2072059 0.13669471 0.3442524 0.042507496 0.19035599 0.21111792 0.114156164 0.24246432 0.03393551 -0.2269708 0.30018508
건지 0.062211983 -0.006982432 0.057337392 0.13898897 0.021465156 0.13576894 0.01955625 0.010823191 -0.023533557 0.10481039 -0.0043574115 -0.07382865 0.03959867 0.07032241 0.2187545 -0.06593203
전혀 -0.19086018 0.031666964 0.20500897 -0.00471741 -0.13014652 0.101653874 -0.100258864 0.11613203 0.051256225 -0.23607275 -0.15676421 0.11013206 -0.027047882 0.06293276 -0.05313129 -0.008016366
연기력 0.12544951 0.15975349 -0.11471951 -0.05196046 0.093036 0.12903494 0.0075296443 -0.043463368 -0.043247275 -0.045023374 -0.3540952 -0.09923198 -0.05394976 0.03671388 -0.013205813 0.12097403
나라 -0.08552236 -0.034135077 0.066773504 -0.013965841 -0.06266052 -0.059996527 -0.05204198 0.059785325 -0.23502289 0.116351314 -0.16812122 0.0008418583 -0.1459281 0.06077839 0.010726227 -0.046673436
후 -0.015163384 -0.08283176 -0.018719604 0.062120747 -0.016345713 -0.06630086 0.05388544 -0.03978947 0.15232988 0.15046231 -0.08188554 -0.02459554 -0.028647073 -0.15668257 -0.112594016 -0.002126175
될 -0.027533557 0.07420751 -0.08821464 -0.029152645 -0.15422498 -0.063024476 -0.058801644 0.016261809 0.17405722 -0.08130241 -0.09590158 -0.013030553 -0.06511638 -0.021537542 -0.12612757 -0.090572506
다면 -0.025371078 0.14754388 0.03863581 0.024853224 -0.091879256 0.11283631 -0.14167033 0.046670828 0.011952105 0.16095261 -0.19302617 -0.106080845 -0.0036673085 -0.06539715 -0.08331899 -0.086988285
뭔가 0.20158008 -0.10728225 -0.014294929 0.14924556 0.10030765 0.046097748 0.0051360927 -0.06277376 -0.156804 0.018893735 -0.01644542 0.048382558 -0.062278517 -0.10159322 -0.018637344 -0.051823083
그래도 -0.023552652 0.15142262 -0.03693559 0.029020594 -0.09608712 0.18746433 -0.021731494 0.017376084 -0.02960959 -0.04817648 0.0804422 0.14541535 0.10733 0.04929836 0.18179078 0.14342332
; -0.012439218 -0.11714991 0.0344833 0.041508835 -0.00091054896 0.17095879 0.0067092553 0.048353303 -0.043233424 0.143791 -0.17782427 -0.016792402 -0.1142622 -0.11721544 -0.02904104 0.009731369
시리즈 -0.043045506 0.058002625 -0.14001574 0.04266302 0.042067863 -0.08637964 -0.11977295 0.012473602 -0.054139134 -0.0012491448 -0.017171348 -0.2085906 0.19879177 0.050986506 -0.09360447 0.26547557
근데 -0.14975147 0.041095812 -0.03951472 0.16208929 0.16015619 -0.13273524 0.13623595 0.13586663 -0.1024221 -0.14082311 -0.08144872 -0.091102295 0.05410375 0.06390307 -0.14025189 0.14220504
작 0.038934834 -0.035964448 -0.025062513 -0.035692424 -0.030441165 -0.0828348 -0.14847076 0.24104474 -0.12638016 -0.05584584 -0.1917443 0.0004906298 -0.08130355 -0.010228255 -0.15811104 -0.07777873
표현 0.03079616 0.19143857 -0.0030992813 -0.050688755 0.0642201 0.04524678 0.05444362 0.22232501 -0.014815052 0.018462148 0.09413054 -0.09776639 -0.07996722 -0.030550353 -0.0791188 0.2485293
모습 -0.020943223 -0.15783435 -0.25038773 -0.19903506 0.055104397 0.014404147 0.03222145 -0.0017414604 -0.11993465 -0.14992547 0.14207217 -0.084788024 0.009978161 -0.010693241 -0.043513402 0.09893886
공감 -0.12374438 0.07761557 -0.22075187 -0.0933515 0.043527167 0.093648866 0.20876752 -0.0339632 0.007520353 0.08819664 0.06098288 -0.150872 -0.08300943 -0.14778881 -0.057449177 0.0011088434
계속 0.008001693 -0.038814966 0.07608198 0.031025501 0.14909723 -0.021454621 0.10126435 0.15334803 -0.07466063 0.16948572 0.09772981 -0.10820027 0.069295235 0.13034827 -0.012280435 0.06577582
먹 -0.10537737 -0.1562235 0.08184906 -0.025758741 0.13278848 0.046099305 -0.032819644 -0.047308218 0.08068927 0.0056482065 0.02304466 -0.009828027 -0.0725242 -0.016317757 -0.08733469 -0.1378894
"" -0.0733508 -0.07408494 -0.07335036 0.09222964 -0.3126536 0.18890108 -0.010053638 -0.0056053367 0.039264705 -0.1546215 -0.0583916 0.019034747 0.04877995 -0.026296599 0.040950805 -0.01144721
제목 0.053439915 0.062195785 0.065958984 -0.11227178 -0.08141571 -0.17001617 0.05507238 0.12845263 0.036823798 -0.036532797 -0.16197915 0.117499724 0.14028277 0.13549481 0.03142992 0.0751514
7 -0.18748865 0.02937026 -0.03332998 -0.061140403 0.18426132 0.08724198 -0.075896114 -0.031541638 0.017435906 -0.0514163 0.10254284 0.032543458 -0.035159364 -0.009505187 -0.015653187 0.06699396
이랑 -0.10721101 -0.06770299 -0.04977297 0.030832283 0.09488668 0.10896848 -0.018386068 -0.11970481 -0.009498044 0.018166056 -0.22217254 -0.14593008 0.06416304 -0.011118982 -0.015444111 0.021775685
극장 0.15683196 -0.04272657 0.067927524 0.11246944 0.037435606 0.13064681 -0.10991095 -0.075849675 0.1004998 0.067574106 -0.17928287 0.0781384 0.013540572 0.119876966 0.02023609 0.042045854
치 -0.002999897 0.09359971 0.06807134 0.015476835 -0.060347516 -0.09884833 0.07643292 -0.035449993 0.2552712 0.14697866 -0.08009303 0.013739477 -0.112666205 -0.0986472 -0.025003448 0.041254114
비 0.013534862 -0.1156648 0.09011117 -0.089985065 -0.18810527 -0.07360473 -0.11257095 -0.0016392374 -0.17373809 0.21554898 -0.17113422 0.11334664 0.020122873 -0.02834869 0.12125623 0.09650741
이걸 -0.0004657494 -0.07453292 0.10859474 0.15715194 0.03263702 -0.005569676 -0.17359588 -0.14888354 0.005330461 -0.0040870095 -0.02941838 0.008916905 -0.0124003 -0.08797458 0.10508204 -0.060757447
진 -0.19096836 0.0744996 0.018446062 -0.03710513 -0.0061262986 0.11138309 0.09994315 0.045141064 0.08403238 -0.09656886 -0.118560314 -0.020533392 -0.09053139 0.057373237 0.008705823 0.116233595
바 0.039550513 0.12229954 0.19432236 0.020064402 -0.0025423064 -0.2316122 -0.095599525 0.0052984837 0.058743726 -0.29229945 -0.08670442 0.17634118 -0.07612766 -0.26464486 -0.04497611 -0.10132941
대사 -0.03249964 -0.09064108 -0.119918466 0.08239586 -0.012291108 0.08240829 0.08815628 -0.02272871 0.0095686875 0.009372418 0.030488461 0.06100003 0.049211983 0.031523436 -0.039996054 -0.0041292678
부분 -0.100811124 0.0598982 0.071435876 0.04710969 -0.0045181056 -0.12634769 -0.15439916 -0.0278024 0.01189952 -0.22154859 -0.070698954 -0.10170712 0.053867836 -0.07158762 -0.007272935 -0.07907832
그렇 0.1357736 -0.14679727 -0.0477167 -0.026073705 -0.050793882 -0.069344774 -0.13535033 -0.07725307 0.017092064 -0.20891066 0.093630455 0.08491443 0.053117845 -0.07920842 0.1355125 -0.087893896
개봉 -0.034513474 -0.081594504 0.120359525 -0.072042435 -0.091703765 -0.07329545 0.06719031 -0.05413156 -0.039690927 0.07545386 -0.10297526 0.21869731 0.08505986 0.12643611 0.06582915 -0.09667685
0 0.1546665 -0.11711779 0.057974577 0.005938039 -0.10974458 0.11194201 -0.07479357 0.02132457 0.09030899 -0.25218758 -0.12604937 0.22840479 -0.07216724 0.08834208 -0.06453515 0.13666965
OO -0.20520395 -0.053573817 0.124546595 0.04507581 -0.072581 0.026938878 -0.11828187 0.009269852 0.058248468 0.014572923 0.001227936 -0.023146376 -0.075786315 -0.03183216 0.009573963 0.029864945
대단 -0.056538265 0.120526426 -0.13325676 0.19554134 0.11710489 0.14848427 -0.075660914 -0.15003805 -0.05959163 -0.0032558676 0.08303893 -0.29366598 0.0451679 0.02099371 -0.047451038 0.10315408
어디 -0.08467172 -0.028572824 0.017380686 -0.071970716 -0.18462566 -0.04339387 0.023659863 0.13698854 0.05990969 0.06673912 0.037968114 -0.041335676 -0.012852671 0.04006487 0.077580646 0.0035175255
작가 0.027254116 0.026002549 0.11226884 0.06511934 -0.0040991274 -0.07061853 0.05547444 -0.030471813 -0.10470005 0.05462194 -0.07696299 0.010805591 0.061851602 0.03105173 0.1839357 -0.2327685
된다 0.057780627 0.010579938 -0.07134004 -0.029628536 -0.049369477 0.08694381 0.0268386 0.063368954 -0.027833559 0.0031969943 0.1703622 -0.10300653 0.05182489 -0.050799355 -0.019495556 -0.14798796
아쉽 -0.07887909 -0.021867726 -0.014818334 -0.13803263 0.14787063 0.09586204 0.07909357 0.21052872 0.16027756 0.0965657 -0.058398947 0.071399584 0.12615916 -0.18145585 0.0876304 -0.072677724
기분 0.17652686 -0.108959325 -0.059502397 -0.01713174 0.032825336 0.15583949 -0.13646415 -0.055384085 0.066605054 -0.08835355 -0.12106317 0.02349555 -0.04798538 0.059587926 -0.04966257 0.04667125
제 -0.14977771 -0.15060595 0.036310524 0.032414842 0.057621077 0.08335778 0.068175554 0.055972613 0.074939474 0.11688926 -0.019454407 0.0637854 -0.21755539 0.08439847 0.13043578 0.07073803
진심 0.059677977 0.012253016 0.035134457 0.08114937 0.18234126 -0.011380657 0.10370383 -0.12980942 -0.1759902 -0.03705093 -0.057777718 0.28286 0.005779524 0.057689283 -0.101899326 0.075299986
타임 0.20921972 0.032568637 0.047700908 -0.041252166 0.049754716 -0.035467394 -0.040065978 0.02517782 -0.0014686156 -0.076333515 0.058691565 0.019215016 0.06625012 0.13431466 -0.008885068 0.13419998
/ 0.04620342 0.008946732 -0.12853797 -0.07038066 0.024818107 -0.047243185 -0.08767961 0.02144012 0.080015674 -0.08563902 -0.10506021 0.057289857 0.16084841 -0.03251311 0.051810328 0.009331495
웃기 -0.042958293 0.036254276 -0.16549703 -0.17795031 0.18367416 -0.115392044 0.17985733 -0.05991802 -0.13633396 -0.04897328 0.045508202 -0.12196071 0.027663957 0.059044123 -0.06110637 0.037122507
보이 0.0021736633 0.07492232 -0.13249323 0.017647387 -0.025339453 0.044842653 0.14118151 -0.04785932 -0.0025176913 -0.169061 -0.004595352 0.06948917 0.054991603 0.020959891 0.22252336 0.067909904
놓 0.01058748 -0.0661058 -0.03546661 -0.05723793 0.15424305 0.055217914 -0.13371588 -0.057756662 0.12896866 -0.076995715 -0.055041965 -0.059478637 0.009747387 -0.09101023 0.071901575 -0.0060979165
해도 0.0502176 -0.033765998 0.18027131 -0.056905113 -0.019930176 0.03753375 -0.045843646 -0.1809922 -0.024387391 0.14719835 0.09661074 0.021533005 0.014238939 -0.04942744 0.12191376 -0.01738636
이제 -0.006837226 0.081899844 -0.036658086 0.047219332 -0.010508631 0.005940603 0.12622394 -0.06395537 0.14068224 -0.18624978 -0.009976491 0.13133042 -0.07033318 0.034867384 -0.020978838 -0.036088746
물 0.22813715 -0.08857982 0.03882578 0.015085155 -0.01266745 -0.09122061 0.022311393 -0.11493707 -0.010154681 -0.002074419 0.1723366 -0.06349809 -0.0015631974 -0.018719284 0.08246104 0.037844464
봐야 -0.011473726 0.09051884 0.026990643 -0.103352696 0.012301632 0.01962592 0.18045507 0.06616908 -0.02833633 -0.113838494 0.19390261 -0.11598164 -0.06617168 0.12048413 -0.038772438 -0.026756927
막장 0.023063371 -0.093043484 0.0029990315 0.14656179 0.1504418 -0.19325309 -0.088382296 0.0382 0.19027758 -0.07494936 -0.090250924 0.0679722 -0.027522976 -0.22541387 0.04959701 -0.17164314
삶 -0.061471652 0.046784546 0.13483736 -0.13269322 0.24041703 0.17400277 0.15323794 0.10799521 -0.16045445 0.064887986 0.154169 -0.26500845 0.11151343 0.03666344 -0.013746336 0.11208253
친구 -0.061701547 -0.079388 -0.03441963 0.066280216 0.03236254 0.10513429 -0.17963018 0.12456372 0.10387353 -0.037534088 -0.05943883 -0.073856294 -0.01897922 -0.020807385 -0.012681308 0.07349615
잔잔 0.0055254223 0.07319694 -0.2055179 -0.07911411 0.03665118 -0.17199135 0.08529519 0.0779634 -0.31092376 -0.013917617 -0.050973862 -0.12419454 0.022830542 0.041016664 -0.14836651 0.034978647
조금 0.018640406 0.0673383 0.20662722 -0.13344523 -0.11783337 0.034981392 -0.08614348 0.045009114 -0.21682867 0.035762 -0.10223112 -0.038441807 0.0915286 -0.011428115 -0.058921598 -0.13631964
씬 -0.0014445618 -0.028381193 -0.15263288 0.049447395 -0.093529 -0.06756383 -0.11028174 0.088885 -0.032783378 0.12799999 0.04107159 0.029948197 0.040083196 -0.053930756 0.045735694 -0.0063452865
딱 0.035854977 0.026435738 -0.056820113 0.114350565 -0.15748431 0.063637234 -0.07220666 0.025874242 0.029633865 -0.18121491 0.12774587 0.19427012 -0.073623836 -0.09573601 0.079135306 0.120164715
영상 0.007136281 -0.093652345 -0.07648648 -0.079394914 -0.11697343 0.001458687 0.06859264 0.014583513 0.04388955 -0.030498924 0.0038481788 -0.04725311 0.03739813 -0.023110317 -0.11601348 0.12019756
억지 0.16986875 0.027000306 0.11097467 0.14666662 -0.1067533 -0.16448876 -0.22588563 -0.038819693 0.19565237 0.0073994976 -0.23373163 0.110149115 -0.13766617 -0.079834945 0.17065425 -0.20572639
찾 -0.17787752 -0.11552522 0.016530612 0.04120753 0.10945232 0.0861424 0.13616656 -0.050924204 0.09844352 0.12757088 0.10477467 0.047409326 -0.1420286 -0.12109919 -0.08395755 -0.04733258
요즘 -0.22797556 -0.08628775 -0.20758998 -0.36521465 -0.04344333 0.16790964 -0.08249286 0.12429014 -0.09431242 0.0049664034 0.08522172 -0.08224168 0.056045838 0.16776569 -0.16422129 -0.002453065
같이 -0.07101357 -0.014144084 0.1628228 -0.051474065 0.038658153 0.00728126 0.0051974617 0.15455697 0.03843642 0.0080103185 -0.02702712 0.2073366 0.0032816348 0.1521362 0.056671727 0.07432115
중간 0.15976837 0.12748365 0.2791362 0.051785145 -0.025199996 -0.0878705 0.11823152 0.034082465 0.03987813 -0.027424546 -0.0785706 -0.032509483 -0.08167741 0.08751624 0.015061943 -0.17330329
" 0.11237789 0.06650371 0.14531901 0.094547935 0.020201946 0.013159994 0.19546339 -0.052273262 0.041425385 -0.1976796 0.057856157 -0.013383176 -0.0268755 -0.06380359 0.013855115 0.05640265
구 0.16174762 -0.0755556 0.022344915 -0.20910604 -0.03656614 -0.034673832 0.029818952 0.0962592 -0.05327347 0.104942 0.1331624 -0.02154275 0.030883793 -0.1777379 0.042965427 0.103225745
라도 -0.032003462 0.03517112 0.14256544 -0.008191876 -0.25344452 -0.04855139 -0.08968669 -0.15008613 0.10400672 0.15566409 0.022798382 -0.0005631611 0.07533513 0.17189087 0.12776116 0.03135166
스릴러 0.088821515 -0.08117546 -0.15084082 0.057570107 0.034538284 -0.0837287 0.14446805 0.028956959 0.037258122 -0.2722363 -0.010656946 -0.01866351 0.13204442 -0.10416865 -0.0994153 0.08775542
가지 0.12015014 -0.10568151 -0.06174502 0.0922219 -0.014441462 -0.12851912 -0.11324207 -0.0551891 -0.26562732 -0.07785688 0.07119884 -0.19228081 0.011621937 0.02830329 -0.1303545 -0.07542404
8 -0.060178205 0.06853728 -0.034091208 -0.18164244 -0.30554417 0.0023179702 0.0336471 0.08440196 -0.058382504 0.20051776 -0.05078128 -0.013967137 0.024376456 0.11347547 -0.10180129 -0.037658278
믿 0.053361177 -0.05853143 -0.028276976 -0.111991584 -0.015706856 -0.09972468 -0.093864106 0.12963654 -0.12935923 0.11844015 0.13699117 -0.06012964 0.050991867 0.22361964 0.059157576 0.0127539905
싫 -0.15831581 -0.090942025 0.11717026 -0.11012456 -0.04512636 -0.07723132 -0.13078237 -0.10959355 0.092395954 -0.16361 -0.32518145 0.11164171 -0.014763023 -0.32843417 0.046404947 -0.20022012
.... -0.01855522 -0.108478874 0.08367456 0.011880723 -0.03797673 0.00061468413 -0.0062586656 0.022699917 0.021123737 0.05975733 -0.15253882 -0.0487638 0.009631433 0.018477118 0.19253395 0.1591651
나왔 0.002322891 0.013204691 -0.065429345 0.007902799 -0.1218341 0.021271931 -0.050532725 -0.037304536 -0.12055263 0.15246303 0.07884408 0.17880674 -0.12136304 -0.20739284 0.14975087 0.07298117
아까운 -0.07710536 -0.08824441 0.30216005 0.0016259453 -0.11648873 -0.35408086 0.03132671 -0.059164725 0.020353923 0.00013962133 0.023242028 0.16002586 -0.25718644 -0.12969713 0.069203764 -0.16045935
긴장감 0.07329827 0.00025410042 -0.19980933 0.040151894 0.00917227 0.30340055 0.1443138 0.12021635 0.14045705 0.0017382771 0.070728 0.05822495 0.060441375 0.026796676 -0.04212333 0.15833107
점수 -0.12679502 -0.1233424 0.02216739 -0.12981285 -0.11220511 0.05337515 -0.034098238 -0.11791323 -0.008684631 -0.06986327 -0.19037932 -0.1334602 0.14458485 -0.0017554284 0.1655414 -0.25186485
개인 0.20889972 -0.24263789 -0.048665255 0.04938472 0.035135634 -0.053346235 -0.019069161 -0.12864321 -0.071866855 0.047966883 0.20780079 0.12062095 0.1549985 -0.015037319 0.23210779 0.07276151
제대로 -0.0041259024 0.074748494 0.028782208 -0.08166217 0.12481718 0.23592743 0.0674672 0.004085619 -0.030073175 0.036580443 -0.0858871 -0.10636527 -0.028008249 -0.069550134 0.08874578 0.16281326
부족 0.03254471 -0.07528381 0.031165525 0.08257311 -0.021675669 -0.17404887 -0.026315115 -0.085907325 0.0803075 -0.07141565 -0.016621262 0.041605167 -0.065036215 -0.19013171 0.07733424 0.030532053
이유 0.015084448 0.031300418 -0.027029794 0.018965244 0.027587898 0.075814106 -0.09269312 -0.097280614 0.13303588 -0.04363848 -0.10803431 0.22854233 -0.057240404 0.17439178 0.04750463 -0.012372688
노래 0.12292915 0.0148965465 0.1252389 0.013289067 -0.07476791 -0.08006653 -0.03884786 0.050199006 0.00025494944 -0.05425129 -0.10028459 0.09943835 -0.11535674 0.0017083676 -0.014829318 0.056045808
만큼 -0.11602083 -0.05099777 -0.18212362 0.056387287 0.13799508 0.0044506365 0.07006557 0.038673326 0.072941534 0.021522537 -0.14598364 -0.21882355 -0.08387811 -0.124909036 0.07099008 0.07935754
라면 -0.081096254 0.04380499 -0.11476338 0.2924176 0.04965485 0.06413359 -0.104944885 -0.13896097 -0.02431943 -0.0024379364 -0.008337305 -0.0751915 -0.18352565 0.1545483 -0.035408348 0.03075302
시작 0.02253303 0.08286817 -0.04093037 -0.010636703 -0.24239038 0.055096094 0.018271621 -0.14042869 -0.11773783 0.022712748 -0.14879562 -0.04008562 0.04124456 0.0025606386 -0.03003216 -0.043987438
구나 0.0038391098 -0.024345558 0.12866968 0.006949236 -0.08517998 0.0136491805 0.158642 0.034479413 0.057500143 0.2110244 0.18529397 0.09101693 -0.014624979 -0.13398965 0.26820433 0.013779542
잇 -0.16696455 0.17180985 -0.087403126 0.005329797 0.08667143 0.08397246 -0.046027727 0.07173661 -0.022535404 0.016779661 0.0061358614 -0.234199 -0.08656735 -0.057008874 0.028043205 0.020118441
특히 -0.14260861 0.14265734 -0.056808688 -0.13587102 0.13278805 0.24125075 0.04591462 0.092475966 -0.011889664 0.27275497 0.016182551 -0.043342475 0.04485862 0.10936934 0.07613785 0.19916926
한테 -0.048466448 0.15800914 -0.10354869 0.07494076 -0.068786606 0.1559047 0.04766883 0.06321742 0.0143049415 0.06771917 0.0038175227 0.06348358 0.10842862 0.058338564 0.066954836 -0.18142383
날 -0.15492101 -0.13825557 0.0022191408 0.02833564 0.0969366 -0.04271203 0.10011629 -0.081408754 -0.14921935 0.2532765 -0.07016915 -0.18563335 0.08421304 -0.088482685 0.044392936 -0.01469508
려고 -0.1353293 0.0040236018 -0.12569971 -0.015884267 0.03564896 0.1421952 -0.17473228 -0.072425775 0.04077315 -0.108307414 -0.060108613 -0.0038405226 -0.01701466 -0.13910845 0.24910659 -0.062123727
제일 -0.12044214 0.005517484 -0.06984704 0.035595495 0.10486694 0.05484449 -0.14665325 0.009978897 0.08140699 -0.07189164 0.19500467 -0.14518376 0.043642383 -0.12731923 0.09313726 -0.13777086
아름다운 -0.0450362 0.06492094 -0.28990698 -0.08037686 0.072357185 0.097062305 0.049194288 0.06532604 -0.009527928 0.17557195 0.18093704 0.03325497 0.09747804 0.055264186 0.093397565 0.29049912
시대 -0.17306107 -0.055167362 -0.0345373 0.008100162 0.029103266 0.0695208 -0.06230368 -0.010852607 -0.14360611 -0.008567648 -0.106536835 -0.14191435 -0.06340438 -0.060892377 -0.051154975 -0.01101538
ㅜㅜ -0.11072519 0.058387518 0.17640355 -0.049520385 0.1252239 -0.13746108 -0.030418484 0.17010365 -0.08502992 0.021009872 0.0009051102 0.038481347 -0.047572535 0.17386468 -0.033794615 0.021089828
어떻게 0.02104564 -0.041669905 0.22606091 -0.108170785 0.04011277 -0.009167167 0.044798598 -0.15434505 0.20406406 0.34422186 -0.13731281 0.015664639 0.024651682 0.06686318 -0.06605217 0.1517624
엔딩 0.021234019 0.20081754 -0.10230674 0.12842168 -0.0070027094 -0.13884412 0.09700404 0.033437178 -0.036925416 -0.044697694 -0.15955201 -0.19726782 -0.038557064 -0.11077356 -0.039463844 0.16485044
당시 -0.014168001 0.06109592 0.124858685 -0.03685945 -0.019792762 0.05679233 0.0826341 0.0005473758 -0.0057464875 0.054950446 0.057790183 -0.026761368 0.032754306 -0.023222648 -0.12718265 0.082575224
하지만 -0.19741698 0.10970444 -0.21257605 0.10776123 0.023918033 -0.04108348 0.11636765 -0.10999918 -0.078952536 0.09967856 0.09299846 0.05903965 0.10514926 -0.20401478 0.1554191 0.10701371
나름 -0.20089792 -0.07679189 -0.06890825 0.04723541 -0.030771855 0.030085692 0.055140316 0.21452852 -0.016780686 0.057402298 -0.10289372 0.09559688 -0.0768958 -0.05328153 0.10741356 -0.036244307
봐 -0.027491502 -0.07118855 0.07422172 -0.14758989 0.15436088 -0.14983961 0.0039551877 0.10534451 -0.23363355 0.18516168 0.28240356 -0.12876245 0.1054958 0.15767767 -0.070144646 -0.21860546
무섭 0.0799716 0.15902145 -0.046981897 -0.13550478 0.00765352 0.018068371 0.16397776 -0.09391411 -0.110160924 0.030185899 -0.09213743 -0.013977764 0.024796946 0.15822485 0.034330513 -0.1077477
나온 -0.037158526 0.009937627 0.019040452 -0.14655103 -0.106398374 -0.22891042 0.019178072 -0.092549935 -0.09831701 0.01806524 0.12293818 -0.09507496 -0.07937471 0.053594712 -0.016987592 -0.057009727
명 -0.0014619181 -0.052337646 -0.115089394 -0.06364041 0.07605856 -0.024803203 -0.1006469 0.0534525 -0.09497999 0.060757138 0.08265866 0.12512167 -0.06852542 0.0055500814 -0.012311251 -0.028641328
사 -0.074238926 -0.059580043 0.009189803 0.27889767 0.08822757 0.084489025 -0.0838235 0.16508798 0.049675193 -0.0064158724 0.07148099 -0.0015421332 0.1357256 -0.028508067 -0.021986114 0.02711003
니까 -0.13416925 0.08484329 -0.040558238 -0.0074061905 -0.13015723 -0.12342119 -0.14789997 -0.04649891 -0.1018163 0.09723814 0.15948299 -0.0032865957 0.26917154 -0.031474203 0.10293571 0.050310213
오랜만 -0.0019137219 0.017264014 -0.091830395 -0.006089441 0.10740615 0.09882701 -0.058456358 0.07633334 0.006097189 0.015822388 0.166619 0.0005154505 -0.07268794 0.091680326 0.046553157 0.114748605
이것 -0.11609394 -0.0412785 -0.124288365 0.08838876 0.053538844 -0.17739056 0.0005120633 -0.12864912 0.15795986 -0.11402836 0.109855026 -0.06566586 0.08872232 -0.16369976 0.115462534 0.08735253
해요 -0.11012241 0.05262139 0.13530974 0.042522795 0.028281845 -0.09140315 0.24686842 -0.01796466 0.13854721 -0.04300539 -0.18244389 -0.13211952 -0.03231581 0.0458267 -0.067703255 0.15444459
9 -0.14032166 0.09482582 -0.025583308 -0.052219097 0.044262554 0.083592266 0.10874027 0.006033221 -0.021771241 0.07266997 0.08741566 -0.050325416 0.049378876 0.050282568 0.11981291 0.12206038
팬 -0.12145129 -0.15877703 -0.035229452 -0.032767598 0.04775363 0.072715156 -0.08986869 0.07782339 0.103411056 -0.18736526 0.1090976 -0.06809033 0.13912278 -0.029103894 0.09707072 0.0637499
차라리 0.23393142 -0.16555965 0.29217416 0.19218566 -0.161874 0.02170232 -0.049628105 -0.23068574 0.17324694 -0.04273747 -0.026011929 0.3154446 -0.1066991 -0.048381228 0.277771 -0.132866
절대 -0.10759378 0.04096164 -0.12522107 0.17971754 0.00481517 -0.05003236 0.11626854 0.00082295237 0.04829892 -0.038271144 0.04232802 0.0626288 -0.33164126 0.17919889 0.06673762 0.051055584
세상 -0.00044695707 -0.092524335 0.008611033 -0.0019390831 0.10424979 -0.0464876 -0.023030182 0.120584 -0.07884819 0.06229651 -0.03981621 0.11230156 0.21419008 0.15901308 -0.16156079 -0.057555158
세 -0.18990579 -0.0020570455 0.085810766 -0.011130342 -0.06724238 -0.037914768 -0.07822866 0.1126673 0.15317145 -0.0057640206 0.043994825 -0.07593616 0.09453899 0.11220911 0.19741046 0.06958128
못하 -0.11071742 0.016886828 0.046673164 0.018240698 -0.07644321 0.17243932 -0.06407125 0.08947629 0.056146592 0.14019074 -0.10601662 0.08239942 -0.099651136 -0.018284315 0.09839245 -0.054982595
의미 -0.054981485 0.22885805 -0.069337815 -0.10494957 0.15078217 -0.11765897 -0.029048886 -0.033659477 0.040726993 0.00814339 0.018540826 0.20306528 0.10270696 0.16096622 0.20171574 -0.058546204
던데 -0.11189734 -0.05176162 -0.115892656 -0.06251203 -0.0052415524 -0.059320584 0.18898524 -0.101026945 -0.17634748 -0.0049713235 -0.08848851 -0.017808886 0.08263289 0.008929273 -0.065921396 -0.013492957
봄 0.08984199 -0.25141618 0.053000238 0.060228076 -0.113974795 -0.14889984 0.1576458 -0.044721793 0.0943253 -0.10580449 0.12039142 -0.17668849 0.032151885 0.1853513 0.054818034 0.09671878
욕 0.013306453 -0.044411205 0.14006642 0.09343991 -0.11100069 -0.1259745 -0.07341974 -0.052546706 0.12802073 0.24736635 -0.06833117 0.18740001 0.020428812 -0.06825901 0.2466635 -0.23993002
훌륭 -0.0009195089 0.0535974 -0.14021482 -0.10975283 0.11489755 0.11979035 0.015402222 0.2949777 -0.109520085 0.20172922 0.04593574 -0.16532472 0.124614865 0.055750538 -0.06290655 0.16077785
너무나 0.29350117 -0.094525255 -0.036714695 -0.060204905 0.08908905 0.13693962 0.010903944 0.021086328 -0.0739726 -0.28460288 0.12451924 0.11223933 0.09020404 -0.15432042 0.1975813 0.16018046
강추 -0.24996799 -0.26607546 -0.075001046 -0.12924185 0.054546192 0.08430223 -0.08944153 0.11494093 -0.10242809 -0.22883157 0.12203559 0.06642946 0.21261874 0.14962791 0.022461547 0.124711715
감 -0.006257273 -0.056017574 0.07227653 0.02737317 -0.09895794 0.081702985 -0.12059751 -0.11498111 -0.11857563 -0.016784705 0.07074473 -0.038767926 0.03490402 0.10999137 0.1442337 0.027601687
됨 -0.060427427 -0.013513274 -0.07332605 -0.23583733 0.013929599 0.03367379 0.12726139 0.055335343 -0.13250819 -0.0036364978 0.11254877 0.028253855 -0.03359835 -0.011449713 0.0720027 -0.0784743
ㅡ 0.049062878 0.040368184 0.1400682 0.07749423 -0.07551704 0.112746745 -0.09991671 -0.18889318 -0.009869918 -0.030288782 0.02309073 0.019519767 0.12978224 0.08409273 0.07526825 0.096659616
따뜻 -0.17410287 0.16583303 -0.16728033 -0.15075879 0.21380782 -0.12520184 0.2661981 0.280464 0.2194105 -0.08628325 0.016696535 0.13000047 0.15051365 0.047654014 -0.2701595 0.017906995
빼 -0.108594894 -0.041488197 0.09461785 0.00016509472 0.061687782 0.043686822 -0.16660184 -0.04636789 0.08548123 -0.04604781 -0.11187374 -0.015472053 -0.06600943 -0.031780995 -0.06940639 0.055043183
느끼 -0.13723771 -0.023264214 0.051684197 0.06099069 0.03401205 0.20104393 -0.23920335 -0.08001332 -0.07244915 -0.071887486 0.101897776 -0.1338532 -0.03993096 0.09934894 0.010252519 0.028585978
해야 -0.059675764 0.18387613 0.11727779 -0.13755535 0.009642876 -0.06874383 -0.045017254 0.17256713 -0.09549101 0.16807705 -0.0020454978 0.053796757 -0.12630227 0.1139847 0.08917325 -0.044034015
드 0.06861674 -0.01621428 0.048421405 -0.040378757 0.016262926 -0.13512616 -0.020316072 -0.15104796 0.1383606 0.02525347 -0.12702267 -0.063274294 0.020331586 -0.012417661 -0.018917413 0.028102083
도대체 0.048280116 -0.061042137 0.050331675 -0.038526732 -0.048898328 0.0030062743 -0.06494807 0.027288351 0.10837243 -0.15373631 -0.13924427 -0.18836588 -0.12437042 -0.08615718 -0.008990085 -0.15088724
어야 0.031589445 0.020615079 0.10607557 0.22105213 -0.06010164 -0.01513475 -0.07748912 -0.22235993 -0.10834497 0.046605702 -0.05342342 0.012355981 0.13379791 -0.13140318 -0.005845491 -0.13967165
답답 0.12318781 -0.22260524 0.24836928 0.15459575 0.0198807 -0.027743375 -0.19293849 -0.05114848 0.028955357 -0.0697484 0.06415431 0.10998864 -0.026182164 -0.34936696 0.113948196 -0.08998584
마다 -0.08740481 0.09156559 -0.10217717 0.016074395 -0.018724976 -0.023441246 -0.06771919 0.11849088 -0.035443265 -0.06759303 -0.00083774683 -0.0008483233 0.17322916 -0.11246438 0.09768306 -0.047864977
준다 -0.024911141 -0.005315989 -0.005599221 0.018323822 -0.078229524 -0.15405409 0.2874223 0.15159923 0.03617865 0.08385655 -0.021015292 -0.06716358 -0.010643824 -0.115415275 0.03867915 -0.053621057
글 0.07927926 -0.07009335 0.0818175 0.09484812 -0.086867936 0.06277483 -0.07656815 -0.009856236 0.2776143 -0.1174315 0.1312768 -0.16825745 0.237779 0.07005229 0.0097873015 -0.088732064
전쟁 -0.12432089 0.015208269 0.10603711 0.11474912 0.019773092 -0.20845896 -0.075331666 0.1490001 0.09738899 0.13681465 0.11375565 0.17298536 -0.16371818 0.3593473 -0.062220335 0.0130632715
놈 -0.07294112 -0.053889144 0.006580931 -0.34656554 0.07600953 0.20379525 0.067470774 -0.11245075 -0.06680189 0.04662823 0.08748212 -0.055407282 0.07811256 -0.17538963 0.17265071 -0.16576111
설정 0.064078726 0.0882586 -0.027396765 0.12032255 0.094270244 0.09475595 -0.08545458 0.015368191 -0.032961246 -0.20130229 -0.093182966 0.08129035 -0.02035031 -0.170151 0.03994479 -0.2670529
무엇 0.1670442 0.07345522 -0.12120049 -0.047222905 0.10988685 -0.080276534 0.18545443 0.050465718 -0.046730768 -0.06575208 -0.16406399 -0.0842104 0.0314317 0.045831162 -0.08063169 -0.1513012
수작 -0.06326006 0.26153907 -0.30865684 -0.13737166 -0.03239974 0.12959649 0.1677574 0.26438895 -0.17223556 0.089701064 0.1510997 -0.31393805 -0.017576767 0.18633151 -0.41566905 0.4545236
만화 0.093878336 -0.02013689 0.02450821 -0.15549417 -0.1290414 -0.07196097 -0.08444912 -0.123262726 0.007563262 -0.033564236 -0.0066308277 0.13782763 0.010383655 0.08767143 0.20082499 -0.07911119
흥미 0.06193787 -0.051514786 -0.106247224 0.013199715 0.13870187 0.014863172 0.13215837 0.083336934 -0.00018470675 -0.026797388 0.03709314 0.007785385 -0.07824646 0.021271035 0.031651665 0.15244408
그저 0.030169966 -0.15068163 0.031813283 0.08518167 -0.16321959 0.007164171 -0.036972106 -0.11688551 -0.093251 -0.08760342 -0.22990897 0.033854432 -0.16592814 0.04801758 0.017412113 -0.012675854
감정 -0.10041051 0.1789876 -0.004065816 -0.17729671 -0.015095838 -0.0033867701 0.07918982 0.001035042 -0.05695245 -0.019462375 -0.12774691 0.010276211 -0.025749518 0.077979974 -0.26438618 0.061339494
미국 -0.050841775 -0.050515827 -0.023623537 0.15347007 -0.14273405 -0.08243522 -0.0007756044 0.054473344 -0.006922535 -0.084266916 0.063290134 -0.1239433 0.13860972 -0.092644796 0.04716483 0.07103476
신선 -0.13033915 0.26802188 0.10312764 -0.09222627 0.12039913 -0.0130195115 0.09431745 0.19459802 -0.18659516 0.056738637 0.016690126 -0.022630304 0.10431605 0.0101975845 -0.32405123 -0.011627443
행복 -0.10716107 0.25633964 0.14135648 -0.12148509 -0.014434758 -0.0033316696 0.1785446 0.034951504 -0.075345755 0.025747638 -0.13820097 -0.159069 0.07018834 -0.059323672 -0.19290082 0.033935837
뻔 0.0652007 -0.2043896 0.005851155 0.11824954 -0.059889734 -0.16003785 -0.12531953 -0.11301599 -0.0047086263 0.002532524 0.07252626 0.09479056 -0.10403175 0.033827696 0.09058498 -0.02108586
형 0.01959686 0.06632526 0.15939753 -0.03660638 -0.040607627 0.16646259 0.13928288 -0.10817916 0.013977124 -0.06329458 1.9676547e-05 -0.09103097 0.1750145 0.06738736 0.037170522 0.12021898
앞 -0.053071693 -0.08466499 0.09161401 -0.07941051 0.16909131 -0.05686398 -0.15163459 -0.1179799 -0.047572844 -0.065911144 -0.032047518 -0.19122924 -0.0272279 0.11034132 -0.013288721 0.12878904
허접 0.17655815 -0.18882282 0.12984984 0.10934666 -0.20847884 0.067944065 -0.2642506 -0.1634458 0.1300008 0.22061533 -0.39070565 0.036445286 0.0018643752 -0.24315006 0.23251535 -0.21120995
어도 0.07552759 0.05140786 -0.073961824 -0.16888796 -0.016561054 -0.033730913 -0.042822085 -0.16270062 -0.10415168 -0.05488604 -0.0038764628 0.088106535 0.03144273 0.06358083 -0.10747515 -0.026890185
군 -0.23345128 -0.18454348 0.048835736 -0.07814713 -0.044257764 0.036339898 0.052182745 -0.14425991 -0.14212364 0.07920096 0.13896386 0.07342755 -0.08143692 -0.105873875 0.08854824 -0.006183462
시절 -0.120267354 0.04698654 -0.018399464 -0.05519229 0.16060054 -0.07444586 -0.025668284 0.07819133 -0.052088503 0.37204227 -0.057262786 0.075973146 -0.009799714 0.1566335 -0.15239695 0.050936684
관객 0.10879808 0.071361974 0.2001889 0.10999859 -0.16361548 -0.05852889 -0.1589979 -0.08283292 0.15900257 -0.080364205 -0.049298055 0.17354591 -0.09017996 -0.006588852 0.09045142 -0.14951071
배경 -0.071559064 0.1422049 0.2049046 -0.07665236 0.032410733 -0.014892624 -0.13399936 -0.066698395 0.04076461 0.015114719 -0.050463125 0.042362828 -0.05819951 0.08432704 -0.051212177 -0.034502123
6 -0.044793364 0.077443674 0.14391966 0.054270577 0.13976167 0.11522602 -0.07434303 -0.043476906 0.09379712 -0.007063304 0.17296678 -0.049930945 -0.009203216 0.041096568 -0.14604618 0.0805753
초반 0.0016674652 0.017741239 0.010637912 -0.13243903 -0.08449776 -0.11995047 -0.06358654 -0.023291487 0.01811743 0.15283944 -0.02388047 0.11992367 0.00069618074 0.023214078 0.14707117 -0.059970953
사실 -0.2446685 0.058835756 -0.101102665 0.016509173 0.15119953 0.024889983 0.053456675 0.2219284 -0.25818172 0.12188043 0.12546024 -0.16661175 0.0015732872 0.2185397 -0.041125007 -0.11785137
웃음 0.11521199 -0.033315483 0.03754734 -0.073896095 0.021034045 -0.05327479 0.056293458 -0.13455945 -0.07979245 0.015120379 0.04102006 -0.14701794 0.021729708 0.103372194 -0.060111128 -0.051222224
답 -0.11666691 -0.014413626 -0.021448914 -0.08318879 -0.16066994 0.04214383 0.055200286 -0.22653614 0.12749252 -0.07697418 0.17611958 0.1840753 0.07411368 -0.0074778213 0.16474324 -0.049111098
엄청 -0.03583135 0.07273771 -0.00868251 -0.021748397 -0.056017675 -0.10905692 0.175181 0.051258504 -0.1917884 0.1471349 -0.038359795 0.24980976 0.09036582 -0.08617841 -0.09226916 0.37367895
더라 0.005228866 0.08976869 -0.013884064 0.04679467 -0.04102008 -0.107182205 0.21719818 -0.050615925 -0.07367404 -0.07165362 0.08295504 -0.05272922 0.013236674 0.006628917 -0.13155524 -0.03444959
라니 -0.18522602 -0.0032614064 -0.049281158 0.12577215 0.20099871 -0.010559018 -0.10663201 0.008127184 -0.07699962 -0.0046515237 0.24430045 0.033986367 -0.04788953 0.08674436 0.05587021 0.14648333
질 0.07649797 -0.12666772 -0.004060314 0.009080031 -0.03202089 -0.089680746 -0.078188315 -0.23654139 0.09878782 0.04578468 -0.3237496 0.07959225 -0.05088492 0.18103772 0.06927496 -0.17572568
자신 0.10204901 -0.08110774 -0.15827541 -0.07225307 -0.01302253 -0.09171402 0.09501347 -0.004353 0.110515244 -0.093377694 0.25713292 -0.059359785 -0.20289108 0.0504009 0.121074215 -0.009291644
추억 -0.25176197 0.07672072 -0.097290136 -0.18801123 -0.057315342 0.01087622 -0.036545802 0.07390691 -0.080464356 -0.07589776 -0.040641464 0.04735199 0.04007421 0.17725241 -0.03500236 0.074279144
캐스팅 0.053720795 -0.008631024 0.01834751 0.030146552 -0.06473974 -0.24370165 -0.10232938 0.10420208 0.11141194 -0.13791315 -0.077622004 0.114970125 0.040252216 0.059973728 0.038823485 -0.042018436
첨 -0.011730047 -0.05900598 0.04735138 0.008596837 -0.2267385 -0.11570404 0.008484599 -0.046785668 -0.09580012 -0.059041705 -0.05014115 0.22302873 -0.067013964 -0.0798138 -0.059527863 0.0056710113
멋있 -0.09960162 0.24120529 -0.26149255 -0.25107813 0.11272005 0.084856376 0.09252646 0.21975555 -0.075661734 -0.15041664 -0.15534115 -0.007170042 -0.038202118 0.25964084 -0.096521236 -0.06270062
류 0.32147238 -0.07756801 -0.091165446 0.12123459 -0.15831946 0.092361376 -0.14000688 -0.05470234 -0.07274313 -0.027982548 0.008496599 -0.12162572 -0.07875051 -0.048752498 0.24881043 -0.036744185
어색 -0.10603896 -0.22733143 0.08994906 0.17007469 -0.025283853 0.1003829 -0.28138655 -0.14561619 0.031536944 0.007925321 -0.22618748 0.088584 -0.047809344 -0.22870745 -0.058625262 -0.08114745
시나리오 0.14257856 -0.1649016 -0.053022567 0.10271141 -0.10043923 0.16227002 0.08816449 -0.078255706 0.11399056 -0.038843766 -0.010739317 0.23637842 -0.20692733 -0.07902966 -0.02672568 -0.08059251
머 0.11105653 -0.018983493 -0.06996228 -0.0755125 -0.19064388 -0.0771737 -0.035546284 -0.091609895 -0.043172892 0.09603326 -0.28418761 -0.07183893 0.042480282 -0.075127095 0.17613204 -0.06569101
밖에 -0.09608406 -0.017677194 0.057869874 0.009841839 0.018758977 0.004403439 0.0012582717 0.008696349 0.081346184 -0.04344123 -0.061339263 -0.23520927 0.045145363 0.15030046 -0.084014095 0.09135135
OOO 0.07234605 -0.004450592 0.0026006808 0.13201118 -0.15465976 -0.05027472 0.008762814 0.010819194 0.08070572 -0.14954786 -0.1720122 0.18389852 -0.088033125 -0.041422628 0.27678832 -0.08796176
슬프 -0.08559873 0.275673 -0.11831625 -0.08199877 0.057648994 0.17544848 0.0044504027 -0.091288894 -0.016752262 0.10974978 -0.014795961 -0.028940046 0.23526485 -0.013407937 -0.21040222 0.1404951
정신 0.14497384 -0.03439516 0.026766352 0.03593902 -0.16084741 0.01207503 -0.1022042 -0.080266185 -0.0098885605 -0.1376303 -0.036074497 0.091084644 -0.019297644 -0.15535542 0.10230146 -0.24245848
분위기 0.099865764 0.08070713 -0.010985699 0.008122009 -0.0174957 -0.07306896 0.07572354 0.06763831 -0.08043971 0.25224218 0.118643165 0.059488025 0.003383173 0.019281397 -0.05914946 0.16499677
소름 -0.14780943 0.21216632 -0.12215053 0.043060347 -0.08634334 0.13856164 0.13557789 0.05960633 -0.062369905 0.074760474 0.07439857 -0.07936334 -0.012499243 0.18026274 -0.13146497 0.1199388
멋진 -0.08402559 0.2209938 -0.07084688 0.07828167 -0.21284819 0.15583462 -0.0030556421 0.13820909 -0.15266551 -0.038037587 0.11122961 0.079475924 -0.010932737 0.10547347 -0.012169029 -0.017338356
힘들 -0.18051252 0.045467056 0.15104578 0.054289013 0.029509164 0.008240178 -0.22982284 -0.23578621 0.12525593 -0.015858173 0.13632533 -0.08162955 -0.1437185 0.042759214 0.15314674 -0.22627467
오늘 -0.056546815 0.10383481 -0.021881776 -0.1771427 0.023736434 0.026263595 -0.04532925 -0.031857762 -0.06632412 -0.1148728 -0.047182564 -0.11442344 0.030696249 0.07162484 -0.11704016 0.03523626
어이없 0.018050376 0.0051792455 0.20317984 0.2021757 -0.2198742 0.007169575 -0.05223876 -0.08386724 0.065193236 -0.016032185 -0.17188007 0.12442038 -0.28417727 -0.21620803 0.09461103 -0.0848281
봐서 -0.029228153 -0.008853223 -0.058260463 -0.009447675 0.16579257 0.03541399 -0.16084813 -0.08266539 -0.04119679 0.08015857 -0.06288803 0.08712366 -0.046232477 0.05811391 0.04990986 -0.016564645
잡 0.12114902 0.056189615 -0.095867045 0.024644978 0.11465579 0.03141634 0.0037383449 0.088245615 -0.0107084075 -0.023263833 -0.09956333 -0.047652412 0.17647538 -0.09800422 -0.013439065 0.054698396
구성 0.06261187 -0.15883459 -0.046564255 0.021857318 -0.11616982 0.09016138 0.064613685 0.15895613 -0.028245056 -0.13641346 -0.18758455 -0.21580888 0.021673277 -0.096324265 0.021522617 0.12380679
엄마 -0.06742055 0.027898107 -0.11478086 -0.007580733 0.042697802 -0.068436824 -0.20437844 -0.087427385 -0.07818037 0.1410486 -0.10214483 -0.082618184 0.09865183 -0.004607315 0.01427088 0.049845815
함께 0.03261976 0.07987132 -0.2636793 -0.21707281 0.21911676 -0.07839737 -0.08374236 0.11874848 -0.07474713 0.0645635 0.0987579 0.007852649 -0.025909465 -0.010137862 -0.16056244 0.21102977
문제 0.13490295 0.11932841 0.014135187 0.1412625 -0.030534616 0.23563667 -0.1630226 -0.01116875 0.08734961 -0.01749238 -0.22976252 0.14168763 -0.12833798 0.038703777 0.1393621 0.043708462
위해 0.06451072 0.1675077 0.019163968 0.24729988 -0.020841835 -0.070404716 0.16578375 0.03941544 0.19873275 -0.1057884 -0.050476152 0.11929486 0.12385568 -0.09971096 0.015222092 -0.025154237
졸작 0.0625723 -0.22846031 0.34599212 0.17078614 -0.15739465 -0.13180026 -0.2317739 -0.20087624 0.112261556 0.029319016 -0.41639018 0.17762229 -0.43821028 -0.27096692 0.2172842 -0.3267871
잊 0.056348223 0.00928154 -0.37698212 0.10450479 -0.041972976 0.018145544 -0.010750487 0.16394033 -0.122921474 -0.26518676 0.34549433 0.06198761 0.15444034 0.182395 -0.35837662 0.27737013
이딴 -0.12264411 -0.1182264 0.025768317 0.093670376 -0.1385621 -0.11269023 -0.2154597 -0.19062683 0.03481073 0.09103047 -0.10669197 0.15434873 -0.12548472 -0.29631814 0.07965253 -0.2888093
등 -0.028510883 0.11319515 -0.1161754 0.069694966 0.074027285 -0.07278752 0.027358185 0.10055491 0.02056995 0.1549121 0.14553367 -0.019167557 0.10906005 0.10580366 0.10781353 0.022366196
집 0.14676203 -0.05511613 -0.027123699 -0.023100602 -0.12765425 -0.15847316 0.04462322 -0.025468681 0.2462271 -0.039465122 0.10684747 -0.07913308 0.26783866 0.06318591 -0.14733936 0.083117604
유쾌 -0.30772206 -0.062048875 0.021414392 -0.04824988 0.12091804 0.117702335 0.1931333 0.042090118 -0.1372261 0.118816726 0.13802041 -0.04173589 0.122087516 0.1442439 -0.081290334 0.09776237
뻔한 0.18459187 -0.17818896 0.117275596 0.06343157 -0.09542059 -0.08149832 -0.02649274 -0.19425888 0.13005127 -0.04128437 -0.022244025 0.07391135 0.07056864 -0.19975153 0.008527531 -0.11916194
킬링 0.12227432 0.049090765 0.10220441 -0.0012684632 0.067797974 0.008863224 -0.07177098 -0.08951211 -0.16527607 0.038698416 -0.10549927 0.019157369 -0.07453043 0.037027832 0.14332874 0.04218199
스러운 0.18427098 0.010874916 -0.14201437 -0.060690682 -0.07323771 0.11197949 0.1566029 0.03988452 -0.12772943 0.13439597 0.017288607 0.02640591 0.08457579 -0.047595453 -0.14506803 -0.072153196
결국 -0.12505561 0.061362196 -0.046238597 0.22166577 0.0031090144 -0.0959849 -0.06020856 0.022159612 -0.06401009 0.0239352 -0.08707569 -0.09352886 0.013572261 -0.047854416 -0.061046053 0.010154548
낫 -0.1440003 -0.0033879157 0.094054 0.29852742 0.05100238 0.17970811 -0.10640815 -0.0071891556 0.092308424 -0.23535258 0.04448683 -0.09732182 0.119821936 0.024484333 -0.022753928 -0.10118241
한데 -0.07053412 0.03916841 -0.0071335165 0.24851617 0.09221299 0.010543324 0.13518399 0.031583253 0.110694386 -0.09086095 0.12057992 0.06584063 -0.054449074 0.014457332 -0.13465126 0.04410254
나요 -0.058046196 -0.007838642 0.12616776 -0.045332972 0.023363998 0.08763246 -0.110712335 -7.568777e-05 0.03955476 0.10327299 0.08026233 0.11947464 -0.005706568 0.12189307 -0.024233691 0.017727729
뭘 -0.09856423 -0.12934703 -0.038698267 0.08822142 -0.059272382 0.0026526998 0.050843637 -0.09293252 -0.14583294 0.028823188 -0.1999656 -0.024301503 -0.07623177 -0.024918832 0.13630587 -0.13432547
소리 0.0077725817 0.12825654 0.04847362 0.050072722 -0.08383678 -0.011984363 -0.23785874 0.008915494 -0.0862973 0.13645783 -0.0029890737 0.053996038 0.07678427 0.025814893 0.034205202 -0.14519362
간 0.042110898 0.060230203 -0.04868306 0.055285495 0.18897222 -0.0067740073 0.033352476 -0.22873668 -0.00743137 0.016829023 0.032804135 0.061833806 -0.11103651 -0.13914731 -0.08787706 0.20330945
20 -0.017308848 0.106566675 0.039147977 0.06555743 -0.20821927 0.21132053 0.15222701 0.002280828 -0.025493128 -0.10914038 0.10757264 -0.014628523 0.059730116 0.10216675 0.07145717 -0.11934564
역사 0.013596725 0.071217366 -0.05752727 -0.12892924 -0.039107144 -0.083823524 0.036101397 -0.009844937 0.00912529 -0.081752144 -0.040390234 0.050394244 0.09763091 -0.022743285 -0.16632612 0.046555996
뭔 -0.18388534 -0.06536195 0.13847178 -0.00059716287 -0.15770532 0.07185315 -0.14428958 -0.15274139 0.2389015 -0.100215405 -0.12613857 -0.042485878 0.17348656 -0.21318527 0.07035382 -0.023215387
제발 -0.07014941 -0.034881834 0.04770559 0.08840084 0.073290095 -0.04678415 -0.21667913 -0.16988981 0.00085556036 0.08156703 -0.085940436 0.055267096 -0.13698898 0.16880733 -0.058649097 -0.14656787
포스터 -0.014203706 -0.20087607 0.12741214 -0.11871096 0.14350443 -0.15497845 -0.10615047 -0.2940388 -0.08825994 -0.09647095 -0.17564292 -0.050946474 0.12450795 0.012384679 0.10440403 -0.35030204
아무리 -0.10070845 -0.12886894 0.10513714 -0.005483876 -0.089393914 -0.19659379 -0.18475801 -0.040693678 0.20790353 0.31398407 -0.28313953 0.06334249 0.019455064 0.049326632 0.07711119 -0.15995847
