9996 16
. -0.34848982 -0.5645592 -0.5817251 -0.5485648 -0.48534006 -0.5532 -0.32693952 -0.63656735 -0.62576896 -0.34317786 -0.73743147 -0.077265956 -0.5922551 -0.667105 -0.54302746 -0.28573912
영화 -0.3521581 -0.3812141 -0.55170256 -0.54971296 -0.4462606 -0.5434109 -0.5875154 -0.53307146 -0.17643838 -0.33429822 -0.46966815 -0.07587295 -0.5900751 -0.5870356 -0.38109636 -0.36933896
다 -0.38918716 -0.561495 -0.58345824 -0.53007835 -0.46041554 -0.21188118 -0.41566005 -0.6393063 -0.16758904 -0.31895018 -0.49553162 -0.07872726 -0.2591007 -0.642976 -0.5426911 -0.42137825
고 -0.39110494 -0.44315293 -0.39706993 -0.262504 -0.47809058 -0.4344681 -0.39773318 -0.36703128 -0.17592397 -0.3728555 -0.2068161 -0.070227735 -0.59185547 -0.4785685 -0.23311614 -0.44857708
하 -0.20109533 -0.28151575 -0.31110123 -0.47307655 -0.41996735 -0.5253455 -0.35622302 -0.58397365 -0.16620544 -0.35287866 -0.49300957 -0.0819008 -0.41766068 -0.48048043 -0.54253757 -0.32438838
을 -0.38353467 -0.33742046 -0.44396123 -0.39315182 -0.4406999 -0.47513878 -0.44659778 -0.41036662 -0.17272443 -0.35739392 -0.41976893 -0.070703 -0.4737175 -0.33688298 -0.32657552 -0.3910122
보 -0.40232968 -0.45188954 -0.22354646 -0.6310011 -0.27057168 -0.430602 -0.41757196 -0.55059046 -0.16864826 -0.28852487 -0.5046055 -0.08324854 -0.4627807 -0.27674398 -0.5446086 -0.37524113
.. -0.36162257 -0.38579014 -0.29519483 -0.23839566 -0.4806293 -0.5557761 -0.3339165 -0.22565559 -0.16599433 0.07766728 -0.2957041 0.3014264 -0.5753625 -0.49632466 -0.5438806 -0.2243277
게 -0.4088678 -0.3451949 -0.5443989 -0.24391566 -0.31581378 -0.23620808 -0.33154312 -0.21908644 -0.18432446 -0.22085884 -0.0686615 -0.069484204 -0.60197717 -0.26109916 -0.38292304 -0.4355727
, -0.34210864 -0.13905725 -0.29739928 -0.25045153 -0.3662041 -0.3491126 -0.16637394 -0.33110702 -0.16460782 -0.33824635 -0.32235762 -0.07849914 -0.42830235 -0.2854352 -0.5194158 -0.15320463
! -0.6038147 -0.5539977 -0.56791043 0.08328413 0.0037822218 -0.5432886 -0.5916519 0.19509955 -0.16501507 -0.50590825 -0.2088482 -0.048333883 -0.59634584 -0.5123971 -0.4810579 0.09051873
지 -0.35609007 -0.30616385 -0.5275221 -0.46178523 -0.30919248 -0.45020494 -0.055810742 -0.42993805 -0.1679902 -0.3153722 -0.3901205 -0.064853504 -0.5897545 -0.21502124 -0.32738006 -0.38761008
있 -0.39884493 -0.45100942 -0.06146976 0.041805282 -0.110520355 -0.5331439 -0.5771075 -0.56796724 -0.16605242 -0.14058983 -0.51029265 0.3019372 -0.5920613 -0.48643225 0.169953 -0.028195316
없 -0.28531075 -0.36699277 -0.031605557 -0.4330876 0.05154787 0.20862894 0.08786724 -0.42800158 -0.18332362 -0.09620491 -0.40787455 -0.08041756 -0.25340962 -0.43773887 -0.37402055 -0.440373
? 0.1280741 -0.38693282 -0.32146648 -0.19931275 0.113504484 -0.33644027 -0.33817694 -0.42966196 -0.18829076 -0.2872486 -0.464984 -0.069745176 -0.40988287 -0.11807379 -0.024032187 -0.4377538
좋 -0.5950354 -0.47418618 -0.58667165 -0.39928803 -0.23477875 -0.5504727 -0.5245841 -0.036635917 -0.18494804 -0.266143 0.17458598 -0.03484307 -0.52515703 -0.108427815 -0.0027102076 0.055532217
나 -0.34891874 -0.5090874 -0.24622805 -0.574818 -0.49660942 -0.2607422 -0.46298075 -0.22976384 -0.1902307 -0.3796357 -0.30131033 -0.07106163 -0.32207832 -0.49968722 -0.54470384 -0.4466235
었 -0.048250858 -0.44370013 -0.41866985 -0.11313711 -0.45739615 -0.22818132 -0.5799256 0.14975277 -0.19064191 -0.35620233 -0.49165908 -0.06896816 0.05971829 -0.32561994 -0.13472974 -0.18896857
만 0.12268802 -0.0503597 0.025546698 -0.18320328 -0.011126584 -0.45864284 -0.060024396 -0.18103562 -0.23435047 -0.37172267 -0.50747055 -0.083487764 -0.4726365 -0.12686504 -0.042718142 -0.44009626
는데 -0.46915987 -0.15531217 -0.28547576 -0.1759927 -0.34287792 -0.44954795 -0.14684977 -0.14834979 -0.1677744 -0.34745318 -0.3225162 -0.05422923 -0.59187084 -0.13238326 -0.37241232 -0.31462157
너무 -0.59027076 -0.32227916 -0.51836854 -0.29294106 -0.28629962 -0.21141244 -0.53480554 -0.50476086 -0.18098387 -0.17925943 -0.48713386 -0.07370537 -0.24664684 -0.45841122 -0.5261685 -0.44358173
봤 -0.14469305 0.09377452 -0.5836709 -0.3343155 -0.48451197 -0.4802154 -0.51841974 -0.03605694 -0.16644289 -0.3714353 -0.2783941 0.08322496 -0.035083365 -0.29128402 -0.37520653 0.029536532
적 -0.5385053 -0.50782645 -0.015670229 -0.520571 -0.12700082 -0.20582536 -0.5122116 -0.45957705 0.20448534 -0.13123815 -0.40507182 -0.06898843 -0.6069339 -0.459904 -0.38236523 -0.45411697
안 -0.19011378 -0.43616933 -0.051866885 0.014885817 -0.033903964 0.09572426 0.0048607085 -0.5216826 -0.16881557 0.12783647 -0.47198936 0.19489749 -0.107076414 -0.03626851 -0.37611192 -0.40170145
정말 -0.52631944 -0.31059706 -0.5290018 -0.4214217 -0.44682154 -0.5465154 -0.58138806 -0.3625358 -0.18600838 -0.044926234 -0.55928147 -0.058997862 -0.59273857 0.08576352 -0.3674818 -0.036098022
로 -0.26702496 -0.38321233 -0.15327078 -0.45927835 -0.30307788 0.057793163 -0.3018046 -0.3784995 -0.18136628 -0.032976013 -0.3507098 -0.05743854 -0.43343294 -0.3868623 -0.4382882 -0.43151844
음 -0.5921021 -0.37441328 -0.39433405 -0.4696449 -0.095873445 -0.42019022 -0.57354075 -0.23734133 -0.1728828 -0.33949572 -0.40005466 -0.049596645 -0.5901225 -0.6565926 -0.5492327 -0.1709955
것 -0.3621126 -0.4287978 -0.5043471 -0.41977796 -0.4686963 -0.3600701 -0.3528959 -0.20894271 -0.18143138 -0.3406564 -0.25665116 -0.07384023 -0.47797346 -0.27442414 -0.35735995 -0.3248026
아 -0.3007718 -0.25545117 -0.2320489 -0.66480255 -0.30957112 -0.54691464 -0.34201533 -0.22010915 -0.18661772 -0.36807966 -0.63152385 -0.06281097 -0.44738668 -0.1970458 -0.34738076 -0.23969534
네요 -0.06747817 -0.33837748 -0.5130749 -0.38759172 -0.45309427 -0.55181575 -0.033534363 0.10287498 -0.16674376 -0.36502603 -0.49202737 -0.060965665 -0.32665712 -0.45656654 -0.26986212 -0.4399578
재밌 -0.592599 -0.3026864 -0.12791157 0.13675801 0.24581467 -0.5623309 -0.57577515 -0.027395254 -0.16565563 -0.021053081 0.12625352 -0.07675676 -0.6052722 0.25078654 -0.37116998 0.0598782
어 -0.49608582 -0.24304326 -0.41564474 -0.40556398 -0.13340202 -0.27373835 -0.5780569 -0.3064754 -0.18552169 -0.06469276 -0.4843092 -0.06387375 -0.59033877 -0.42806444 -0.36085916 -0.22902898
같 -0.2037568 -0.4227825 -0.19723745 -0.4249291 -0.3812682 -0.03895378 -0.40648755 -0.42441392 -0.16578862 -0.21220241 -0.26913542 -0.07659512 -0.48411065 -0.4548116 -0.27785444 -0.28517655
점 0.050243665 -0.37987804 -0.12385514 -0.5187798 -0.4923157 0.15182018 -0.44027027 -0.11283132 -0.19125341 -0.38318786 -0.14413185 -0.07982616 -0.33303356 -0.41572616 -0.3983812 -0.43418103
지만 -0.3441556 0.019362647 -0.35881025 -0.33441666 -0.26332474 -0.39680156 -0.41989425 -0.4069743 -0.1810069 -0.3436338 -0.18150266 -0.07927825 0.0024142074 -0.139987 0.13083029 -0.339266
진짜 -0.40503636 0.073026784 -0.58338314 -0.44754052 -0.50105536 -0.2226526 -0.2153953 -0.29810122 -0.17797956 -0.14903645 -0.48541126 -0.06807101 -0.42337576 -0.47101286 -0.35406396 -0.4523921
했 -0.18943056 -0.3104229 -0.22436021 -0.40690672 -0.10821809 -0.4143451 -0.46867752 -0.18690033 -0.16856968 -0.20977834 -0.46867338 -0.0798259 -0.29757562 -0.3601279 -0.12771809 -0.09016915
에서 -0.37948352 -0.3553418 -0.30443728 -0.3725797 -0.28775132 -0.27882823 -0.21548697 -0.41842002 -0.1954122 -0.3128595 -0.29448566 -0.065747954 -0.4332869 -0.3979468 -0.26209638 -0.074735165
기 -0.31441486 -0.08709138 -0.13984865 -0.15535162 0.02607071 -0.43581238 0.12869966 -0.11732634 -0.17048176 -0.24771996 -0.10989913 -0.05333816 -0.45782077 -0.12901281 -0.18891704 -0.42162302
네 -0.5336578 -0.34033206 -0.30105734 -0.48533908 -0.46497297 -0.4876847 -0.34376028 -0.16451167 -0.18802838 -0.16127749 -0.5658517 -0.052227043 -0.4741125 -0.11750301 -0.55193913 0.11171165
않 0.10788739 0.07330903 -0.036372475 -0.004020144 0.07857777 0.08568545 -0.29484558 -0.43157956 -0.17059977 -0.32389376 -0.03210642 -0.06897341 -0.042518813 0.018575564 -0.26051933 -0.03621584
거 -0.40115613 -0.3239806 -0.38056 -0.36310998 -0.20746404 0.054839805 -0.40667456 -0.4049405 -0.17143798 -0.14384854 -0.26414207 -0.07344748 -0.44041815 -0.22713895 -0.050498817 -0.056071773
았 -0.41125154 -0.3350404 -0.5119444 -0.05555167 -0.38230672 -0.5212174 -0.37297493 0.07934221 -0.17155538 -0.0052980394 -0.37398148 0.027863393 -0.1454492 -0.2184434 -0.49741316 -0.2175588
수 -0.3594124 -0.38114363 -0.07162706 -0.4004239 -0.11004922 0.19284073 -0.2552075 -0.28173044 -0.17214088 -0.047878325 -0.31890303 -0.08892811 -0.38321468 -0.33028346 0.21451567 -0.26506653
되 -0.35638186 -0.3591044 -0.39102462 -0.18520232 -0.4552797 -0.4530789 -0.21078992 -0.4270467 -0.19275522 -0.38143316 -0.46748644 -0.07255384 -0.4557833 -0.4215482 -0.088163115 -0.042948987
면 -0.18113579 -0.444096 -0.399807 -0.18553261 -0.053804196 -0.11368863 -0.42865777 -0.41451514 -0.16574837 -0.18185322 -0.34071136 -0.060427357 -0.4624371 0.009852133 -0.13762513 0.07466829
ㅋㅋ -0.39748213 -0.19293351 -0.5056779 -0.7618291 -0.31251144 -0.43096635 -0.51841664 -0.52898437 -0.17843017 -0.5330016 -0.71122843 -0.049900975 -0.5408688 -0.75343007 -0.43101105 -0.13932838
말 -0.3669998 -0.050701775 0.058707047 0.13047907 0.057882946 0.11625483 -0.045424 0.03600896 -0.19348054 -0.19457445 -0.48064148 -0.06024399 -0.41784626 -0.298573 -0.5097579 -0.26282907
연기 -0.5022929 -0.32553533 -0.29006508 -0.3462684 -0.42897674 -0.19262518 -0.34289855 -0.32101446 -0.17049553 -0.37224331 -0.030321606 -0.056410205 -0.522856 -0.2657428 -0.0461974 -0.37947237
인 -0.18992083 -0.3833534 -0.36437306 -0.12053074 -0.21429813 -0.36993515 -0.27850968 -0.45916003 -0.1641531 -0.3216308 -0.24562688 -0.0641294 -0.5747048 -0.4641945 -0.056113288 -0.42256573
주 -0.15270996 -0.3445483 -0.43659976 -0.26338276 -0.012795066 -0.46147892 -0.35815474 0.09172579 -0.16892196 -0.20028253 -0.27070364 -0.076729864 -0.47263366 -0.17946178 -0.27543685 -0.23531574
내 -0.21888325 -0.09460203 -0.16610466 -0.21412757 -0.19170453 -0.46112838 -0.35029167 -0.014759842 -0.182776 -0.38956496 -0.43108624 -0.06443599 -0.43682268 -0.4366344 -0.25391477 3.9744205e-05
최고 0.0052135154 0.15303954 0.058343425 -0.32000545 -0.17003202 0.15720554 0.1267986 -0.10297881 -0.17612258 0.036317773 0.062139556 -0.023471728 -0.121490054 0.20014733 0.21032342 -0.12686719
~ -0.0016468448 -0.24290206 -0.53797233 -0.05634673 0.031436294 -0.5376085 -0.50959456 0.1135591 0.187191 -0.2056221 -0.48686272 -0.05263889 -0.59513706 -0.41426992 0.035760116 0.013656777
평점 0.08140784 0.0691335 -0.39362454 -0.1599081 0.07059531 0.015018281 -0.28908068 -0.5436807 -0.16919774 0.05476873 0.07926164 -0.059014633 -0.48400062 -0.14728068 -0.5278281 -0.40010116
이런 -0.37405178 -0.57217735 -0.55130446 -0.04648445 -0.46622786 -0.2054592 0.04579112 -0.43122226 -0.16788483 -0.32553938 -0.744599 -0.05556377 -0.5136655 -0.45760462 -0.5441422 -0.3435003
던 -0.09828485 -0.37077975 -0.37257403 -0.26517448 -0.44603795 0.0370007 -0.49526298 -0.36794484 -0.17648779 -0.3410526 -0.2775975 -0.07403208 -0.006123772 -0.3268806 0.12773354 -0.32962906
어요 0.05094203 0.192565 -0.5610431 -0.28069127 -0.42260513 -0.53368115 -0.020597022 0.055619687 -0.18260613 -0.35716635 -0.3218711 -0.050103918 0.10752503 -0.21385683 -0.1403523 -0.093461186
할 -0.35092613 -0.3729728 0.014339503 -0.36633453 -0.123964764 -0.4362688 -0.32768565 -0.41052985 -0.19567809 -0.13967882 -0.32932648 -0.06680288 -0.40124908 -0.33751255 -0.1618747 -0.39463076
왜 -0.08637596 -0.39336124 -0.20346974 -0.4644492 0.08511918 0.028488982 -0.02594897 0.16000175 -0.1861325 0.09673259 -0.40420815 -0.059183273 -0.20347087 -0.37384173 0.027942983 -0.43080485
겠 -0.40483448 -0.16083765 -0.50501895 -0.1272861 -0.3942174 0.13710608 -0.42113647 -0.42521837 -0.18023571 0.047039445 -0.3659313 -0.07295365 -0.34484932 -0.18016085 -0.08566576 0.11153327
1 -0.5293973 -0.31749684 0.025035359 -0.39120147 0.070257895 -0.50101167 -0.113732636 0.030546064 -0.16545771 -0.27234894 -0.1616584 -0.43894228 0.06871558 -0.41486043 -0.39195395 0.06728688
스토리 -0.36369395 -0.33646187 -0.37829027 -0.24318472 -0.48063168 -0.41048995 -0.3609663 -0.40777764 -0.16792466 -0.13845435 -0.32020724 0.22279412 -0.44576997 -0.48283622 -0.3890748 0.13857467
해 -0.149673 -0.061793406 -0.16571668 -0.37444738 -0.22969057 -0.16285264 -0.3453698 -0.52205664 -0.16313237 -0.1606023 -0.50933874 -0.07337534 -0.39373878 -0.3576628 -0.5454485 -0.15553223
습니다 -0.59338903 -0.43495116 -0.31066552 -0.057995483 -0.13333404 -0.03405103 -0.12726955 -0.32531095 -0.17626666 -0.04745897 0.11317571 -0.05113968 -0.59076446 -0.48876277 -0.25588548 -0.43468782
ㅋㅋㅋ -0.15422383 0.12798604 -0.08664823 -0.23672305 -0.16859482 -0.031050766 -0.09782232 -0.37298864 -0.1589532 -0.25189686 -0.3089118 -0.030472627 -0.36188924 -0.20860215 -0.3033737 -0.7652669
... -0.37969208 -0.16668771 -0.5821476 -0.5703434 -0.39161485 -0.5235448 -0.33411926 -0.4100714 -0.1868082 -0.035633463 -0.5283405 -0.062657 -0.05191796 -0.59980386 -0.515849 -0.3112779
드라마 -0.46401992 -0.4631336 -0.28696713 -0.5516319 -0.32959434 -0.3745579 -0.50250936 -0.583349 -0.16512138 -0.3017327 -0.029873911 -0.06404296 -0.3371354 -0.6019056 -0.5419589 -0.4301843
생각 -0.36896813 -0.13069867 -0.35504973 -0.37507513 -0.30834904 -0.25913984 -0.34302688 0.18769258 -0.16758429 -0.37492153 -0.48048875 -0.08606327 0.026681542 -0.2186179 -0.55120933 -0.30019775
아니 0.038983736 -0.3891755 0.026406473 0.023557223 -0.0023645076 0.022279866 -0.14659914 -0.046307683 -0.16803479 -0.028424991 -0.2196908 -0.07311603 -0.07211191 -0.456102 -0.10906702 0.057573773
더 -0.17669852 -0.4734989 0.013024451 -0.40544045 -0.10369234 -0.4381993 -0.0030829075 -0.40408492 -0.18768694 -0.039501175 -0.0692957 -0.064357884 -0.2552757 -0.041005146 -0.36537638 -0.30302954
그 -0.03163607 -0.31448707 -0.12319532 0.04307368 -0.4787408 -0.122783974 -0.11931189 -0.13447462 -0.16573128 -0.07737451 -0.4945466 -0.07296338 -0.3447695 -0.17291744 -0.15652588 -0.4528109
싶 -0.39591995 -0.44686282 -0.44831306 -0.096171215 -0.4815967 -0.45934406 -0.12485868 -0.36552036 0.17377704 -0.083385 -0.047422748 -0.061025362 -0.20193596 -0.2846596 -0.20325245 -0.38226604
사람 -0.34536925 -0.38902172 -0.2948598 0.13533476 -0.39655855 -0.43490556 -0.33841303 -0.3320029 -0.16778094 -0.35299155 -0.07308552 -0.07949318 -0.35847768 -0.42737204 0.018386608 -0.016209744
듯 -0.027476963 -0.39045984 -0.22400483 -0.34765595 0.04639828 -0.54367894 -0.45349252 -0.41311774 -0.18283616 -0.32844558 -0.5075017 -0.05778756 -0.28722304 -0.31790003 -0.41276634 -0.18518478
때 -0.16118522 -0.29897526 0.029915348 -0.32591814 0.029267445 -0.06034563 -0.17501837 0.1016249 -0.19388746 -0.3797469 0.12164328 -0.062977426 -0.3530433 -0.18586189 -0.14366452 -0.446864
감동 -0.5387866 -0.50900614 -0.5936373 -0.5216573 -0.1651694 -0.509303 -0.5659583 -0.45646927 -0.16441679 -0.35075167 -0.14718947 -0.042701285 -0.59619343 0.11769832 0.14321032 -0.45253876
함 -0.052088756 -0.34095994 -0.25212854 -0.38766298 -0.10603841 -0.48102668 -0.56048644 -0.17201649 -0.18995334 -0.09804595 -0.2652298 -0.062280476 -0.15789774 -0.41976592 -0.48418406 -0.03651611
배우 -0.37686393 -0.15089554 -0.51488733 -0.37563756 -0.48316494 0.14203817 -0.34454602 -0.42509174 -0.16655889 -0.37298226 -0.4683891 -0.06762001 -0.48845887 -0.28268722 -0.18751357 -0.34283373
본 -0.39030385 -0.11582425 -0.21595168 -0.34790567 -0.066882044 -0.36688405 -0.2214643 -0.30994055 -0.17280665 -0.3216004 -0.49405923 -0.06212203 -0.34439293 -0.4961302 -0.40334693 -0.13343024
까지 -0.3354005 -0.35487935 -0.12907256 -0.3608087 -0.31467432 -0.40869054 -0.40714934 -0.4028683 -0.18383881 -0.2869246 -0.37552536 -0.06400166 -0.31669036 -0.27243513 -0.3243981 -0.44768614
뭐 -0.09457808 -0.38839018 -0.0098107755 -0.42178395 0.09902032 0.11636987 -0.34603295 -0.4041738 -0.18039957 -0.21647993 -0.46550375 -0.06376359 -0.11689484 -0.42890424 -0.05212112 -0.4347952
알 -0.36213374 -0.0944065 -0.30761915 -0.32230455 -0.36187094 -0.37533846 -0.12208378 -0.4087252 -0.17392436 0.035089914 -0.26673824 -0.06555283 -0.23804876 -0.06943145 -0.1057384 -0.0674498
만들 0.089731805 0.046630923 -0.41874722 -0.03558653 -0.4552024 -0.23218532 -0.34598362 -0.22237438 -0.17665893 -0.34495327 -0.22457445 0.044740416 0.082343325 -0.20687397 -0.4679837 -0.40798157
내용 0.1464307 -0.025572294 -0.4252475 -0.37343714 -0.33684477 -0.4649617 -0.009314981 -0.37010095 -0.170917 -0.372124 -0.11840549 0.32153305 -0.5790531 -0.41626272 -0.24244483 -0.14500429
볼 0.13408294 -0.26620868 0.010091808 -0.39988673 -0.009289106 -0.36279136 4.1264168e-05 0.049728185 -0.16900197 -0.28758126 0.106594175 -0.08298069 -0.28473714 0.058418423 -0.37633616 0.020997785
감독 -0.51865166 -0.31863862 -0.061530437 0.0028849856 -0.26008016 0.12563817 -0.5239654 -0.11474679 -0.16646154 -0.38014746 -0.23651539 0.207135 -0.21687643 -0.051809326 -0.0829112 0.21298309
보다 -0.33653525 -0.15765743 -0.25282523 -0.22511445 -0.20287181 -0.36244515 -0.16297552 -0.23955676 -0.19299701 -0.3437182 -0.36691555 -0.07867777 -0.15387668 -0.19342135 -0.5519322 -0.18361713
라 0.0010137586 0.0072440295 -0.0027498319 -0.3790289 -0.19679959 -0.3427648 -0.28980443 -0.4212223 -0.18811105 -0.051419195 -0.34053826 -0.07318501 -0.2505272 -0.06613027 -0.35027957 -0.20546678
그냥 -0.52449274 -0.33046204 -0.23492205 -0.2353638 -0.23525643 0.2365408 -0.25553063 -0.2804648 -0.19238685 -0.12771885 -0.06731424 -0.06607455 -0.19865519 -0.24175039 -0.106561825 -0.44975093
재미 0.11818541 0.017575989 -0.52588797 -0.15946938 -0.18306461 -0.54392236 -0.5540993 0.084289335 -0.18302436 -0.21331924 -0.13874118 -0.066326275 -0.1468212 -0.06751016 -0.17037015 0.070709474
시간 -0.38254607 -0.35541767 -0.04648616 -0.19734731 0.0993763 -0.033545345 0.06279455 -0.07789816 -0.17140813 -0.34597203 -0.37551725 -0.0579336 -0.03954882 -0.42478344 0.03929266 -0.16627489
지루 0.20248355 -0.34756574 -0.04020286 -0.37471893 0.13755299 0.110236354 0.025180873 -0.41428068 -0.1772658 -0.32046244 -0.36571777 -0.0757099 -0.06608695 -0.37449878 -0.39195836 0.021376293
중 -0.349524 0.12227108 -0.36061504 -0.24804018 -0.073711276 -0.19067404 -0.15301442 -0.39163938 -0.17897311 -0.2893251 -0.33630362 -0.07381996 -0.417458 -0.497677 -0.3941135 -0.30012846
재미있 0.010781583 -0.34741905 -0.08287697 -0.18126494 -0.2721454 0.026456881 -0.06266629 -0.36722413 -0.17341295 -0.07560527 0.104182854 -0.05619347 -0.59702337 0.14520279 0.15877247 0.02500664
년 -0.32659164 0.1093975 -0.004911306 -0.2491619 -0.48115948 -0.38683116 0.014365954 -0.40889338 -0.16887036 -0.36164686 -0.02297251 -0.059090324 -0.34581834 -0.17159943 -0.36921972 -0.37892953
10 0.10737766 -0.12733322 -0.45214954 0.166543 -0.47542167 0.23357297 -0.51733387 -0.40863544 -0.16437839 -0.26607895 0.21621807 -0.07615814 -0.343838 0.010664793 -0.17892873 -0.44714984
였 -0.3576849 -0.3522719 -0.46712288 -0.34983116 -0.33631194 -0.4550137 -0.28725407 -0.29066384 -0.17396656 -0.36613277 0.11593936 -0.07591697 -0.16433129 -0.26967317 -0.15320922 -0.44383016
잼 0.048500102 0.23929623 -0.5829113 0.03636793 -0.17812836 -0.5333044 -0.5753169 -0.020982852 -0.18634222 -0.1497606 -0.48236054 0.3228413 -0.60208845 -0.49279195 -0.2148555 0.10911865
사랑 -0.3964371 0.09684423 -0.4171106 -0.28099254 -0.46824577 -0.36572582 -0.13923354 -0.12275252 -0.19100933 0.07681658 0.067093894 0.20944695 -0.4344771 0.11925263 -0.4313282 -0.42966643
못 -0.38047606 -0.14193647 -0.21357165 -0.3623957 0.13438748 -0.12102546 0.14565474 -0.41204235 -0.16619098 0.036698204 0.111732766 -0.07288318 -0.15930742 -0.40656754 -0.36581895 -0.3824807
냐 0.14794946 0.1127084 -0.17775533 -0.4057018 0.049383726 -0.15369134 -0.11299524 -0.29630154 -0.16536222 0.14804116 -0.4558627 -0.08074188 0.038259815 -0.38057342 -0.3602152 -0.43097046
재미없 0.12020325 -0.380488 -0.12351625 -0.35032642 0.09747663 0.09153647 0.12939876 -0.41123578 -0.17182724 0.23757881 -0.36531663 -0.017211296 -0.23225576 -0.39141035 -0.3789058 -0.123977475
쓰레기 0.25235838 -0.3752108 0.13831243 0.012979087 0.10758807 0.006522353 0.08207481 -0.009666299 -0.18688837 0.084813476 -0.34254414 0.25545117 0.043617673 0.16313073 -0.45500046 0.049277827
서 -0.33534366 -0.3973964 -0.2855719 -0.30574077 -0.28488323 -0.28026292 -0.33179772 -0.39776498 -0.17329736 -0.3480208 -0.061857324 -0.057784915 -0.436461 -0.3008632 -0.39858758 -0.17543307
2 -0.32824904 -0.2782529 -0.25885493 -0.41209924 0.032978952 -0.363864 -0.33394155 -0.40213978 -0.18631664 -0.023978649 -0.3096622 -0.06328723 -0.039504487 -0.34132448 -0.48813063 0.045177236
라고 -0.35623398 -0.24897495 -0.00530646 -0.3922538 -0.2713978 0.07767743 -0.35281947 -0.42553446 -0.18019749 0.0066769556 -0.28701797 -0.07817967 -0.37938672 -0.34424502 -0.36301872 -0.18132462
야 -0.5548708 -0.086560525 -0.27386847 -0.02440271 -0.34098312 -0.23080982 0.09862608 -0.5313954 -0.1797112 -0.42354056 -0.13377662 -0.0852187 -0.06143626 -0.2073363 -0.15682246 -0.09656554
니 -0.014837566 -0.3802118 -0.23566872 -0.3537043 -0.30998382 -0.4048264 0.03908489 -0.39166206 -0.16687715 -0.24424656 -0.4698381 -0.07288848 -0.16819537 -0.35301244 -0.32964927 -0.29962444
면서 -0.31884256 -0.13711458 -0.3292317 -0.37534437 -0.342125 -0.34528393 -0.33933705 -0.028179243 -0.16504927 -0.3616532 -0.32280934 -0.070062526 -0.42777595 -0.29809657 -0.26045543 -0.30703267
번 -0.4405854 -0.24651277 -0.39918837 0.010846376 -0.3076751 -0.43018252 -0.030794388 0.1358823 0.19188887 -0.094334535 -0.044743072 -0.07541617 -0.4513082 -0.23466223 -0.23994152 -0.31297824
다시 -0.17816347 -0.17169653 -0.47738683 -0.26652825 0.11889315 -0.4495772 -0.35303763 0.22496551 -0.16610326 -0.33471003 -0.24927247 -0.060416378 -0.44629472 0.037971985 -0.327091 -0.1769629
나오 -0.18549675 -0.33927968 -0.092879064 -0.37373763 -0.082161434 -0.2721117 -0.00028016465 -0.09464187 -0.17002425 -0.37087077 -0.22813128 -0.06995559 -0.13592662 -0.17434846 -0.091574505 -0.37614012
작품 -0.4211039 -0.33076608 -0.08112413 -0.28122026 -0.17639254 -0.104398884 -0.52579993 0.046598457 -0.18033807 -0.32174376 -0.4222753 -0.03204001 0.0037336994 0.043900758 -0.019804662 -0.3681533
이거 -0.3760643 -0.38727123 -0.2852018 -0.18329711 -0.1652817 -0.002391001 -0.17892094 -0.11225298 -0.18432176 -0.2240156 -0.29756624 -0.03350111 -0.3272511 -0.19194575 -0.10704826 -0.3747001
하나 -0.08093252 -0.38344505 -0.07570587 -0.4693541 -0.025312886 -0.31318492 0.03547945 -0.49729067 -0.18836825 -0.019240951 -0.25168124 -0.07108931 -0.4182075 -0.013557472 -0.30752236 -0.41412836
줄 -0.042807456 -0.20956875 -0.009253255 -0.08582132 0.088944554 -0.25143388 -0.33088207 0.10626604 -0.18964426 -0.3622908 -0.078604855 -0.06862066 -0.39145786 -0.21679908 -0.2815926 0.066007294
해서 -0.26862156 -0.33810538 -0.51788753 -0.1883237 -0.4858787 -0.408544 -0.116554774 0.039786525 -0.17246494 -0.2652045 -0.35863292 -0.029427469 -0.060356893 -0.2084587 -0.42033857 0.0046692
개 -0.3928358 -0.121418156 -0.51337767 -0.47219276 -0.045440692 -0.49535826 0.06462814 0.11394705 -0.1647961 0.19394313 -0.067823544 -0.07749663 -0.094466574 -0.46098 0.09777357 0.0014376366
남 -0.37351957 -0.029264 -0.37469926 -0.28355798 -0.37214106 -0.460476 -0.36413917 -0.39778346 0.116613984 -0.22746545 -0.46982223 -0.07786717 -0.18767238 -0.05901385 -0.00042663843 0.0008274109
정도 -0.017845681 -0.3930386 -0.3862065 -0.51828563 -0.007275662 -0.35545355 -0.3316778 -0.195607 -0.19011176 -0.21344592 -0.11760757 -0.05769813 -0.47764915 -0.13062677 -0.40175554 -0.18255842
마지막 -0.05099788 -0.30266717 -0.46331182 -0.06019482 -0.20686932 -0.49673867 -0.34434062 0.11426317 -0.1646379 0.099756956 -0.3463734 -0.036293328 -0.5809207 0.13989916 -0.03743734 0.012123589
끝 -0.325931 0.056238446 0.030320924 -0.011585183 -0.09557187 -0.40564823 -0.41197628 -0.2985723 -0.17516991 0.17451671 -0.36118975 -0.07428367 -0.03790353 -0.27508324 -0.12858488 -0.43141565
이건 -0.37298423 -0.5336489 -0.29767066 -0.55657965 -0.47569597 -0.5261152 0.12076963 -0.1471198 -0.16681911 0.23271807 0.12695333 -0.075051375 -0.4457809 -0.5969222 -0.5507382 -0.43285495
액션 -0.12757203 0.08055257 -0.13832243 -0.490465 -0.44359636 -0.04165068 -0.15546888 -0.4569438 -0.16481018 -0.09360623 -0.18404886 -0.0731244 -0.1442417 0.013170858 -0.059198022 -0.379152
임 -0.3639956 -0.06040838 -0.43572548 0.06766672 -0.27417454 -0.36876976 -0.51175433 -0.38145506 -0.18266971 -0.51534307 -0.51091397 -0.07608122 -0.531831 -0.4380399 0.000964815 0.05370193
ㅋ -0.5248063 0.1550354 -0.010976042 0.09895282 -0.4717911 -0.49655524 -0.55371094 -0.2367842 -0.16142622 0.04314384 -0.41979364 -0.43893027 0.06310317 -0.30831006 -0.120129816 -0.095496945
3 -0.4257298 -0.3267448 -0.40054148 -0.3289157 0.0770094 -0.24471632 -0.2327939 -0.34650242 -0.16414909 0.05889352 -0.29772487 -0.058805496 -0.044401832 -0.38973144 -0.34704435 -0.15902151
기대 -0.37499684 -0.039881513 -0.4002107 -0.29141384 -0.31359428 0.04135715 0.0074086282 -0.1780621 -0.17417574 -0.34094507 -0.16391115 -0.037989974 -0.5902425 -0.34498605 0.0131552275 -0.4325421
입니다 -0.50591034 -0.027794477 -0.3938203 -0.25552577 -0.45630932 -0.464741 -0.4204938 -0.4477533 -0.17813861 -0.35582364 0.12457853 -0.05009984 -0.59684825 -0.443129 -0.37169066 0.031435926
건 0.16662908 -0.21752259 -0.21320204 -0.32779506 0.044767287 -0.29710698 0.06674641 -0.40575996 -0.17656647 -0.29414788 -0.32498398 -0.058154073 -0.42293862 -0.034281746 -0.09772615 -0.16060105
라는 -0.3523591 -0.32650602 -0.39665478 -0.32715484 -0.12822391 -0.26675552 -0.2899154 -0.3683531 -0.16723832 -0.3079857 -0.13842738 -0.062971555 -0.43945253 -0.20590916 -0.367333 -0.31946725
분 -0.1458803 -0.08193618 -0.11431342 -0.14250731 -0.29814646 0.11546869 0.07818836 -0.4063034 -0.1748086 0.05588072 -0.27293262 -0.062323757 -0.11537703 -0.34012917 -0.26591253 -0.36572132
완전 -0.47410288 -0.33137292 -0.2143096 -0.23283781 -0.22365797 -0.5303688 -0.5000733 -0.11794389 -0.16535729 -0.37240776 -0.4315018 -0.014643308 -0.59199876 -0.33691555 -0.14072147 -0.43682536
다는 -0.31063825 -0.35019287 -0.09106832 -0.29763323 -0.28575566 -0.3710003 -0.40987802 -0.3444312 -0.18850116 -0.2170871 -0.0070169577 -0.038580645 -0.40988183 -0.31866038 -0.4026337 -0.33274364
참 -0.354633 -0.21423689 0.032885164 -0.30924985 -0.30780607 0.0002745042 -0.41474852 -0.4177271 -0.16999406 -0.32582414 -0.42475414 -0.0581483 -0.28083423 -0.33619326 -0.31985945 0.10310705
많 0.04040679 -0.31336072 0.01246952 0.18115853 -0.32724243 -0.4391044 0.030802956 -0.40889853 -0.1754109 -0.3112157 0.057301085 -0.054171458 0.04708119 -0.437162 0.061983764 0.01989728
처음 -0.17963359 -0.3771367 -0.06860729 -0.3719845 -0.041108888 -0.4223832 -0.24066629 -0.43769315 0.076197945 -0.3420888 -0.3698242 -0.06026796 -0.106499344 -0.18737873 -0.39172816 -0.081449926
장면 -0.31826726 -0.2418803 -0.13714819 0.0007282452 -0.35298106 -0.49607623 -0.2096654 -0.26764414 -0.16745037 -0.31927547 -0.2173039 0.282187 -0.46519542 -0.31300429 -0.2926675 -0.34210306
대 -0.31251478 -0.37825683 -0.080073066 0.039322935 0.06471067 -0.14846879 -0.33736032 0.112312496 -0.16815235 -0.15384868 -0.3217212 -0.07257398 -0.029490538 -0.13203177 -0.3127527 -0.2512282
아깝 0.1111831 -0.33111656 -0.038129386 -0.33738706 0.078558296 0.08178745 0.20654532 -0.38193798 -0.17740814 -0.33271793 -0.37056416 -0.059893213 -0.2672439 -0.35288283 -0.36308026 -0.31761017
다가 -0.3514407 -0.14783995 -0.3653565 -0.35823202 -0.026443502 -0.3883671 -0.25638902 -0.36959434 -0.1872201 0.040566716 -0.37734893 -0.04147774 -0.29021332 -0.31247017 -0.32250893 0.15872605
으면 -0.042066943 -0.17071833 -0.42380118 -0.30282456 -0.2584936 -0.007029953 -0.38096198 0.0861368 -0.1674618 0.14480783 -0.004870165 -0.06422397 -0.073864825 -0.024334887 -0.21608563 -0.042995106
지금 -0.060913965 -0.25395516 -0.3344124 0.11735943 0.105353594 -0.39818344 -0.24708705 0.1250118 -0.17758301 -0.3344186 -0.057937946 -0.032350287 -0.10568257 -0.14520772 -0.06869554 -0.0042350413
모르 -0.30260572 0.014009028 -0.09439025 0.012299494 0.096359596 -0.25132263 0.058061592 -0.38820854 -0.18426654 -0.35872966 -0.38677126 -0.067110926 -0.21864223 0.1125226 -0.22715022 -0.2183277
이렇게 -0.32245642 -0.37826437 -0.2909489 -0.13102345 -0.33757687 -0.2742079 -0.30641818 -0.44163093 0.10360879 -0.35057557 -0.30676705 -0.044717446 -0.2991342 -0.16058522 0.040929914 -0.37951055
' -0.032847583 -0.07569948 -0.07364729 -0.0338398 -0.13351509 -0.29495668 -0.046893593 0.026072882 -0.16212039 -0.0021065879 0.057430647 -0.0638058 0.031191599 0.006253313 -0.07253198 -0.0021791076
편 -0.004587012 0.08472573 -0.39722338 0.07355166 0.14107412 -0.18577074 -0.34938562 0.091956064 -0.17248619 -0.21238056 -0.26604715 -0.056992557 -0.036028985 -0.085815355 -0.37098888 -0.02296069
일 -0.14011647 -0.38520432 -0.08700654 -0.36518988 -0.21477403 -0.012582215 0.032882947 0.029919762 -0.17816608 -0.17418754 0.092762396 -0.075418636 -0.19529702 -0.32836378 -0.37104014 -0.28792456
돈 -0.33820102 -0.11264351 -0.121983714 -0.3772695 0.08960751 0.054184806 -0.25116816 0.07212561 -0.18240716 0.22739552 -0.37253037 -0.07834055 -0.023625858 -0.33759576 -0.27795014 -0.18584707
이게 -0.3523699 -0.34981838 -0.05366888 0.14007545 -0.34922895 0.10016509 0.09981162 -0.10547848 -0.16706961 0.12492982 -0.45754635 -0.02604493 -0.2099446 -0.3739965 -0.39631453 -0.12985606
성 -0.34739366 -0.09087604 -0.30416453 -0.36774814 -0.3132409 -0.25119194 -0.36529756 -0.4809293 -0.18891005 -0.33776018 -0.04942388 -0.021613983 -0.10825785 -0.33629197 -0.25028297 0.15235843
느낌 -0.4615801 -0.34791416 -0.41176063 -0.25151533 -0.32730836 -0.3943334 -0.35384765 -0.3410524 -0.18709669 -0.07745974 -0.5062416 -0.07940379 -0.34239304 -0.31177977 -0.15529794 -0.11497259
시 0.042769164 -0.1265434 -0.16244522 -0.019515859 -0.46853238 -0.267956 -0.33507878 -0.3930186 -0.1708333 -0.29742405 -0.112547025 -0.06624051 -0.539808 -0.009475899 -0.0909886 -0.44528258
이야기 -0.34196925 -0.3307906 -0.39746314 -0.3889537 -0.2162108 -0.27465615 -0.041907363 0.076039255 -0.18105598 -0.08572711 -0.46098685 -0.037510537 -0.14568242 -0.44982928 -0.43529788 -0.3671531
최악 0.20354018 -0.3154082 -0.24146125 -0.32013866 0.058676098 0.16901626 0.26723272 -0.37883162 -0.17561604 0.2781271 -0.30744827 -0.060368862 -0.06231433 -0.41871005 -0.32007092 -0.19259416
된 -0.36048064 -0.15864505 0.061606944 -0.069324955 -0.19941105 -0.35524097 -0.071122356 -0.15550332 -0.174062 0.018022133 -0.1990328 -0.043517083 -0.43674198 0.05414117 0.046927847 -0.31938544
봐도 -0.35001215 0.18499471 -0.4814045 -0.16592202 -0.40838644 -0.43412814 -0.36424938 -0.42679217 -0.16318105 -0.34839386 -0.36182702 -0.08400038 -0.5385901 -0.039714396 -0.37167415 -0.18842067
님 0.074279785 0.08912287 -0.33539516 -0.2347879 -0.4754477 -0.26097903 -0.33596814 -0.13142331 -0.16519544 -0.34673434 -0.28868803 0.042840153 -0.31176007 -0.1726774 0.13165009 -0.35660902
어서 -0.2643359 -0.16373621 -0.24699245 -0.3798557 -0.47309694 -0.20944685 -0.31826177 -0.32101345 -0.17129162 -0.09276602 -0.33142728 -0.062249344 -0.038714692 -0.42025986 -0.37633723 -0.0026886826
애 -0.09437891 -0.3084492 0.14856611 -0.16310981 -0.04444255 -0.10814487 0.071811385 0.017554056 -0.17493442 -0.27184162 -0.13617441 -0.058080222 -0.109552756 -0.037087083 0.108111024 -0.29902482
전 -0.337772 0.09360072 -0.27697927 -0.24698706 -0.0031061315 -0.415757 -0.3323031 -0.088455886 -0.16383655 -0.37010705 -0.0034491247 -0.055313855 -0.4025553 -0.15163928 -0.22804265 0.0896967
넘 -0.3949228 0.058251023 -0.17242175 0.059237123 -0.102242924 -0.18812585 -0.5501302 -0.29263076 -0.16948572 -0.36487478 -0.3574001 -0.032984972 0.039282937 -0.23072857 -0.44668454 -0.273981
ㅠㅠ -0.46847388 -0.19435893 -0.57702005 -0.1905805 -0.42413482 -0.12619726 -0.57835096 0.139749 -0.18026742 -0.3585596 -0.55390227 -0.00910481 -0.08420259 0.05308304 -0.37909126 -0.41962278
인데 0.088310964 0.031991243 -0.16901733 -0.3702579 -0.24236275 -0.2849536 -0.06746313 -0.41959208 -0.17057952 -0.16327676 -0.26293698 -0.07015971 -0.33800724 -0.037055254 -0.41991964 0.03295751
다고 0.02866357 -0.15265583 -0.03624318 -0.37690267 -0.26924974 -0.5376097 0.14498194 -0.0315352 -0.17430267 -0.09780068 0.10761495 -0.0725054 -0.082094125 0.09086347 -0.13365076 0.026812926
이해 0.0137269255 -0.3856399 -0.20183927 -0.103440166 -0.21932185 -0.11032069 -0.33675414 -0.28280893 -0.18120323 0.014141819 -0.25960547 -0.04795699 -0.19416112 -0.12372212 -0.21210147 -0.44259453
별로 -0.18655558 -0.067840904 -0.007240039 -0.36744606 0.00019852952 0.044850506 0.015390204 -0.41069853 -0.17193586 0.11538261 -0.53995603 -0.07038455 -0.23310272 -0.44513533 -0.12352664 0.21978508
그리고 -0.0955711 0.14151008 -0.0514536 -0.0006527703 -0.03470148 -0.26730454 -0.02645094 -0.22223547 -0.19007707 -0.051630095 0.043400045 -0.07235424 -0.10139092 -0.376474 -0.3728434 -0.3681625
명작 -0.3648494 -0.38433075 0.13188855 -0.06852652 -0.43759298 -0.44059154 0.18922389 -0.2804727 -0.18319158 -0.38137823 0.09598261 -0.050659336 -0.48184505 0.13891038 0.3130199 -0.42523274
여자 -0.36097383 -0.3034239 -0.5142584 -0.051604517 -0.4888353 -0.42958906 0.092121586 -0.11025331 -0.17423426 -0.32652822 -0.3241549 -0.08349688 -0.0070560137 0.1133706 -0.5293082 0.21245404
^^ -0.51745975 -0.35498202 -0.49390987 0.219186 -0.4342145 -0.4558535 -0.532146 -0.34202522 -0.1730524 -0.35350233 0.04461644 -0.037389517 0.0638968 -0.44443583 0.020948626 -0.37612146
역시 -0.024197865 0.109231584 -0.5934649 -0.5468468 -0.48299325 -0.5537726 -0.04539029 -0.07099039 0.19009256 -0.38085666 -0.16155183 0.27065215 0.002184526 -0.50581837 0.1119833 -0.4393098
난 -0.4016837 -0.23568287 -0.5499899 -0.09206715 -0.48183987 -0.42795643 -0.43087912 -0.5328533 -0.17373903 -0.37622428 -0.52604425 -0.025575519 -0.20878553 0.014988456 -0.5498006 -0.40370455
이상 -0.03052269 0.007517064 -0.12380824 -0.45310783 -0.32864052 -0.041333567 -0.22737344 -0.53368944 -0.16978374 -0.09070276 -0.471751 -0.05201042 -0.5822207 -0.47407708 -0.5396191 -0.43759692
또 -0.38317215 -0.1275781 -0.379918 0.141838 -0.3163864 -0.42930838 -0.3533328 -0.04199968 -0.1623148 -0.29596838 -0.2948493 -0.08462572 -0.38160452 -0.32006732 -0.024018561 -0.35823396
걸 -0.13175614 -0.31133848 -0.11813763 -0.31390473 -0.13215213 -0.4315446 -0.14001822 -0.29619998 -0.16359055 -0.12618029 -0.3226482 0.012460481 0.083415195 -0.35467884 -0.2621591 0.079405256
한국 -0.3736633 0.07246488 0.05586502 -0.56202215 -0.06946301 -0.048011836 0.028871395 0.103965715 -0.173317 -0.17933704 -0.110707976 -0.039854813 -0.43348128 -0.051075995 -0.34601706 -0.41024542
는지 -0.31104156 -0.15417564 0.13458875 -0.06462805 0.022493688 -0.21439143 -0.21442078 -0.47615737 -0.16875917 -0.3138661 -0.14668353 -0.07018088 -0.29114234 -0.026835257 -0.25101444 -0.010542582
많이 -0.2613355 -0.44534305 -0.41801035 -0.3245511 -0.37357605 -0.4300954 -0.04570038 -0.14728382 -0.17392516 -0.11259421 -0.3313057 -0.08185594 -0.15182371 -0.46790951 -0.39920783 -0.3430743
에게 -0.11659991 -0.118901834 -0.28473505 -0.13543749 -0.31686983 -0.2588686 -0.34664464 -0.27158508 -0.1710734 -0.34927198 -0.31238323 -0.06868814 -0.34360012 -0.11929525 0.020842455 0.037681233
부터 -0.27260533 -0.3112815 0.02415899 -0.37426558 -0.16516851 -0.41891858 -0.34280124 -0.42864794 -0.17326884 -0.31774896 -0.0014100159 -0.07163422 -0.094282284 -0.28699467 -0.21962091 -0.0562511
만든 -0.4424786 -0.06585455 -0.53364116 -0.17734179 -0.30652684 -0.08403834 -0.52899307 -0.20240775 -0.18613976 -0.35678238 -0.37071314 -0.05634267 -0.49763194 -0.31014505 0.0021129912 -0.35818222
주인공 -0.018772732 -0.24671859 -0.21781501 -0.29143575 -0.39719743 -0.22195813 -0.22273372 -0.27279517 -0.17529747 -0.13184573 -0.31392142 0.4360382 -0.32130724 -0.28850392 -0.31848907 0.054811664
받 0.023595234 -0.025339995 -0.31871042 -0.4041451 -0.014914515 -0.03498526 -0.025921188 -0.050770175 -0.18464687 -0.34098062 0.017068168 -0.049738728 -0.44088763 -0.018334731 -0.3876547 -0.31303596
합니다 -0.38928443 -0.2358373 -0.4015919 -0.35495165 -0.48367926 -0.02427397 -0.41838688 -0.3415496 -0.17412797 -0.061391614 0.0025137945 -0.05147958 -0.15122962 -0.44839826 -0.26379168 -0.4114594
우리 -0.37103897 0.15566888 -0.39871112 0.116092086 -0.44900844 -0.3646207 -0.32377505 -0.063261114 0.1691146 -0.30608585 -0.3436121 -0.05514001 -0.3077042 -0.3109096 -0.36753464 -0.3699341
두 -0.45900702 -0.2699166 0.07215566 -0.3125889 -0.08968391 -0.023147414 -0.34857935 -0.17834473 -0.1859253 0.068129465 -0.39008406 -0.0674578 -0.4404607 -0.30304706 0.018891484 -0.3292054
살 -0.3351307 0.03965616 -0.047583017 -0.10048272 0.025556466 -0.452093 -0.29279232 -0.2107471 -0.16786458 -0.055652775 0.12252265 -0.08631269 -0.006829531 -0.44468826 -0.3867875 -0.39275423
!! 0.091397904 -0.11564572 -0.5141248 -0.23531966 -0.30667323 -0.53353053 -0.53877497 0.08845853 -0.16395243 -0.15492806 -0.2627863 -0.030366957 -0.597489 -0.36359838 -0.20423105 -0.30881375
길 -0.06795455 0.05392229 -0.2282053 -0.13197625 -0.110393405 -0.14294411 -0.15015978 -0.36902958 -0.16455735 -0.05175094 -0.20178875 -0.079592995 -0.04748293 -0.39637712 -0.423443 -0.011915427
엔 -0.28898406 -0.26562563 -0.39296985 0.028570596 0.008468861 0.050123185 -0.10138117 -0.10993583 -0.18400103 0.05551561 -0.096547 -0.042858016 -0.29557398 -0.23719564 -0.037986748 -0.103814386
괜찮 -0.36387658 -0.07650747 -0.405811 -0.43072042 -0.37712348 -0.43880033 -0.36118355 0.16818888 0.27365324 -0.35716957 0.0038108975 0.014457095 -0.45551977 -0.037765328 0.03093128 -0.43114826
기억 -0.38194233 0.101243466 -0.38576323 0.08033339 -0.3219265 -0.4737799 -0.34174564 -0.39306062 0.16340545 -0.35851637 -0.2654057 -0.039553303 -0.41709086 -0.083655074 -0.26366416 -0.22631349
연출 -0.35302797 -0.2192244 -0.0031217737 -0.26997557 -0.30246618 -0.04031401 -0.3270438 -0.2142922 -0.16668612 -0.06273936 -0.2581826 -0.05120617 -0.41324 -0.3559267 -0.30827448 -0.32544798
한다 0.085827574 -0.0115699135 -0.12919135 -0.14535062 -0.017656008 -0.025543088 -0.22460546 -0.11396812 -0.18243672 0.10521758 0.052857075 -0.079934925 -0.42876035 -0.02278201 -0.35935152 -0.45072883
때문 -0.23458272 -0.1548597 -0.48292375 -0.33558002 -0.45513877 -0.050671138 -0.46945047 0.10823788 -0.18199742 -0.07960487 -0.33453435 0.20229228 -0.49517137 -0.3213645 -0.43327552 -0.33983827
이나 -0.2650199 -0.27566195 -0.1444254 -0.30171493 0.16804954 0.049462307 -0.11286955 -0.41716853 -0.1692721 -0.32178587 -0.27367595 -0.019172013 -0.31312513 -0.19895415 0.018802376 0.04354469
ㅎㅎ -0.6092066 0.012435842 0.06780014 -0.39457035 -0.16468394 -0.018683184 0.15502147 0.26666278 0.17545149 -0.5816547 0.14241174 -0.062422644 -0.32580325 -0.40688846 -0.5165862 -0.4520338
요 -0.21377753 -0.051973302 -0.41514862 0.0709793 -0.15360464 -0.49059436 -0.45515153 -0.3750787 0.23304759 -0.35586196 -0.11924708 0.00439652 -0.4924352 -0.49465683 -0.5434561 -0.36014503
저 -0.38227803 -0.16396709 -0.3163104 -0.18538035 -0.31200293 -0.43676564 -0.33428493 -0.012195801 0.27274132 0.09726662 -0.40580088 0.17385074 -0.14716114 -0.3568493 -0.38379368 -0.36762983
재 -0.46348155 0.024725145 -0.2939814 -0.36873314 -0.0044113547 -0.5215562 -0.43879807 -0.07637725 -0.1890744 0.04119429 0.07180434 -0.06834137 -0.5237956 0.026097061 -0.23922655 0.00133589
꼭 -0.44084162 -0.31041366 -0.2773928 0.19541562 -0.3299227 -0.4617333 -0.41787902 -0.37418994 -0.18275236 -0.39323485 0.05272708 -0.06901765 -0.43084165 -0.2868885 -0.38196972 -0.3781749
랑 -0.27261996 0.061687462 -0.17487508 -0.3808204 -0.35771155 -0.06135815 -0.3503474 -0.06592121 -0.16416526 -0.065677874 -0.2918454 -0.017214755 -0.22086532 -0.13625422 -0.37796703 -0.3142344
며 -0.21263088 -0.14003888 -0.2812618 0.08120092 -0.20722614 -0.25614893 0.0014769592 0.08816765 -0.18204615 -0.12473076 -0.17860968 -0.054087788 -0.27946156 0.024017204 -0.074216105 -0.2939136
현실 0.03527393 0.17075618 -0.53017175 -0.38209555 -0.15582469 -0.45842156 -0.48509687 -0.4079343 -0.16677837 -0.15651827 -0.11202738 -0.060025133 -0.5759367 -0.062320855 -0.25450948 -0.009197553
긴 -0.3400671 -0.23188598 0.08678646 0.16013975 0.01880438 -0.2274571 0.106848426 -0.39307573 -0.17692019 -0.33940706 -0.31426388 -0.0043480173 -0.018110203 -0.07863598 -0.384187 0.08464241
ㅡㅡ 0.084725685 -0.31554967 -0.2939626 -0.32584164 -0.43580556 -0.003054423 0.22718969 -0.407325 -0.19176061 0.07361953 -0.3194577 -0.07322928 -0.371602 -0.3892259 -0.41648024 -0.069752686
무슨 0.042860918 -0.31492975 0.065953165 -0.2616072 0.060896527 0.20706324 0.07115404 -0.42455554 -0.17099755 -0.3488554 -0.41537017 -0.059368093 -0.49063134 -0.29274195 -0.090620264 -0.29813078
내내 -0.26549837 0.022184974 -0.23365474 -0.38515005 -0.2717869 -0.2843765 -0.08557666 -0.3232052 -0.18984862 -0.31135675 -0.025602268 -0.062300563 -0.28917915 -0.24386851 -0.32796684 -0.28151584
결말 0.083240345 0.04088519 -0.58118635 -0.4645458 -0.015104834 -0.43711427 -0.43347237 -0.059730176 -0.19289784 -0.05112816 -0.39757073 -0.06461927 -0.42834476 -0.057181265 -0.20989402 -0.29528743
죽 -0.025942635 -0.43274614 -0.31148773 0.04589445 0.035933774 -0.4575552 0.008325183 0.17685495 -0.17964125 0.23431571 -0.0775842 -0.06804152 -0.037187196 0.0487473 -0.07052199 -0.38982636
남자 -0.4537231 -0.09444181 -0.31124264 0.07569282 -0.33664843 -0.27709883 0.07605421 -0.17030483 -0.19082884 -0.2651843 -0.014444639 -0.055091534 -0.35643435 -0.32606772 -0.16587168 -0.3010044
세요 -0.4125581 -0.23717432 -0.4316656 -0.09624293 -0.045384888 0.13099739 -0.4165648 -0.07136896 -0.186297 0.08667314 -0.09498586 -0.065924935 -0.11087719 -0.083467245 0.04440406 -0.14383034
전개 0.18370448 -0.1377674 -0.03365991 -0.3349015 -0.27185532 0.08327159 -0.34116337 -0.065563545 -0.17585152 -0.3492268 -0.3081323 -0.04814271 -0.44966838 -0.31059685 -0.32496488 0.08083361
마음 0.0541256 -0.011987255 -0.091222495 -0.33605677 -0.4806458 -0.4055313 -0.3346123 -0.19761729 -0.17011912 0.09259379 0.23103648 -0.062596515 -0.44587454 -0.07424914 -0.37902835 -0.43176162
소재 -0.17469986 -0.14520918 0.13036686 -0.4723537 -0.31150118 0.06433287 -0.405977 -0.41975862 -0.16936737 -0.28013793 0.11352055 -0.0560325 0.10711019 -0.08819873 0.0919125 0.065079205
속 0.0077909366 -0.026574498 0.06272401 -0.0041882163 -0.43081453 0.09300227 0.04611937 0.10533164 -0.16973753 -0.11638872 -0.5032486 -0.06718722 -0.09789022 -0.13903038 -0.4771786 -0.4378055
공포 -0.112341695 -0.39103615 -0.00022684477 -0.41274428 -0.20844236 -0.016437514 -0.33563069 0.090515 -0.16511768 -0.31809887 -0.45250165 -0.052997395 0.1401851 -0.3870935 -0.35247806 -0.41535464
아서 0.020116977 -0.32410952 -0.42462692 -0.36586446 -0.09221518 -0.024156226 -0.06824339 -0.3416172 -0.1817608 -0.1755987 -0.257911 -0.029114414 -0.44962752 -0.30025885 -0.34338367 -0.24694307
다른 -0.11463719 -0.24420454 -0.2524705 0.034364644 -0.024402212 0.041613225 -0.34480247 -0.12482409 -0.17348233 -0.34533447 -0.29051316 -0.08413521 -0.31922483 0.0014178219 -0.057105117 -0.31573698
씨 -0.038107775 -0.03865065 -0.02450064 -0.08077486 -0.2369416 -0.2087212 -0.023051372 -0.40855083 -0.17317407 -0.34324953 -0.12960234 -0.037792455 -0.19068038 -0.18945403 0.03736713 0.019092299
인생 -0.36250386 0.16359732 -0.3152412 0.06184462 0.18408886 -0.042783454 -0.31135765 -0.02181719 0.1634805 -0.038501736 0.024991734 -0.054856434 0.005245623 -0.41299504 0.16027112 -0.2927423
~~ -0.5451524 0.037770752 -0.39053276 -0.23138657 -0.16627622 -0.4776057 -0.41137588 -0.1562578 -0.1791531 -0.024815902 -0.044779394 -0.07149043 -0.3142672 -0.28447843 -0.14044456 -0.012217485
짜증 -0.06540794 -0.32652962 -0.24164096 -0.38190535 0.096040994 -0.19364156 0.18632895 -0.061906174 -0.19190125 0.010344147 -0.43053442 0.25884217 -0.321362 -0.33750546 -0.3569919 0.26241785
짱 -0.54104054 -0.086081535 0.04783957 -0.21283528 0.038716316 -0.5574975 -0.002862274 0.024956552 -0.17256445 -0.25911614 0.26926583 -0.08206203 -0.60283214 -0.4990687 0.08082727 0.14030243
뿐 0.025742069 -0.12448283 0.047294755 -0.32937542 -0.3265368 -0.25420007 0.06468382 -0.39798853 -0.16921207 -0.27598932 -0.40713865 0.109701075 0.09485474 -0.28614882 -0.010833781 -0.34761694
은데 -0.09184521 -0.12183949 -0.28747582 -0.36509386 -0.2752647 -0.4086268 -0.15274936 -0.41310152 -0.18241622 -0.26929483 -0.2648284 -0.041632358 -0.49347356 0.017927747 0.12323269 -0.4372038
별 0.02153716 -0.050790973 -0.43416154 -0.28698507 -0.23072504 -0.17155373 -0.330221 -0.39285347 -0.16466117 -0.18968248 -0.27580553 -0.021888971 -0.05186599 -0.3645299 -0.36780223 0.121960804
아요 -0.5926452 -0.4919718 -0.06270947 -0.077475235 -0.039769612 -0.031580254 -0.5269285 -0.20416981 -0.17336378 -0.40839496 -0.15042469 -0.058335386 -0.17429516 0.053009912 0.013169244 -0.30493695
유치 0.0638585 -0.3130206 0.1812321 -0.40292585 -0.22577496 0.06031995 0.06342315 -0.37202695 -0.16146624 -0.34215292 -0.2893866 -0.06681377 -0.08523146 -0.41036907 0.040929716 0.09038522
가장 -0.001518136 0.010775531 -0.2830566 -0.35801178 -0.39197806 -0.38063082 -0.3488636 -0.1756901 -0.16611862 -0.3237728 -0.12398289 0.017628552 -0.49943274 -0.48710632 -0.069713034 -0.4200435
필요 0.05501389 -0.3248625 0.07859074 -0.39954597 0.131486 0.22843963 0.10754053 -0.41705295 -0.19121872 -0.29407972 0.04334653 -0.04412346 -0.34059203 0.22448747 0.07653699 -0.38711628
음악 -0.34702381 0.0575337 -0.45645958 -0.29391405 -0.35750866 -0.019495938 -0.33527753 0.08666666 -0.16657439 -0.36050835 -0.3583501 -0.026961077 0.025165752 -0.17910206 0.028561732 -0.3849524
) -0.30023187 0.086362205 -0.29390594 -0.025799593 -0.45593145 -0.33184037 -0.33139756 -0.14106712 -0.1853769 -0.29925025 -0.14811645 -0.07979797 -0.33324304 -0.12149125 -0.122922435 -0.1868518
일본 -0.18300714 -0.36636987 -0.018525958 -0.37591264 -0.21261536 -0.21990475 -0.29155743 -0.3432175 -0.16359358 -0.046808578 -0.29777074 -0.04342226 -0.5091211 -0.22530152 -0.28641692 0.12074476
낮 0.16954823 0.29297373 -0.11755852 -0.17058656 0.152908 -0.21594663 0.053341027 0.1324531 -0.17363676 0.19195485 -0.19966511 -0.06717084 -0.47729436 0.09350592 0.11160906 -0.08988761
아이 -0.10573601 -0.07914656 -0.39074138 -0.4664584 -0.27086493 -0.5248457 -0.1594569 0.084463164 -0.172958 0.006870881 -0.4706385 -0.038693525 -0.19015633 -0.47815156 -0.3642756 -0.2715449
;; 0.008843363 -0.024264153 -0.066816345 -0.072985746 -0.23241766 -0.41693583 0.11363843 -0.42699566 -0.17112397 0.080165245 -0.09483922 -0.025685955 -0.44510075 -0.47368485 -0.12722075 -0.37985536
오 -0.069466144 -0.18201037 -0.23383233 -0.069036305 -0.13169394 0.024890019 -0.21932168 -0.62445956 -0.16747054 -0.13166064 -0.08587448 0.2203514 0.0067503173 -0.5187003 0.15055645 -0.4329971
반전 -0.3610969 0.019076863 -0.19879645 -0.252609 -0.33240995 -0.43578076 -0.5763832 -0.41415992 -0.1752378 0.0123026315 0.005859617 0.009468377 -0.42180133 -0.07135679 -0.381715 -0.38311303
수준 -0.3493363 0.16948661 -0.3753267 -0.3560999 0.14594568 -0.09122666 0.13698576 -0.2603371 -0.16228591 -0.08778291 -0.26518786 -0.07487219 0.05294884 -0.31425634 -0.30297762 0.19897833
다니 -0.36130968 -0.3897476 0.008425181 -0.11952258 -0.026202524 -0.45965993 -0.15496743 -0.027978726 -0.17186536 -0.011825466 -0.4286517 0.0011264794 -0.122967005 -0.2829955 0.09340058 0.007806261
웃 -0.18253009 -0.43332314 0.007193931 0.028009323 -0.1890108 0.12839499 -0.19374515 -0.29968968 -0.17142181 -0.41519827 -0.48185197 0.00117594 -0.05011516 0.14641362 -0.5026218 -0.4382549
매력 -0.5461686 0.14158252 -0.008540618 0.084116474 -0.5041723 -0.43018356 -0.037837304 -0.56653035 -0.1788897 -0.38765422 -0.50905335 -0.056525324 -0.5956007 -0.24085468 -0.2578716 -0.45136282
맞 -0.23148985 -0.31252617 0.06653223 -0.3881205 -0.37307477 -0.26510453 0.009266697 -0.11375386 -0.1819562 0.02791724 -0.35304174 0.0056103203 0.08600054 -0.38735124 -0.07874931 -0.393713
인지 -0.20240298 -0.36332396 -0.23746948 -0.27271467 -0.26371282 -0.1894845 0.06790488 -0.37769976 -0.16263813 -0.32663238 -0.3664406 -0.06489986 0.021325488 -0.27934855 -0.2540368 -0.04755016
가슴 0.09289829 0.004163819 -0.33162117 0.1625417 -0.1076912 -0.5271204 -0.033947084 -0.35579035 -0.19373575 -0.026749535 0.11233747 -0.04213985 -0.47123328 -0.3145997 0.03120708 -0.0014064849
없이 -0.36973476 -0.06042889 -0.3573204 -0.26145658 -0.34288883 0.050421745 -0.0392006 -0.17669527 -0.17195164 -0.20038426 -0.30480227 -0.07459478 -0.013763012 -0.3086984 0.064174615 0.020261228
원작 0.11588177 0.048482127 0.014085893 -0.06266036 -0.21378583 -0.34648252 0.12406244 -0.14848861 -0.17392278 0.05917384 0.10094531 -0.07048579 -0.09863012 0.12667121 -0.40892974 0.1873491
ㄷ 0.14687467 0.19127405 -0.17438057 -0.17652592 -0.0102206245 -0.0839083 -0.5787149 0.12123492 -0.16607341 0.045974463 -0.68717325 -0.056779638 -0.12461704 0.09675195 -0.55460453 0.086626835
인간 -0.33877224 0.12632571 -0.3323294 0.11434519 0.13160096 -0.25320706 0.016156556 -0.3718467 -0.16655518 -0.29156715 -0.12650149 -0.06261047 -0.4119871 -0.29690865 0.06514105 -0.3006682
데 -0.3643646 -0.23799695 -0.16630796 -0.03407368 -0.20018671 -0.4299309 -0.08841606 -0.27713093 -0.16736786 -0.060148906 -0.26650655 0.030126799 -0.34552425 -0.030966012 -0.31634843 -0.39290673
굿 -0.61151785 -0.19195463 -0.5850397 -0.47579238 -0.0977592 0.0508236 -0.58982813 -0.46664992 -0.1664594 0.0024470042 0.27741086 -0.03762014 0.10692276 0.19623849 0.1012544 0.13793783
ㅠ -0.3591524 0.112989314 -0.11618524 -0.0156072695 -0.29803252 -0.3998319 -0.35419992 -0.12791039 0.1719242 -0.04411623 -0.23075424 -0.07336567 -0.47334224 -0.0591576 -0.026558463 -0.30103737
높 -0.1973646 -0.29281515 -0.40099883 -0.29703194 -0.3273408 -0.3172439 0.15150225 -0.40306795 -0.17392488 -0.3087027 -0.30720723 -0.059236918 0.025699927 -0.29776677 -0.4207485 0.1352007
밋 -0.4478779 0.21857946 0.032769967 -0.38636422 -0.28009084 -0.52681273 -0.42255062 -0.09358148 -0.18191957 -0.0918795 0.091706425 -0.07389927 -0.5222595 0.02695165 0.07836107 -0.3093554
( -0.3026068 0.16927814 0.11758548 -0.36245137 -0.44486365 0.1007623 -0.35254106 -0.3644209 -0.17416498 0.036200613 0.085089006 -0.060593 -0.34110853 -0.2734838 -0.2525814 0.13335511
만드 -0.16680436 -0.39283302 -0.3395352 -0.15480669 -0.3305501 -0.25775677 -0.35302612 -0.31835708 -0.191155 -0.2236872 -0.110976115 -0.080445044 -0.40728053 -0.2969046 -0.22633314 -0.031651735
급 -0.3168843 0.0042496775 -0.29634053 -0.016771385 0.031372506 -0.23878354 -0.4604185 -0.33047235 -0.1646956 -0.25937858 -0.16410002 -0.04524938 -0.1203166 -0.018792707 -0.37295213 -0.38283202
눈물 -0.36567843 0.20427972 -0.2959706 0.17668973 -0.2933641 -0.43953773 -0.3400231 -0.14961477 -0.17410517 -0.35429597 -0.13388166 -0.074890375 -0.46277747 -0.40695944 -0.16809851 -0.30906036
보여 -0.31757426 -0.1961527 0.0036702333 -0.011126887 -0.16553396 -0.2049389 -0.10548104 -0.2969431 -0.17851783 -0.21716538 -0.2960912 -0.055334996 -0.36143333 -0.025355745 -0.2830095 -0.23935506
준 -0.33854353 -0.4016671 0.11172235 0.1706844 -0.27401915 -0.25786567 -0.32981104 -0.18841451 -0.16331878 -0.3167665 0.05921959 -0.07237342 -0.31841648 0.028505482 -0.18675801 -0.2505691
찍 0.14683975 0.013824985 0.009708757 0.050209876 -0.1645502 -0.36800787 0.1980161 -0.32959795 -0.1683995 -0.29497847 -0.04551025 0.021312382 -0.16148362 -0.024916474 0.16415642 0.09142265
인가 -0.27945632 -0.304252 0.105735965 -0.16808102 0.028655937 -0.3636421 -0.33882707 -0.2032995 -0.17531489 -0.31482908 -0.0016533927 -0.069289275 -0.067971066 -0.15303227 0.014626291 -0.023129659
노 -0.33597943 0.30183557 0.12277184 0.14502302 0.22207893 0.106422186 -0.0036243284 0.11621344 -0.16662326 -0.062495492 -0.06537759 -0.042917978 0.14933583 -0.007816709 0.062050078 0.3528328
을까 -0.2991766 -0.3432892 -0.19509636 -0.2951576 0.06978619 0.01493085 -0.10786807 0.056214318 -0.17774306 -0.04418805 -0.3243273 -0.03405253 -0.105860256 -0.2781295 -0.24978617 0.02810068
용 0.02985627 -0.3126932 -0.353334 -0.11897497 -0.4926312 -0.29001638 0.18233195 0.12582445 -0.16511211 -0.031702623 -0.2704459 -0.06360095 -0.31464374 -0.2961947 -0.29689997 0.063381776
코미디 -0.107468404 -0.033539444 -0.3768372 0.094050325 -0.16378231 0.03516959 0.17448649 -0.42674965 -0.17806444 -0.2263072 -0.05541351 -0.05189919 -0.060658764 -0.27692506 -0.31475362 -0.11897775
마 -0.055972554 -0.008715589 0.011665789 -0.46277103 0.18932422 -0.32649684 -0.34949142 -0.44199395 -0.17253204 -0.38455597 -0.046861846 -0.06782468 -0.28897908 -0.19042204 -0.34333208 -0.12001337
화 -0.1937689 -0.3249476 -0.108543284 -0.28371194 -0.25365904 -0.22876613 0.0028542292 0.05479532 -0.17831163 0.06292286 -0.27559564 -0.020573163 0.0076317955 -0.3590475 -0.33901623 -0.30203506
신 -0.3283683 0.04394358 -0.28116637 -0.41917723 -0.1984857 -0.08064809 -0.083361804 0.09893862 -0.16827445 -0.31518677 -0.13992101 -0.028891752 -0.26791888 -0.083205454 -0.2946875 -0.32434994
모든 -0.30867505 0.09069338 -0.2940513 -0.016295098 -0.34974468 -0.27067354 -0.14397998 -0.26719508 -0.16736862 0.010931583 -0.2517772 -0.072916776 -0.43683136 -0.13642144 -0.112001225 -0.30590156
쓰 -0.1067864 -0.3041747 -0.03643468 -0.31068695 0.090732425 -0.032882433 0.15764402 -0.40269905 -0.18137343 -0.29136604 0.020380586 -0.057362776 -0.32019132 -0.48393124 -0.39486265 -0.30670044
여 -0.05257377 -0.3031393 -0.37951028 -0.039536305 -0.3168806 -0.42662618 -0.11962782 -0.45529956 -0.16255432 -0.33680972 -0.41511676 -0.004175447 -0.46378514 -0.060282074 -0.30637604 0.030205013
5 -0.21944396 -0.05252021 -0.27533585 0.110635675 -0.39615726 -0.38720462 -0.06356872 -0.273609 -0.17152452 -0.27251744 0.08861037 -0.053523973 -0.025311433 0.025251295 -0.47651777 0.1655153
아직 -0.19535415 -0.38592052 0.109578036 -0.3413154 -0.13238946 -0.34902596 0.11545828 0.17209987 -0.188885 -0.3254799 0.111690395 -0.05328084 -0.19210336 -0.07408381 -0.07259541 -0.41189185
추천 -0.3809753 -0.11723219 -0.4600621 -0.2727306 -0.412452 -0.5215252 -0.4751019 -0.057187237 -0.16802646 -0.20120509 0.14831358 -0.068159655 -0.42590758 0.022902625 0.010466454 0.15328616
처럼 -0.25119758 -0.094263524 -0.020876002 -0.28814876 -0.19118276 -0.24425639 0.03219473 0.13242272 -0.18024896 -0.106634706 -0.25891986 -0.07077776 -0.20941398 -0.27326703 -0.25605872 -0.43799034
눈 -0.24893299 0.20447569 0.091683686 -0.0581644 -0.0012294252 0.003180134 0.20613897 -0.41044274 -0.17082143 -0.26942143 -0.43689576 -0.0790393 -0.065046914 -0.31531504 0.02351123 -0.30719352
아닌 -0.34593207 -0.37363333 -0.21067241 -0.34211484 -0.33738002 -0.045505915 -0.024122486 -0.24173366 -0.18030299 -0.16509883 -0.2580471 -0.024566697 -0.015984792 -0.28811234 -0.37004966 0.101468615
자체 -0.3279128 0.013706617 -0.24435514 -0.40607762 -0.48271912 -0.21559334 0.046896763 -0.15829386 -0.16570684 -0.322084 -0.47079384 -0.04546527 -0.020238379 -0.13378033 -0.35367846 -0.39478642
울 0.018221961 -0.3337501 -0.019131402 0.24480836 -0.014641571 -0.29336035 -0.04733695 0.07864033 -0.16766897 -0.3196043 0.10550412 0.022305015 0.16156588 -0.08456028 0.10578001 0.07582137
몰입 -0.34671524 -0.32021457 -0.29592845 0.01411885 -0.2565331 -0.4061477 -0.23200966 -0.03025837 -0.17931637 -0.29326597 -0.11881247 -0.0265535 -0.22068763 -0.029716566 0.16021895 -0.19624676
4 -0.41266102 -0.31071985 -0.0895896 -0.4108691 0.18079866 -0.03372298 -0.1993942 0.06631446 -0.18327716 0.09862814 0.13741753 -0.07401882 0.039486744 -0.4034797 -0.43683976 -0.2907522
대박 -0.20717219 -0.034285728 -0.15902066 0.09108921 -0.01802378 0.058729406 -0.5930078 0.06406935 -0.1625693 -0.06747749 0.2345016 -0.03271071 -0.060133733 -0.09812921 -0.51482826 0.08458865
몇 -0.30599532 -0.24306028 -0.23346521 -0.25516078 -0.27687517 -0.38822407 -0.15200117 -0.40883583 -0.18323109 -0.3314776 -0.2703727 -0.032837518 -0.34831047 -0.20248167 0.17509976 -0.04051578
스럽 -0.3905929 -0.35949177 -0.18852454 -0.31647843 -0.3921638 -0.15183237 -0.3455498 -0.25378567 -0.18050903 -0.021273656 -0.29878166 -0.028287554 -0.39302358 -0.309826 -0.33143604 -0.34156412
실망 0.10892505 -0.3952925 0.04549111 -0.27556515 0.32924774 0.12860131 0.0011718788 -0.309924 -0.19359761 -0.303492 -0.31608516 -0.06512674 -0.2731433 -0.31972572 -0.28543898 -0.03170595
는다 -0.3478472 -0.19719803 -0.33862513 -0.30153912 -0.04353406 0.08255419 -0.3456019 -0.42261043 -0.1676061 -0.0048569622 -0.3809674 -0.037881497 -0.4711536 -0.05283442 -0.25372326 -0.108230375
대한 -0.29948828 -0.30675468 -0.31513107 -0.25439838 -0.36239475 -0.24244678 -0.33234602 -0.21113217 -0.17647175 -0.24612005 0.06582931 -0.052400764 -0.19732898 0.010720264 -0.11343116 -0.37191445
죠 -0.10404557 0.14081764 -0.3784112 -0.37188864 0.14684343 -0.4184272 0.071066916 -0.40387395 -0.16650213 -0.019570667 -0.003800434 -0.04460203 -0.5595644 -0.17348583 0.118685275 -0.1342707
란 -0.24788246 0.029263964 -0.38653493 -0.059063874 -0.3022514 -0.24600573 -0.3344841 0.080858834 -0.18150759 -0.010788157 -0.33071074 0.0014631636 -0.31332618 0.053540535 -0.05620557 -0.052651364
그런 -0.1944085 -0.35141715 0.01967153 -0.2932734 0.07157204 -0.1325077 -0.33000848 -0.4207347 -0.18669745 -0.32919294 -0.3298861 0.0034527406 -0.10282574 -0.12744428 -0.30182865 -0.20816723
솔직히 -0.38669175 -0.42674163 -0.22296478 -0.32232103 -0.20424291 -0.031726863 0.08627637 -0.33991382 -0.16394371 -0.28870583 -0.06416925 -0.025499448 0.02787565 -0.35079017 -0.4907883 -0.2316951
캐릭터 -0.32258248 -0.33262214 -0.28518686 -0.25283107 -0.20560715 -0.30924436 -0.1749924 -0.30663192 -0.16931611 -0.0126983235 -0.19644228 0.023246367 -0.2262599 -0.3071888 -0.4073599 -0.41742176
ㅎ -0.60545015 0.23860174 -0.16222194 -0.3697154 -0.17526641 -0.036652327 -0.5872963 -0.38415742 -0.1709276 -0.11968933 -0.23977445 -0.051519047 -0.26389405 -0.4617675 -0.32689565 -0.44500637
모두 -0.3646604 -0.07201158 -0.34905377 -0.18565753 -0.2613563 -0.20014967 -0.33681476 -0.21188928 0.2554133 -0.3189591 -0.32353827 -0.024354411 -0.42424852 0.07703358 -0.077781774 -0.2921909
아주 -0.33747327 0.10577459 -0.33796728 0.059153922 -0.30805808 -0.5173225 0.07024689 -0.10539009 -0.18445615 -0.36506823 -0.31319678 -0.046726923 -0.5494068 -0.3313124 -0.34690243 -0.06882573
- -0.5571318 -0.21710251 0.055093247 -0.021735355 -0.17324284 -0.5080849 -0.17681338 0.060669508 -0.1598096 0.03564627 -0.008212221 0.2720707 0.053353827 -0.28401476 -0.063071944 -0.005952621
가족 -0.08659923 -0.118453175 -0.3467082 0.15699947 -0.31085148 -0.32997736 -0.34922305 -0.04638096 -0.17125773 -0.3329723 -0.45035943 -0.030354071 -0.38645267 0.020355608 -0.42120692 -0.29369992
여운 -0.31778502 0.076046735 -0.26977387 0.20990975 -0.2924336 -0.28009102 -0.25750956 0.20269127 -0.042972293 -0.27600977 -0.07432756 -0.07802861 -0.3369162 0.11218625 -0.031821907 -0.19023521
건지 0.042895447 -0.35544646 -0.07395544 -0.33553153 0.10560949 -0.29528305 0.021899782 -0.3006643 -0.18704784 0.16839539 -0.34526056 -0.010364044 -0.14252543 -0.31436935 -0.18206032 -0.2242996
전혀 0.1893941 -0.012560282 -0.2548323 0.13685897 0.13312946 -0.21583517 0.15509135 0.05335986 -0.16927402 -0.32749772 -0.03161706 -0.069959044 0.0225804 0.0948522 0.11764146 -0.10620968
연기력 -0.05417085 -0.39627013 -0.23268668 -0.36137593 -0.021264616 -0.16209239 -0.33711174 0.10662982 -0.16585678 0.07266303 -0.16953562 0.1968693 -0.122150995 -0.1010539 -0.53755265 -0.3755491
나라 -0.35709757 -0.04795076 -0.0063789645 0.13065527 -0.48871252 -0.5099277 0.17194638 0.059102245 -0.18731603 -0.31209344 -0.29849744 -0.07971239 0.09033132 -0.07960352 -0.36569485 -0.015864585
후 0.04079589 -0.20842145 0.014856429 -0.1673019 0.054568 0.01493488 -0.5886007 -0.30183718 0.15792418 -0.58384407 -0.24362695 -0.0655243 -0.561207 -0.19001636 -0.2476559 -0.45471802
될 -0.015610575 -0.38242367 -0.09482845 -0.37950796 -0.2016431 -0.3881724 0.06360194 -0.33971983 -0.16826291 -0.19940145 -0.0497356 -0.05609768 0.117599905 -0.16396715 -0.38233525 -0.36360765
다면 0.07838719 -0.29970688 -0.15944573 -0.23525368 0.024981376 -0.23873423 0.08871957 -0.2643233 0.22384182 0.034883354 -0.2544665 -0.032649294 0.04725245 -0.21990697 0.14593111 -0.19491874
뭔가 -0.27081922 0.004315949 -0.2806207 0.03776912 -0.35532272 -0.39862207 -0.34577477 -0.41928813 -0.18028949 -0.3176839 -0.035793997 -0.017815983 0.055017013 -0.25499982 -0.5414481 -0.40135255
그래도 -0.10385943 0.16901655 -0.15457849 -0.3690673 -0.18675233 0.0358148 0.14350456 0.028210921 -0.16689467 -0.09429875 -0.022201514 -0.043281607 -0.30510372 0.016709853 -0.33539292 -0.36825523
; 0.14244021 -0.047583424 -0.21128744 -0.1134421 -0.15476935 -0.54031134 0.080156624 -0.18590543 -0.16966392 -0.56386703 -0.20682587 -0.04828718 0.07187259 -0.17011312 -0.26934847 -0.4451438
시리즈 -0.19577566 -0.071633324 -0.1327697 -0.47762004 -0.23357622 -0.26407212 -0.17762396 -0.3100052 -0.18682621 -0.2969805 -0.49419886 -0.08444164 -0.224484 -0.48748016 0.059493236 -0.30953678
근데 0.031385846 0.15136646 -0.12932466 -0.26009533 0.042791504 -0.29140404 -0.3415256 0.12080163 -0.17163928 0.15356693 -0.0913403 -0.060907662 -0.009517525 -0.32050693 0.083521545 -0.35642764
작 -0.31278536 0.108006224 -0.32415783 -0.38827372 0.1080364 -0.19856538 -0.1654199 -0.42878038 -0.1741857 -0.27221134 -0.30614746 -0.037589073 -0.34146628 -0.3151885 -0.26555312 0.010013853
표현 -0.26757187 -0.22141925 -0.1395404 -0.2978024 -0.25862417 -0.33691314 -0.2835415 0.1773667 -0.17271273 -0.16810042 0.085515335 -0.05612313 -0.27258018 -0.060410034 -0.05344653 -0.27245963
모습 -0.21650624 -0.31732842 -0.28912684 -0.062096395 -0.07896258 -0.23378885 -0.27797544 -0.24853085 0.30684268 0.055878665 -0.26142412 -0.0049721217 0.043258023 0.05563648 0.014709841 -0.118161865
공감 -0.32146925 0.02118154 -0.2898387 0.004850692 -0.35558245 -0.23932603 -0.30134222 -0.051265404 -0.1722527 -0.33836925 -0.05527198 -0.053816818 -0.37665412 -0.09661849 -0.015686352 0.060334325
계속 -0.21601184 -0.17115012 -0.27414167 0.14385031 -0.21815027 -0.25065514 -0.33402595 0.11206337 -0.1665344 -0.2592197 0.026194094 -0.056008797 -0.3142236 -0.30980924 0.003646434 -0.2403061
먹 -0.30179915 -0.005360601 -0.1638029 -0.25411373 -0.16291651 -0.28949228 -0.3662749 -0.28593946 -0.16583513 0.032704134 -0.31505877 0.018113386 0.111540906 -0.31889477 -0.30057216 -0.07753106
"" -0.26524088 -0.1701715 -0.19829808 -0.22368695 -0.17534187 -0.26541346 -0.24471644 -0.066808395 -0.16419294 -0.23023047 -0.20160511 -0.054524995 -0.33680496 -0.094597384 -0.20084766 -0.2402052
제목 -0.1435298 -0.1857233 -0.1151624 -0.17577615 -0.12842716 -0.0023185327 -0.20565107 -0.43299097 -0.16763043 0.012864059 -0.18942593 0.033993814 -0.50202894 -0.06122184 -0.05219925 0.020692918
7 -0.337957 0.008482415 -0.21116446 -0.5336268 0.011437652 -0.24267711 -0.0027800822 -0.2749004 -0.16498427 -0.031266753 0.08036606 -0.07045139 -0.18289195 0.022249848 0.13906318 -0.056683946
이랑 0.082325056 -0.30461818 -0.2935279 -0.119194455 -0.34973794 -0.2792106 -0.27984428 -0.18344067 -0.17670697 -0.23036307 -0.24409308 -0.053305518 -0.31422955 -0.27812064 -0.25910208 -0.19023237
극장 -0.35072565 0.12567121 0.01975428 -0.007665079 0.028197754 -0.13748449 0.11593923 -0.37986514 -0.1797668 0.12336999 -0.29138562 -0.038081754 -0.14159423 0.021217715 -0.07719124 0.093161926
치 -0.018445835 0.026146354 0.065424435 -0.35569373 -0.025179109 0.11734553 -0.11841039 -0.37377757 -0.17694002 -0.028068952 -0.2708509 -0.062271263 -0.11650876 -0.31333572 0.03795805 0.056106348
비 -0.18473904 -0.17020783 -0.035958085 -0.122649945 -0.138376 -0.38964707 -0.19306839 -0.03913816 -0.17042033 0.14413159 0.027477628 -0.06595223 -0.42494202 -0.06871573 0.00931199 0.13502212
이걸 -0.33113286 0.14925551 -0.31055027 -0.31316963 -0.17093018 -0.4015767 0.1512021 -0.3283752 -0.17314605 -0.009281535 -0.35271895 -0.027603881 -0.1233743 -0.31006774 -0.3574371 0.18545121
진 -0.0025560805 0.066336274 -0.21778007 -0.003938609 -0.13887584 -0.22020596 -0.20193069 0.05487761 -0.17219548 0.08175086 0.13256782 0.082547806 0.17387228 -0.6470385 -0.16357127 -0.11413637
바 -0.19063668 -0.21786752 -0.29936218 -0.32345486 -0.30228212 0.089530304 0.1298332 -0.40423003 -0.17153043 -0.33213603 0.057213716 0.21827719 0.13098809 -0.16782732 -0.12704815 0.13205637
대사 -0.056658227 -0.2594932 -0.31982723 -0.3583429 -0.04793626 -0.2214144 -0.23453613 0.028381718 -0.18063264 -0.2835756 -0.05769067 0.009972263 -0.0070210933 -0.07522986 -0.26174462 0.0803155
부분 -0.223856 -0.16520214 -0.22563842 -0.047110308 -0.23530847 -0.22481534 0.04584322 -0.3889911 -0.17900097 0.056926887 -0.078265354 -0.059803274 -0.08181928 -0.3076478 -0.15980631 -0.15171847
그렇 -0.33928755 -0.32686305 0.10013975 -0.29606938 -0.28836858 -0.1862952 -0.30681747 -0.3465028 -0.17717941 0.011719391 -0.33420503 -0.047769185 -0.11442725 -0.41138682 -0.37951925 0.08976278
개봉 -0.23183686 -0.34225553 -0.20302527 0.019127501 -0.20458305 0.1300784 -0.19447917 -0.18311395 -0.17510846 0.023497965 -0.45175168 -0.047290586 0.028850108 -0.06300935 -0.12727736 -0.41487685
0 -0.31155717 -0.33821246 0.11106705 -0.2854839 -0.24555394 -0.16809341 0.12040934 -0.1971295 -0.18719195 0.042622883 -0.19263546 0.013547484 0.07141928 -0.3120364 -0.2500638 -0.14097327
OO 0.04821623 -0.05708315 -0.2542091 -0.4568544 -0.14121407 0.072837204 0.17523807 -0.41995636 -0.17813043 -0.13074812 -0.40075973 -0.0674751 -0.2758945 0.12336929 -0.3735935 -0.12558155
대단 0.038359873 -0.10933702 0.022326464 0.04627575 0.05713003 -0.1828816 -0.55449456 -0.32037255 -0.16712588 -0.05198787 -0.21843006 -0.044594526 -0.5832232 -0.05173539 0.24313623 -0.41849816
어디 0.16239293 -0.047161046 -0.22555558 -0.06957044 0.0010852643 0.12708434 -0.011716407 -0.42657262 -0.17695649 -0.3782676 -0.37015566 0.015602123 -0.44182345 0.11394806 -0.39729926 -0.43244922
작가 -0.023378152 -0.2648523 -0.079263344 -0.36876795 -0.23725224 -0.20474537 0.05940473 -0.20395958 -0.16771588 -0.32695484 -0.22575761 0.37796256 -0.3343643 -0.30307892 -0.25975096 0.19658549
된다 -0.25817588 -0.32335788 -0.28560156 -0.33262345 -0.28620818 -0.25888503 -0.33208135 -0.4207465 -0.17208934 -0.018628996 -0.45087472 -0.067759395 -0.33623222 -0.3659071 -0.37042686 -0.20211717
아쉽 -0.4085475 -0.33028662 -0.27629966 0.14320041 0.056898564 -0.1400379 -0.09312143 0.10646835 0.2529016 0.14604953 -0.00843128 -0.046008494 -0.17454396 -0.49463803 -0.5391431 0.036294345
기분 -0.18951525 -0.32886365 -0.11873794 -0.27677056 -0.31401122 -0.06263355 -0.20933436 -0.14598973 -0.17215371 -0.23708472 -0.24775545 -0.015443312 -0.45028892 0.001347425 -0.08270021 0.1395253
제 -0.32726952 -0.082426466 -0.2948785 -0.27578592 -0.47986677 -0.26206228 -0.07703317 -0.19442858 -0.16996197 -0.3837753 -0.41509515 -0.023855567 -0.029646974 -0.21554299 -0.49664924 -0.4441679
진심 -0.059445355 -0.1500002 -0.18649907 -0.37955207 -0.16846654 -0.032859117 -0.0488394 -0.28842092 -0.1669716 -0.34658426 -0.34196723 -0.07348916 -0.59282804 -0.33206564 -0.20531353 -0.37418994
타임 -0.11415121 -0.313245 -0.018009903 0.08157537 -0.05508589 -0.07079027 -0.028410943 -0.52376944 0.2244453 -0.18875101 -0.089888796 -0.046451174 -0.120498456 -0.32533044 -0.26559198 -0.21369813
/ 0.17508991 -0.3923739 -0.17226537 -0.67688113 -0.3224159 -0.14641663 -0.4980614 0.10842983 -0.18626703 0.14881821 -0.6448055 -0.031683918 -0.2850251 -0.27724236 0.16431499 -0.36087975
웃기 -0.35050523 -0.42237258 -0.5097541 -0.042379912 -0.4698403 0.018743768 -0.39205337 -0.09286929 -0.17294082 -0.3385685 -0.18972543 -0.007334672 -0.40870395 -0.14999244 -0.50404924 -0.39505625
보이 -0.19910248 -0.14330238 0.02875962 -0.027188875 -0.2812516 -0.24438994 -0.06398178 -0.10018845 -0.17874677 -0.2907056 -0.21863584 -0.010037795 -0.04754876 -0.22204787 0.012132639 -0.15133956
놓 -0.2037952 -0.16995913 0.017116955 -0.26446748 -0.21904631 -0.2663486 -0.18784812 -0.1930512 0.15964785 -0.13624339 -0.05180394 -0.05638133 -0.1313335 0.13850604 -0.27446073 0.18166521
해도 0.081269436 -0.3259539 -0.14479676 -0.04885589 0.006796042 -0.3027252 -0.3239445 0.12110304 -0.16459683 0.09745189 -0.048177943 -0.05693023 -0.15544446 -0.05398249 -0.26232794 -0.21474865
이제 -0.3685656 -0.4046993 0.025882218 0.033853434 0.044491336 -0.2887152 0.19573869 -0.39379138 -0.16365287 0.08081439 0.09145455 -0.069362864 -0.104628846 0.08784576 -0.39642686 -0.105248585
물 -0.37568113 -0.36308783 0.08510339 -0.31114686 -0.16726239 0.075477235 0.022686258 -0.3636371 -0.1789259 -0.059920523 -0.30791673 0.004895579 -0.37846035 -0.33130226 -0.2298034 -0.3589563
봐야 -0.3711854 -0.34837833 0.080079675 0.07093543 -0.055023663 -0.45402008 0.12447611 0.08717352 0.22668752 -0.2978693 0.01736709 -0.08127712 -0.43084946 -0.24440366 0.17279872 -0.39915022
막장 0.11795221 0.0067067384 -0.07778817 0.057033524 0.23355684 0.15890072 0.16110078 0.11216658 -0.16519497 -0.57064813 -0.023613887 -0.059824597 -0.16719513 0.14325023 -0.11261791 0.18958206
삶 -0.326501 0.19856745 -0.14002289 0.05708719 -0.3603192 0.07859414 -0.32385796 -0.23077866 -0.18065712 -0.31858337 -0.0043874886 -0.06573444 -0.3507297 -0.09291023 -0.210022 -0.3790059
친구 0.15381843 0.032446425 -0.37675482 -0.106988974 -0.36194876 -0.29970324 -0.31224227 0.10482875 -0.16718061 -0.35803363 -0.27887124 -0.065666065 -0.32422525 -0.12354001 0.07304769 -0.21317539
잔잔 0.1595028 -0.0848334 0.048753425 0.05682361 -0.45322365 -0.2244798 -0.5868167 -0.46635577 -0.19248216 -0.34900177 -0.44826016 -0.03472922 -0.6104926 0.25509855 -0.41498518 0.17903449
조금 -0.20314266 0.076283865 0.06953138 0.22424574 -0.19297156 0.060987175 0.14952107 -0.34287292 -0.16395095 -0.31552684 -0.2962339 -0.04499644 -0.08403922 -0.3787441 -0.5116055 -0.31253007
씬 -0.25952 -0.0714599 -0.3275244 0.05950207 0.06474604 -0.35800081 -0.23899241 -0.4034308 0.15468962 0.04171258 0.017756075 0.35257053 -0.16080423 -0.34512773 -0.07637729 -0.24189003
딱 -0.3401401 -0.38385975 -0.3108326 0.07905457 -0.36536756 0.113153264 0.21770807 0.021154497 -0.16664778 -0.33706135 0.07484779 -0.0582875 0.029618593 -0.3140405 -0.40367162 0.06038263
영상 -0.3443926 -0.33013096 -0.51970416 -0.19863921 -0.32149598 -0.013337422 0.16478434 -0.12413325 -0.16486336 -0.3587886 -0.12564154 0.027920876 -0.4045947 -0.12397507 -0.08175316 -0.32418883
억지 -0.016914612 -0.30187514 0.04993133 -0.33641502 -0.04764416 0.2358025 0.030246997 -0.4047179 -0.17595957 -0.015970694 -0.24630672 -0.047400653 0.010218821 -0.40572432 -0.27539468 -0.18240431
찾 -0.080993734 -0.27777433 -0.2787408 -0.38356897 -0.032677665 -0.30731824 -0.3344822 -0.3388137 -0.16770174 -0.21435508 -0.08548255 -0.006184703 -0.28414768 -0.28222263 -0.35358614 -0.11639745
요즘 -0.2989383 -0.24082896 -0.23399587 0.23413558 -0.23811668 -0.39133993 -0.10819568 0.040430028 -0.18957824 0.023487745 -0.28415248 0.016734157 -0.04306189 0.0007365755 0.0041371374 -0.08017537
같이 -0.27951667 -0.19107892 -0.23476948 -0.3691011 -0.06872034 -0.3137276 -0.2837546 -0.24830984 -0.16939524 -0.33276823 -0.104920074 -0.052348994 -0.108155735 -0.324801 -0.094201475 -0.023117868
중간 -0.07093442 -0.10028533 -0.053965043 -0.25045854 0.12561291 0.0026220796 0.056588437 -0.2371794 -0.16856043 -0.1913624 -0.370238 -0.016126337 -0.15233964 -0.26349023 -0.39078045 -0.17626779
" -0.27745578 -0.18404254 -0.19574597 -0.2216429 -0.17918456 -0.2568428 -0.24498089 -0.23345356 -0.18176487 -0.2175532 -0.20222303 -0.06903768 -0.3295801 -0.054495264 -0.21083301 -0.23190266
구 -0.03314092 -0.3085726 -0.285837 0.009690238 -0.101627 -0.43538725 -0.07349109 -0.1025874 -0.18270409 -0.40063846 -0.27106702 -0.04922202 -0.13238636 -0.2907091 0.055872083 -0.4430899
라도 -0.1793532 -0.25834695 -0.3731366 -0.26001504 -0.20430513 -0.2624637 -0.28152543 -0.26606414 -0.16987193 -0.2822869 -0.28474796 -0.08696275 -0.34130397 -0.22579251 -0.18883552 0.12717369
스릴러 -0.4326699 -0.4007272 -0.12152799 -0.39953056 -0.2108997 -0.39038336 -0.51907355 -0.42175138 -0.17731388 -0.18231355 -0.46817172 0.069688246 -0.3408986 -0.31225333 -0.2907632 -0.21726947
가지 -0.1999799 -0.30442688 -0.13490774 -0.28122827 -0.039878443 -0.28098017 -0.2411542 0.15505055 -0.17668207 -0.16266812 -0.2373695 -0.07494227 0.039947756 -0.23652565 -0.19004235 -0.016012395
8 -0.20795196 0.092375405 -0.2901409 -0.101369604 -0.45140028 -0.21686164 -0.3421051 0.20819123 -0.17295451 -0.34501815 -0.11462147 -0.014135577 -0.3542162 -0.070795126 -0.40698108 -0.3982395
믿 -0.33516693 -0.044481527 -0.04362376 -0.052981302 -0.3105149 -0.34613606 -0.34838983 0.16970666 -0.17462389 -0.27151576 0.117587484 -0.060669206 -0.11097603 -0.3286553 -0.34782705 -0.3498918
싫 -0.32983014 -0.35672757 0.012153662 -0.33154216 -0.09156434 0.14198549 0.049348004 -0.39496544 -0.16633211 0.085880846 -0.36062917 -0.059122548 -0.058577202 -0.31016627 -0.42991984 0.05422187
.... 0.094393894 -0.016749498 -0.27183205 -0.38276452 -0.27113464 -0.2572315 0.090769336 0.035392817 -0.17120361 0.11981613 -0.473894 -0.06315831 -0.25784397 -0.43387017 -0.48974466 -0.05680706
나왔 0.023458498 0.08634742 -0.47801 -0.0024930658 -0.33862355 -0.07240103 -0.25764525 -0.041120213 -0.17009924 0.12447376 -0.30835548 -0.059774335 -0.01988845 -0.3387213 -0.33957553 0.06974756
아까운 -0.04594244 -0.28494564 -0.4102314 -0.37952897 -0.059806734 0.116911314 0.1786042 -0.3400062 -0.19244844 0.21046726 -0.33192328 0.01757468 -0.44085526 -0.30434144 -0.23931763 -0.31675273
긴장감 -0.18072136 0.06529056 -0.06690694 -0.11772398 0.05340866 -0.39210826 -0.3281122 -0.3801488 0.2373702 -0.29315546 -0.27990097 -0.030542416 -0.42288995 -0.43518478 -0.07709301 -0.29002827
점수 -0.13669342 0.0016525901 -0.1988065 -0.070167825 -0.009239577 -0.2492333 0.043624464 -0.37202457 -0.17247829 0.107580364 0.1916105 -0.04867342 -0.07911994 -0.19907191 -0.48924056 0.17191298
개인 -0.3460201 0.014076232 -0.15988763 -0.075769775 -0.14895898 -0.21704617 -0.3358585 -0.31821004 -0.17066875 -0.105602466 -0.21578172 0.0003779488 -0.4440491 -0.21063228 -0.103971235 -0.3352683
제대로 -0.021176422 0.07406808 -0.012739483 -0.28274736 -0.26036334 -0.4019939 0.059935886 -0.23912178 -0.19041705 -0.14633499 -0.014079272 -0.06817076 -0.38324863 -0.3022923 0.09536867 -0.0032368444
부족 -0.014664239 -0.3158343 -0.43532497 -0.37326717 0.076321684 0.1926857 -0.33847123 -0.42259383 -0.16869606 0.13129655 -0.28775415 -0.03040427 -0.3226127 -0.31947666 0.01163696 -0.007998559
이유 -0.04000333 0.024693524 -0.042478353 0.017400831 0.07440618 -0.36455962 0.1493037 -0.4882276 -0.1743411 0.016828228 0.062193304 -0.0019179955 -0.13363636 -0.0434174 0.016032232 0.05295854
노래 -0.1320537 -0.07577935 -0.1812263 -0.31507832 -0.016422508 0.0065604867 -0.18356487 0.04073889 -0.16434601 -0.12993193 -0.034472976 -0.02933817 0.073751695 -0.070269376 0.03613583 -0.04740434
만큼 -0.266547 -0.32350874 -0.30189493 -0.03486106 -0.49005073 -0.21985479 -0.24623376 -0.24440663 0.15553658 -0.3711008 -0.014320079 -0.04096081 -0.019409578 0.0124910865 -0.0147292605 -0.2713919
라면 -0.3206856 0.027669678 -0.2573334 -0.2043687 -0.31923762 -0.33420435 -0.15528262 0.045600817 -0.17163903 0.0138144875 -0.4320291 -0.07540305 -0.3594269 -0.01484779 -0.2639673 -0.1855379
시작 -0.3493592 -0.32068104 -0.28642341 -0.1870112 -0.42878163 -0.3913505 -0.335392 -0.24488772 -0.1638526 -0.3187251 0.07806768 -0.07765104 -0.32784215 -0.13725393 -0.07742187 -0.05768615
구나 0.15734768 -0.24306561 0.020577366 -0.08358075 -0.34717563 -0.5244182 -0.5292413 -0.22997698 -0.17043713 0.046912897 -0.065989055 -0.04193046 -0.010964159 -0.17619048 0.15999012 0.11837581
잇 -0.22900768 0.0656601 -0.0560897 -0.37170112 -0.049985226 -0.26171345 -0.04310094 -0.27155894 -0.17944513 -0.32368678 0.14956702 -0.039990544 0.107057914 -0.4830213 0.10258693 -0.38281783
특히 -0.2302347 0.20188476 -0.19338244 -0.18798518 -0.21077487 -0.23102467 -0.34219506 0.03536296 -0.18869333 -0.22954798 -0.15746164 0.15607607 -0.26337612 -0.066528924 -0.0071983607 -0.24766865
한테 -0.02248641 -0.34396288 -0.20507202 -0.1952136 0.042845942 -0.21712235 -0.31102258 -0.07867623 -0.16969846 -0.273362 -0.28625605 0.004215706 -0.2727647 -0.28288025 0.0043243724 -0.31263947
날 -0.29656065 -0.29937872 -0.027435003 -0.27954265 -0.3468956 0.10997471 -0.33420795 -0.3362288 -0.16501163 0.0028925438 -0.31107092 -0.026493622 -0.25674707 -0.18822521 0.09847609 -0.0071477294
려고 -0.015500964 -0.20955102 0.26814616 -0.037139077 -0.04568157 0.10783574 -0.024827136 0.14652163 -0.18817772 -0.09036748 -0.28765783 -0.030518724 -0.2677222 0.18166903 0.06252345 -0.00059696025
제일 -0.36125875 -0.34088796 -0.21863063 -0.09312958 -0.0035090316 -0.48848352 -0.3466111 0.09556954 -0.16719776 0.09496248 -0.30004948 -0.07280152 -0.41917667 -0.3869538 0.03973951 -0.3017621
아름다운 -0.3637437 -0.032095186 -0.5309612 -0.07827611 -0.42891845 -0.3390209 0.085064664 -0.29279757 0.20935853 -0.34432945 0.13036638 0.031155255 -0.426814 0.13864192 -0.27012882 -0.3001908
시대 0.19031508 0.11924095 -0.14649358 -0.23617454 -0.13982838 0.08864395 0.09654036 -0.16279542 -0.16439323 -0.47702944 -0.22548006 -0.030062448 -0.33975253 -0.16274562 0.1935975 -0.4154002
ㅜㅜ -0.4344161 -0.32578284 -0.5078536 0.1740355 -0.0602037 -0.42017418 -0.47581565 0.05141855 -0.17602956 0.17740113 -0.051053956 0.0070088394 -0.4804899 -0.3156169 -0.25107804 -0.09706392
어떻게 0.16071834 -0.3098296 -0.031631656 0.15117596 -0.3302935 -0.3505569 -0.32921237 -0.32355252 -0.16370949 -0.20292136 -0.32700825 -0.076476485 -0.08086375 -0.24935769 -0.29544708 0.0062258793
엔딩 -0.0497169 0.0106920935 0.046461567 -0.31858975 -0.29636666 0.13199186 -0.031798292 -0.3215507 -0.16985106 0.0019340641 -0.4902133 0.023060098 -0.12936702 0.09123025 0.12683447 -0.026244968
당시 -0.050542176 -0.30640152 0.12669921 -0.067469336 -0.4475005 -0.26303273 -0.33275712 0.17647709 -0.17922896 -0.047331497 0.03939445 -0.045945194 0.028740864 -0.23277047 -0.2534018 -0.02724409
하지만 0.11311151 -0.30364075 0.12457802 0.09612936 -0.05427648 -0.23707019 0.026296029 -0.34046867 -0.16632971 0.0160704 -0.2629267 -0.07140205 -0.24459396 0.05922659 0.10432607 -0.09301322
나름 -0.15823656 0.014105373 -0.25673392 0.10003888 -0.02609585 -0.105622314 0.096522346 -0.54976296 -0.18357429 -0.21185113 -0.084337175 0.029160608 0.05525167 -0.22028746 0.0986587 0.08870559
봐 -0.004037482 -0.036114037 -0.16957931 -0.18942618 -0.325733 -0.40855905 -0.055865522 0.05613653 -0.1635006 -0.36529988 0.037515614 0.43791065 -0.39086837 -0.08083379 -0.27807048 -0.12552929
무섭 -0.35972023 -0.24347836 -0.33063212 -0.3385643 0.06417718 -0.29225627 -0.34218943 -0.38997832 -0.16759984 -0.07496703 -0.1042588 -0.052241318 0.086775035 0.051839612 -0.059768733 0.015623909
나온 0.0055722147 -0.30767274 -0.23624709 -0.35511664 -0.08307783 -0.0019751994 -0.14347352 0.016699992 -0.17599328 -0.21916349 -0.30699277 -0.006562585 -0.22949639 -0.31447548 -0.30477005 -0.24193896
명 -0.35508618 -0.24185826 -0.2459589 -0.309267 -0.17934132 0.12609318 -0.19328965 0.06364201 -0.16343084 0.056133904 -0.02389799 0.011202841 -0.3210728 0.03105557 -0.30506933 -0.1941403
사 -0.09413838 -0.108128935 -0.25527018 -0.25479195 -0.31466842 0.00601851 -0.32516965 -0.03503844 -0.18037304 0.09177597 0.049872853 -0.0017055178 -0.31823167 0.0818832 -0.07835041 -0.31261933
니까 -0.12259178 -0.21066722 -0.30633354 -0.060420185 -0.06422905 -0.3825317 0.07668859 0.1452713 -0.1697604 -0.3787963 0.025934778 -0.00011802837 -0.37468255 -0.32123163 -0.1834337 0.052077863
오랜만 -0.3533491 0.16239034 -0.29210538 0.029689234 -0.40608218 -0.36290884 -0.39687037 -0.33383232 0.17142306 -0.34652635 -0.03037796 -0.023599304 -0.3480923 -0.27850044 -0.12856202 -0.09117656
이것 -0.3055342 -0.1103577 -0.5362092 -0.3931908 -0.47293472 -0.38695532 0.08324187 -0.4377454 -0.18095563 -0.14475472 -0.21264474 0.03861773 -0.31459895 -0.21293221 -0.03500867 0.01672305
해요 -0.34522215 0.10019145 -0.08399851 -0.08358033 -0.29132766 -0.36798668 0.012660926 0.022453621 -0.18054277 -0.3080824 -0.10439121 -0.007062316 -0.041004498 -0.29011595 -0.1312874 -0.29908365
9 -0.1701061 -0.38100755 -0.21863292 0.15956342 -0.3704746 -0.15289159 -0.34085837 0.025231518 -0.17140646 -0.35742316 0.050663933 -0.07659521 -0.3459836 -0.0739533 0.08906953 -0.38958228
팬 -0.3138101 0.01564499 0.114132024 -0.2574913 -0.45629868 -0.25994563 -0.31513688 -0.3262545 -0.1915357 -0.3000719 0.038401566 0.00021060556 -0.35789174 -0.057532772 0.034212306 -0.089945465
차라리 -0.082921095 -0.30272695 0.1797336 -0.30442542 0.1321854 0.13628726 -0.061515618 -0.31341186 -0.16254088 0.23668912 -0.20281568 -0.04079883 0.12996225 -0.26624337 0.17141345 0.06571285
절대 -0.33182094 -0.29927173 -0.28972438 -0.10889038 -0.4071502 0.19096482 -0.33867294 -0.2132761 -0.16454437 -0.08203007 -0.29245898 -0.047837127 -0.039225224 -0.12934513 0.06259704 -0.32660174
세상 -0.033655874 0.05273104 0.06722297 -0.070930675 0.03374224 -0.27691504 -0.33656174 -0.017593948 -0.18493259 -0.042998236 -0.09228394 0.20447527 0.013713644 -0.037519693 -0.24003763 -0.18402554
세 -0.31485963 0.09234673 -0.38038293 -0.28447285 -0.27302766 -0.3551099 0.04650925 -0.41615167 -0.16939496 0.11380241 -0.0442816 -0.024460424 -0.32817388 0.04240812 -0.058878377 0.0027598785
못하 -0.00080051855 -0.25375038 -0.22540988 -0.33690992 0.10005404 -0.3414851 0.054420024 0.17145306 -0.16513254 0.021229118 -0.26336002 -0.0048058406 -0.07683829 -0.26231 -0.33918244 0.17202887
의미 -0.35247415 -0.18281312 -0.29630503 -0.3726237 -0.1886611 -0.38117695 -0.4314537 -0.26350796 -0.17257643 0.03945753 -0.009726955 -0.08063539 0.056460157 0.0967632 -0.3544036 0.02124823
던데 -0.33416396 0.15181875 -0.27149063 -0.2586411 -0.31865388 -0.4434189 -0.4291409 -0.23397899 -0.17828944 -0.35829362 -0.11903042 -0.011550546 -0.047655407 -0.32395926 0.011662465 -0.3011107
봄 -0.006225252 -0.40681165 -0.17845362 -0.3792229 -0.21984759 0.013709152 -0.08689462 -0.4065432 -0.1617314 -0.30676407 -0.3161697 -0.02157772 -0.5996645 -0.3073237 -0.15527777 0.02848747
욕 0.011205357 -0.30802125 0.14497842 -0.29645476 -0.2804642 -0.15257256 -0.018675214 -0.32060075 -0.16292451 -0.05692584 -0.24758165 -0.07685479 0.075681396 -0.26994145 -0.27274352 -0.037522994
훌륭 -0.27623555 0.076368235 -0.32033214 -0.2020336 -0.39817876 -0.46288884 -0.40970573 0.2726798 -0.18674053 -0.3224755 -0.14991663 -0.015789501 -0.4103926 -0.269225 -0.10230017 -0.27486935
너무나 -0.3343493 -0.098377034 -0.3281033 -0.32142094 -0.28903234 -0.4252733 -0.3331568 0.11089687 -0.19405182 -0.2686703 -0.21926722 -0.05439317 -0.346008 -0.43765506 -0.40314057 -0.27200678
강추 -0.35012436 0.0685053 -0.35758144 -0.32228187 -0.32153487 -0.385379 -0.3528849 -0.08588547 0.16456789 0.12462259 -0.042191226 -0.03076438 0.14144683 0.20484021 0.16282575 -0.2510918
감 -0.025297696 -0.065340735 -0.34602928 -0.20003924 -0.13130194 -0.13255802 -0.33298686 -0.08529723 -0.18877679 -0.1071093 -0.2791022 -0.061569557 -0.24176827 0.0065976772 -0.26836002 0.1249782
됨 0.0011324484 -0.37452707 -0.27253345 -0.36453596 0.029875642 -0.46425167 -0.23150037 0.063367926 -0.16707337 -0.378242 0.011152485 -0.006796076 -0.4415408 -0.1745527 -0.35789266 -0.014092447
ㅡ -0.30040333 -0.25615197 -0.06845423 -0.37314624 0.10254298 0.08040993 0.05439029 -0.40819493 -0.16688001 -0.22595075 -0.29130784 0.020178173 -0.17778309 -0.3287045 -0.02707755 -0.19560373
따뜻 -0.02476816 -0.0418812 -0.06773931 0.047304593 0.031545 0.048730064 -0.03537091 0.21469727 -0.1808371 0.07367073 -0.10764069 0.02221075 0.02512652 0.02583259 0.3136252 0.21710648
빼 0.043172922 -0.29152003 0.0885768 -0.27203143 0.018712875 -0.22433805 -0.39625514 -0.31668088 -0.16965301 -0.022440325 -0.24314734 0.0118233785 -0.024922233 -0.2781418 -0.24384043 -0.3149556
느끼 0.13467501 -0.31658766 -0.063101165 -0.37480488 -0.31486604 -0.25285998 0.029694013 0.18282183 0.1727631 -0.24194193 -0.0007892921 -0.056970518 -0.4044205 0.05608488 0.04873737 -0.34047076
해야 -0.3302274 -0.37569225 -0.38328165 -0.20036773 0.1032355 0.15035565 -0.018638857 0.077192724 -0.17869018 -0.26530382 0.008162077 -0.0661084 -0.39020967 0.13425057 -0.27974012 0.0868212
드 -0.04798215 -0.1611101 0.057465304 -0.02768248 -0.40197566 -0.29883784 -0.34861514 0.094002046 -0.17146793 0.051183753 -0.23455502 0.0033028945 -0.3621684 -0.23295912 -0.2412957 -0.05375359
도대체 0.0102530755 -0.38545614 -0.047277298 0.123928584 0.08651236 -0.16587146 -0.14260347 -0.37573558 -0.17738162 0.24962297 -0.3893776 -0.019359708 -0.35950083 -0.4620655 -0.32907465 -0.29043168
어야 0.04790912 -0.061250567 -0.2709488 0.009785937 -0.12667242 -0.20043308 0.082989715 -0.41581106 -0.1660645 0.17060821 -0.024691602 0.02012131 -0.22751004 -0.32840392 -0.32552797 -0.27288756
답답 -0.043637197 -0.18778585 0.11442358 -0.2680748 -0.0016038171 -0.32970506 0.015391042 -0.35345247 -0.18750054 -0.0390077 -0.27031693 -0.047669865 0.12861636 -0.31623125 -0.36481166 0.10621865
마다 -0.20024909 -0.3022355 -0.31759742 0.023222353 -0.24420892 -0.21058811 -0.05448708 -0.33385038 -0.1749357 -0.27318487 -0.3762028 -0.03761823 -0.29306647 -0.1291352 0.105924584 -0.09643279
준다 0.102460995 -0.23041472 -0.27037248 -0.3011007 -0.48237935 -0.24132189 0.2912164 0.2640795 -0.17096965 -0.28253496 -0.1490704 -0.035327833 -0.3381172 -0.29867947 -0.2822341 -0.42463115
글 -0.2574974 -0.21010132 0.00672928 -0.29753032 -0.06812738 -0.15780126 0.17666563 -0.3873608 -0.16570896 -0.2960552 -0.26494682 0.06723783 -0.40850168 -0.35809264 -0.13877456 -0.31409726
전쟁 -0.14142196 0.1419375 0.044026386 -0.12006948 -0.003581087 -0.21189746 0.20841244 -0.16408871 0.1695128 -0.34453878 -0.4416978 0.004677121 -0.08922138 0.13297601 -0.32475823 -0.04370366
놈 -0.05462666 -0.30502388 0.0859235 0.14297496 0.27905527 -0.16913983 -0.0685495 0.056892067 -0.17675069 0.17161925 0.305769 -0.04602463 -0.107383005 -0.32355127 -0.09483814 -0.21378165
설정 -0.2039027 -0.19962752 0.18662423 -0.24683349 -0.22379965 -0.009070264 -0.17102244 -0.3737478 -0.17562464 -0.120667234 0.13978821 -0.04592012 0.07463546 -0.25891286 -0.23260278 0.18218227
무엇 -0.35392454 -0.26135603 -0.3405646 -0.026207449 -0.32796928 -0.13886699 -0.33912078 -0.408673 0.2704578 -0.28244522 -0.262773 -0.0018254961 -0.36383915 -0.13016775 -0.26887926 -0.08425302
수작 0.08147062 0.1527416 -0.28302205 -0.32398733 -0.23324895 -0.27094695 -0.20331569 0.15402576 -0.15288354 -0.23656616 0.09048266 -0.041124262 -0.39929527 0.1426543 0.24360484 -0.28400186
만화 0.023023276 -0.3995818 0.09901254 -0.16509031 -0.040253516 0.01601012 -0.34467086 -0.3767515 -0.17810431 -0.25833076 -0.2792677 -0.04348308 -0.45183408 -0.34559733 -0.52600867 -0.30552474
흥미 -0.02608985 -0.14424963 -0.3134831 -0.10149947 -0.29965153 -0.2617958 -0.06903849 -0.3968899 -0.17380936 -0.31742093 -0.301166 0.029044323 -0.29704356 0.0374013 -0.296383 -0.33182165
그저 -0.34604043 -0.35574818 -0.25120717 -0.24451719 -0.33218408 -0.23242518 0.049835574 -0.41967377 -0.1703294 -0.0071854447 -0.37926674 -0.06370163 -0.07005234 -0.43788177 -0.38272566 0.02021957
감정 -0.28961644 0.09313952 -0.1948789 -0.04094983 -0.2781313 -0.24444868 -0.16609566 -0.060067773 -0.17683622 -0.2744559 -0.37890705 -0.047124457 -0.2628905 0.034191962 0.07198158 -0.22759536
미국 0.07364196 0.0867183 -0.18410437 -0.54701763 0.029267903 0.014890821 -0.0023884054 0.09546034 -0.17043526 -0.120536834 0.0872789 -0.051798664 0.028878627 -0.059124764 -0.25836113 0.063234806
신선 -0.20095107 -0.21397622 0.04753975 0.22321929 -0.021046367 -0.47883886 -0.5624559 -0.42503783 -0.1706613 -0.3651064 -0.3186703 -0.046318125 -0.43212867 -0.05767891 -0.25013345 -0.26373407
행복 -0.35739082 -0.34853834 -0.5125903 0.29890403 -0.43822566 0.2047817 0.17874357 -0.23510163 -0.17028096 -0.48948956 0.09708204 -0.058886196 -0.49647054 -0.054292772 -0.48709342 -0.40984023
뻔 0.083427325 0.033480115 -0.06833135 -0.31480545 0.05497904 -0.1070085 -0.01805341 0.073737934 -0.16332687 0.18346138 -0.29489666 -0.058871865 -0.1018447 -0.26035297 -0.3758689 -0.15308477
형 0.048758212 0.035488613 -0.080337174 -0.301024 -0.088523604 -0.25905812 -0.08905874 -0.17987224 -0.17421661 -0.32288912 -0.19832473 -0.042405404 -0.34997055 -0.3148558 -0.35532373 -0.022828136
앞 -0.262468 -0.04584027 -0.36068934 0.087939106 -0.31229395 -0.26532894 -0.27405974 0.05237897 -0.17915732 -0.31729132 -0.033174325 -0.072160974 -0.28312713 -0.073588125 -0.10001342 -0.3290648
허접 0.0139174005 -0.2430109 -0.03146669 0.051434338 0.2639889 0.004392719 0.15032358 -0.26769924 -0.1839252 0.08969204 -0.21164751 -0.011217512 0.09935958 -0.27242425 -0.20577611 0.13301237
어도 -0.17915744 -0.24495865 -0.15467516 -0.17474137 -0.31835487 -0.27829152 -0.32295278 -0.2323549 -0.17989378 0.052310072 -0.22542581 -0.0079358 0.032863878 -0.08535669 -0.26113746 -0.23467618
군 -0.09672102 0.006043419 -0.29827932 0.2155151 0.10566138 -0.5358602 0.05813759 -0.24790938 -0.18077184 -0.004379048 -0.13104525 0.25278273 0.15022928 -0.07760904 -0.15306598 0.15880325
시절 -0.30464736 -0.24258368 -0.30462262 0.15196319 -0.28589135 -0.2740611 -0.32599825 0.07310147 -0.18498303 -0.27669194 0.00079179934 0.035131026 -0.33921513 -0.04849397 0.07257616 0.16620827
관객 0.059789523 -0.30021563 0.058103565 0.084106594 0.10940455 -0.049020585 -0.029099327 -0.3327001 -0.1657362 -0.26013115 -0.25904402 -0.06744114 -0.19044867 -0.33478662 -0.10840664 0.19628751
배경 -0.095230944 -0.046415687 -0.52791995 0.14376146 -0.03584817 0.15381224 0.036048744 -0.36431783 -0.17158134 -0.011329227 -0.12474547 -0.03536942 -0.00043660164 -0.31208372 -0.10978212 0.06912004
6 -0.030283302 0.0025989378 0.04093329 -0.38772184 -0.42222974 0.003217112 0.041567214 -0.33096266 0.0887466 -0.35761097 0.16110705 -0.016908836 -0.2891741 -0.40139827 0.111137435 -0.27483824
초반 -0.23625034 -0.18085253 0.071454376 0.077222764 -0.25021124 0.13361399 0.06824978 0.11074505 -0.17604563 -0.31654537 -0.055654585 -0.054525282 -0.07239385 -0.29309034 -0.2264903 0.06345989
사실 -0.3376537 -0.14208466 0.06474681 0.1625897 -0.3324478 0.06971098 -0.30223277 -0.1764116 -0.17450772 -0.2455865 0.048744004 -0.027953852 -0.08346475 -0.15993966 0.055406496 -0.24833092
웃음 -0.3489697 -0.32751167 -0.20565662 -0.3513434 -0.3973267 -0.24063788 -0.2578916 -0.35435992 -0.17509986 -0.30799532 -0.30500373 -0.024662035 -0.015231552 -0.046181705 -0.09108066 -0.046762016
답 -0.17703544 -0.3148172 -0.28813937 -0.3789825 -0.29989266 -0.2345236 0.09990177 -0.53408414 -0.17626023 -0.22083075 -0.2687889 -0.021017032 -0.28180364 -0.24739267 -0.3882977 -0.24127483
엄청 -0.024362337 0.092237905 -0.07919449 0.09103643 -0.46830043 -0.008336381 -0.0068003754 -0.083512746 -0.1651788 -0.33221206 0.009056487 0.02408215 0.10969117 -0.30842227 -0.3745871 -0.30391484
더라 -0.5042813 0.0036110876 -0.29339388 -0.0857935 0.02249131 -0.34496054 -0.18156195 -0.37226224 -0.18324432 -0.27496338 -0.30810115 0.02271736 0.016925443 -0.18814208 -0.2574703 -0.23463099
라니 -0.33371124 -0.28681874 -0.26080552 -0.28667498 -0.06589442 -0.35333598 -0.33504066 -0.074967556 -0.16622862 0.122227415 0.21163644 -0.025494767 0.100746475 -0.032526184 -0.3990634 -0.101770505
질 0.21988024 0.11525483 0.0003747921 -0.36317614 -0.11118365 -0.2172302 -0.029244417 0.12120144 -0.16906828 -0.3107705 -0.3513061 -0.039304037 -0.0029395523 -0.3075 0.11959904 0.16602674
자신 -0.21442659 -0.16918181 0.06004324 -0.26432136 -0.12655191 -0.2606495 0.038441274 -0.26142645 -0.16329339 -0.26780644 -0.20999648 0.0024071112 -0.44790456 -0.2772494 -0.2546808 -0.3208487
추억 -0.35555074 -0.17903 -0.38878828 0.000123756 -0.43624192 -0.44055003 -0.32863793 -0.023641242 0.1488163 -0.32280076 0.13535744 -0.03571254 -0.45193973 -0.29041314 -0.27428213 -0.3064044
캐스팅 0.1679655 -0.0983731 0.0010130594 0.010637067 -0.47352654 -0.19833921 0.09184371 -0.10995875 -0.1693178 -0.36477354 -0.1523345 -0.0013882145 -0.44966993 -0.04633719 -0.12536328 0.028963717
첨 -0.35676554 -0.2599057 -0.18980782 -0.33764374 -0.22214864 0.059736233 -0.09665437 -0.05847487 -0.16480964 -0.31643298 -0.29593945 -0.026313674 -0.19189976 -0.30249864 -0.40284014 -0.37496898
멋있 -0.050797496 -0.561668 -0.14574538 -0.3082995 -0.11934704 0.11897767 -0.05900462 0.033180434 -0.16767067 -0.015394519 0.003824493 0.04372056 -0.4813947 0.14349806 0.2414528 0.060223754
류 0.17578709 -0.1317821 -0.3894914 -0.32912225 -0.12746724 -0.21837987 -0.14469638 -0.3701909 -0.16334245 -0.34901384 -0.22883917 -0.0015801558 -0.41145644 -0.38529992 -0.28340212 0.050569337
어색 -0.2029351 -0.199649 -0.03846702 -0.3259507 0.048748754 0.08391331 0.16244039 -0.28720793 -0.17759432 0.25146237 -0.2819479 0.000289727 -0.04051069 -0.35938683 -0.2792385 -0.31593367
시나리오 -0.023029137 -0.25788134 -0.081936665 -0.36536843 -0.25091153 -0.10754685 -0.22513522 -0.2501362 -0.17404452 -0.05001588 -0.35093316 -0.014686 -0.40326622 -0.16258605 -0.23832977 0.18452029
머 0.060268696 -0.44470745 -0.029541805 -0.21561031 -0.3633614 -0.25730768 -0.012381443 -0.102208376 -0.16521625 -0.35965955 -0.46624318 0.02746277 -0.11563368 -0.096207894 -0.3132048 0.10237042
밖에 -0.28566134 0.1029194 0.06843769 -0.38767886 0.11670162 -0.18830805 0.08141796 -0.35566303 -0.18151546 0.12870573 -0.25988013 -0.064801104 -0.33420128 0.041153125 0.13528158 -0.3051134
OOO -0.032763235 -0.3034092 -0.19906007 -0.32185692 0.17252569 -0.2489133 0.14339718 -0.31683317 -0.1653081 0.09256536 -0.33591008 -0.06918458 0.058827806 -0.359872 -0.36259565 -0.42260328
슬프 0.1597902 -0.56184095 0.03873664 0.24932411 -0.34494755 -0.43701336 -0.32365626 -0.63951176 0.289239 -0.07549361 -0.032507636 -0.04030224 -0.2559371 -0.6466253 0.12742354 -0.2218623
정신 -0.036515806 -0.32644472 0.090479046 -0.09777188 0.08231606 0.009372611 -0.16324547 -0.33295062 -0.17488249 -0.47818398 -0.2803296 0.5300847 -0.066648774 -0.32510003 -0.25758332 -0.4190033
분위기 -0.32248083 -0.20148605 -0.31660062 0.048799958 -0.31031346 -0.23568928 -0.3300562 -0.21529727 -0.16781224 -0.30411524 -0.2678623 -0.027548153 -0.27685937 0.015478832 0.04048091 -0.34067026
소름 -0.32761997 -0.19097431 -0.35376048 -0.32297096 -0.3024006 -0.27191603 -0.35452884 0.072179995 -0.17504308 -0.27585548 -0.22120987 0.04268706 -0.5502864 0.23132375 -0.28485796 -0.29494315
멋진 -0.36037853 -0.16328086 -0.41805723 0.19833943 -0.416033 -0.41999465 -0.39576554 -0.42431837 -0.16286722 -0.35694483 -0.2791414 -0.03374966 -0.41654113 0.045029297 -0.20839718 -0.33102623
힘들 -0.33916122 0.05149743 0.06423672 -0.12490838 0.0500261 0.0577118 0.023208132 0.14652394 -0.17647266 -0.2611146 -0.42368463 0.0099491365 0.17699601 -0.3466322 -0.3599094 -0.31853116
오늘 -0.17326291 -0.53575873 -0.0715335 -0.2302619 -0.062170107 -0.43437144 -0.13129678 -0.30653405 0.20826147 -0.17947753 -0.30211225 -0.007646598 -0.19771962 -0.26227096 0.06683506 -0.1431265
어이없 0.067944825 -0.25449973 0.042871904 -0.24671389 -0.047096625 0.052062515 0.15549566 0.12951837 -0.18423775 0.046776854 -0.3101695 0.008063935 -0.10528824 -0.29827824 -0.2996198 0.21789542
봐서 -0.29199243 0.0041395933 -0.2649562 -0.2506128 -0.002391595 -0.2677354 -0.28581256 -0.3505565 -0.16952053 -0.27769896 -0.40794206 0.34052044 -0.3342673 -0.029733725 0.010311651 -0.19140095
잡 -0.1915738 -0.07532729 -0.32536474 -0.027246712 -0.28799176 0.0363663 0.078084596 -0.041914634 -0.17634422 -0.31996447 -0.16732576 -0.06702721 -0.25979593 -0.20113835 -0.04977676 0.0542528
구성 0.093685165 -0.24870118 -0.19933036 -0.33256108 -0.050509695 -0.22417642 -0.1962267 -0.3980714 -0.18868808 -0.3214303 -0.10731709 -0.024701465 -0.36391354 -0.12637736 -0.23318844 -0.14566197
엄마 -0.32551974 -0.2324886 -0.2401957 -0.20074604 -0.29307455 -0.17462367 -0.27732125 -0.10809096 -0.16617711 -0.26436776 -0.23606701 0.008432828 -0.333438 -0.17570215 -0.17275923 -0.2563778
함께 -0.09901463 -0.31251076 -0.018873995 -0.05863043 -0.23274322 -0.52279407 -0.079298116 0.07570427 -0.18088688 0.025469344 -0.22756244 -0.057885557 -0.425484 0.14973989 -0.26743996 -0.3818704
문제 0.16402811 -0.2610443 0.17824487 0.15186223 0.14666256 -0.20031339 -0.32306263 -0.35139218 -0.1805286 -0.35512796 -0.3516193 -0.030078663 -0.41059107 -0.37747052 0.09042354 -0.2928314
위해 -0.3249139 -0.17210437 -0.29601055 -0.34289783 -0.01958878 -0.28806183 0.17242293 0.069536604 -0.1722651 -0.14462987 -0.057090823 -0.040400695 -0.115858994 -0.03367806 -0.35069177 -0.26002142
졸작 -0.109359466 -0.25718534 0.04437584 -0.29793647 0.24011287 0.12808786 0.17116375 -0.33722737 -0.16650772 0.188921 -0.18352173 -0.081155576 0.07246345 -0.18337181 -0.26243582 0.020431746
잊 -0.22629221 -0.1318854 -0.27916384 0.07252048 0.033083227 -0.3024037 -0.30594936 0.10080831 0.33969674 0.028508293 -0.024165796 -0.068494834 -0.11604683 -0.27213746 -0.26465923 -0.29948565
이딴 0.10464384 0.08408554 0.15189372 0.061257765 0.20376734 -0.0008373736 -0.3290018 -0.40902036 -0.16490817 -0.00041951312 -0.31121054 0.011038996 0.18709321 0.14902785 0.10031093 0.1616646
등 -0.47982246 0.045456167 0.09803054 -0.30599955 -0.045765262 -0.3693996 -0.08827401 -0.105016835 -0.16222979 -0.29021502 -0.062286567 -0.02237338 -0.33995187 0.12639157 -0.03647514 -0.019905087
집 0.011767914 -0.36701128 -0.06980574 -0.27151936 -0.051125098 -0.22898477 0.010272565 -0.3975913 -0.16370377 0.054666057 -0.29248184 0.026198413 -0.19762164 -0.0767881 0.026893929 0.06559138
유쾌 -0.25834215 0.14996594 -0.3433386 0.21386729 -0.36759797 -0.47485283 -0.35059157 -0.26076502 -0.15896665 -0.34604508 -0.19948368 0.022424016 -0.46460772 -0.06168033 -0.25021622 -0.0031229863
뻔한 0.059277065 -0.29511032 0.10131458 -0.29918772 -0.09681476 -0.20978115 -0.16894035 -0.38326356 -0.16633908 -0.32448277 -0.273266 -0.053823393 -0.073383585 -0.44379854 -0.3848303 0.068049006
킬링 0.073438615 0.046309933 -0.03134455 -0.084950164 -0.30835438 0.063895784 0.05252097 -0.53924966 -0.120715976 -0.20725231 -0.17156866 0.016919006 -0.034548137 -0.1023556 -0.054308824 -0.23672353
스러운 -0.32453495 -0.32775864 -0.42232567 -0.23018028 -0.4572016 -0.38005134 -0.33613002 0.033296373 -0.17586039 -0.30194217 -0.09240016 -0.05533235 -0.43132758 -0.052589286 -0.27621058 -0.33440134
결국 -0.3428491 -0.32693085 -0.37850514 -0.21427634 -0.23865514 0.07705996 -0.31405166 0.048874274 -0.18016604 -0.13788195 -0.29891995 0.01604886 0.042102307 -0.359736 -0.22947504 -0.29473916
낫 -0.13602638 0.16136956 0.053527646 -0.3795398 -0.18579495 0.01776507 -0.027687196 0.05548684 -0.16784124 0.123749286 0.051212884 -0.06242966 0.047312625 -0.33451837 0.008258497 0.02688341
한데 -0.13967253 -0.24097456 0.10323002 0.15107895 0.13270271 -0.4282907 -0.33790255 -0.22579564 -0.16334301 -0.03263416 -0.17150107 -0.04510595 -0.4404518 0.057851065 -0.37337232 0.00018404203
나요 -0.20119803 0.0077147544 -0.27664503 0.000833167 -0.024168275 0.2031843 -0.3340742 0.1561786 -0.16530393 0.015646668 -0.4601052 0.00039864704 -0.41694564 -0.2277998 0.14463493 -0.16578618
뭘 -0.21063095 -0.2965022 0.011881013 -0.37899432 0.06544944 -0.27119055 0.17698021 -0.34750897 -0.16612361 -0.21319377 0.039114196 -0.015672803 -0.3667225 0.059312027 -0.17107591 0.11122058
소리 -0.00064306264 -0.29381987 -0.14570265 -0.40849695 -0.35923457 -0.21154359 -0.18825862 -0.39672062 -0.16776639 -0.35192382 -0.25939202 0.02233341 -0.10841768 -0.19406278 -0.27620202 0.14367542
간 -0.04942093 0.12061149 -0.070278294 -0.35086527 -0.3619618 -0.24998236 -0.015148785 -0.39653224 -0.16605781 -0.2847379 -0.30495435 -0.047987532 -0.26247534 0.031531107 -0.20891458 0.009402864
20 -0.31453162 0.13068523 0.031170469 -0.20653507 -0.17245494 -0.39023724 -0.26519272 -0.18549989 -0.18781395 -0.31761163 -0.11123332 -0.03155181 0.0003753104 -0.12030458 -0.25196767 -0.2401237
역사 -0.20871028 -0.1673334 -0.2977168 -0.027142696 -0.25995213 -0.36166444 -0.24466178 0.0038362888 -0.18474554 -0.20151952 -0.2585603 -0.054327678 -0.32793728 0.110243484 -0.14740388 -0.36737502
뭔 -0.20205723 -0.27613592 0.08271729 -0.29087958 -0.11119878 0.07087012 0.1744865 -0.32202002 -0.19252676 -0.034101885 -0.27758673 -0.07444415 -0.09601567 -0.29347426 -0.27657813 -0.19774498
제발 0.14925048 0.038687263 -0.3111898 -0.36826414 -0.021285795 0.02067774 0.152724 -0.37761277 -0.16416356 -0.34928116 -0.48304138 -0.019076897 -0.10444309 0.0728774 0.031416282 0.020192277
포스터 0.13306093 -0.47408065 -0.0061639445 -0.09739369 0.13716953 -0.19982304 0.24523191 0.025841828 -0.16415708 0.018533215 0.06860691 0.040004466 0.022203328 0.22700107 -0.009337023 -0.011033237
아무리 -0.015271893 -0.17868078 -0.27706575 -0.27748504 0.14117086 -0.028550299 -0.32943764 -0.2553538 -0.18646166 0.17271426 -0.20514311 -0.03661836 -0.15542324 -0.24116337 -0.21076527 0.14901434
코믹 -0.059440557 -0.1402441 -0.33070138 0.03580183 -0.4445504 -0.10128099 0.08330375 -0.3766821 -0.18180443 -0.002563518 -0.17153688 0.026731435 -0.12921461 -0.41852084 0.109452486 -0.32628825
어떤 0.07568668 -0.11191368 -0.2378525 0.07673425 -0.19460031 0.04147681 -0.021869238 -0.2783354 -0.18878686 -0.3343688 0.04077489 -0.08008543 -0.26098713 -0.3360512 0.19613975 -0.0039463034
완벽 -0.05420987 -0.1865003 -0.077177905 -0.07952037 0.14512636 -0.09626448 -0.47826937 0.15870278 -0.17335863 -0.34362105 0.047831073 0.0288404 -0.46717912 0.24941166 -0.09021564 0.0605751
~~~ -0.0052771294 0.14577729 0.117004655 0.11803758 -0.22625874 -0.3075704 -0.23517326 -0.10388392 -0.16626407 -0.011569625 -0.42358068 -0.025537658 0.12231001 -0.4266721 0.05055141 -0.014272739
맘 -0.38216576 -0.32688594 -0.11966049 -0.3828119 -0.08315411 -0.40954933 -0.41258523 0.25248924 -0.1916902 -0.013384658 0.076801285 0.011780001 0.08243124 -0.04416421 -0.3205807 -0.12335133
