9996 16
. -0.04456448 -0.028873853 -0.008819941 -0.032416407 -0.09004374 0.20416741 -0.06475913 -0.01792877 0.082699455 -0.021533249 0.0684035 0.054759253 0.008943987 -0.0054239864 0.034390204 -0.037412193
영화 -0.01381042 -0.043710105 -0.05128823 -0.1696193 -0.037115756 0.16282189 -0.062590964 0.0057487413 0.006181833 0.025416922 0.015773665 0.1561065 -0.004572555 0.011232538 0.025564758 0.037348945
다 -0.026386915 -0.021399792 -0.05292301 -0.02115927 0.00839949 0.22953421 -0.06689086 0.0023613132 -0.008118177 0.018428529 -0.022604635 0.05640002 -0.01953147 0.027106812 -0.006120488 0.056939293
고 0.0036355886 -0.08034007 -0.046943046 -0.0044555194 -0.13432544 0.0598894 -0.11447229 0.08920818 0.039658908 0.009748861 0.05450782 0.2219763 -0.08845524 0.054450244 0.025822796 0.009813232
하 -0.023255803 0.025342783 0.024941597 0.016837964 -0.010429285 -0.050216522 0.010802028 0.016267853 0.007708333 -0.0037751766 -0.025549488 -0.019052928 -0.02102547 0.006743104 0.054300886 -0.0018742564
을 0.0651518 0.019048924 0.007957387 0.10715712 -0.015746024 -0.040839624 -0.027180158 -0.029033683 -0.10416159 0.026102468 -0.023255907 0.091200024 -0.061624262 0.025303317 0.003495941 0.042147793
보 0.018258696 0.0012579154 -0.050354015 0.066441126 -0.03045136 0.074765965 0.009195107 0.044691138 0.02382965 0.0014126356 0.0047297906 -0.033610616 0.051462103 -0.012303394 -0.05246997 0.08786332
.. -0.086801045 -0.0860352 0.01337608 -0.030378258 -0.04269514 0.02360058 -0.07540727 -0.039176732 0.035719447 0.01224662 0.02511045 -0.03664966 -0.040388014 -0.0669117 -0.03048346 -0.015926689
게 0.07984088 0.024685912 -0.016953334 0.15169404 -0.004379085 0.050257985 -0.004512078 0.03356496 -0.05329763 0.011901364 -0.04598951 0.0154523095 0.09203148 0.026037816 0.010095771 0.025796687
, -0.028284777 0.010797267 -0.0123497825 0.049395695 -0.0119069405 -0.014394049 0.0110050365 -0.011061923 0.056830496 -0.0036481433 -0.0049949484 -0.04096198 -0.008459029 -0.0124626625 -0.036015797 -0.012742844
! 0.085135944 0.101110846 -0.08723167 0.037432272 0.04288044 0.2505687 0.0007309349 0.010194605 0.05423548 0.14411354 -0.045940723 0.036756784 0.06795824 0.07136581 -0.0672183 0.12876076
지 0.038827386 0.008301164 0.13599698 0.14038548 -0.023660893 -0.2798533 0.16744508 0.03626396 -0.07858348 0.029681304 0.0038291048 -0.15603355 0.0038045654 -0.095675536 0.048048805 -0.05356129
있 0.07133221 0.039657485 -0.009439707 0.22130595 -0.052161407 -0.007831683 0.048725154 0.019417245 -0.06776271 0.08886134 0.045016333 -0.11920212 0.030683544 0.10131106 0.020853017 0.10923411
없 -0.13518557 -0.16037099 0.20162386 -0.12723522 0.00477696 -0.42389306 -0.0996352 -0.12957916 0.052080277 -0.2238456 0.041499812 -0.08450987 -0.26862243 -0.17579928 0.19409631 -0.24806572
? -0.07873885 -0.050023563 0.1054293 0.07244426 -0.04339094 -0.058205653 -0.05964508 0.02845457 -0.110308886 -0.09144585 -0.028220851 -0.10645487 -0.051081624 -0.054855257 0.117930084 -0.14113577
좋 0.13017988 0.17915902 -0.17551048 0.215801 -0.10609696 0.14531188 0.18313792 0.19003215 -0.029713621 0.1968303 -0.1036191 0.10670632 0.18302697 0.18536228 -0.117792666 0.1985632
나 -0.09633201 -0.067771316 -0.016889382 0.033934094 -0.11599378 0.022572847 0.010510136 -0.04258236 0.011592865 -0.073526755 0.11996967 -0.19595641 0.003737703 -0.04040257 0.053589743 -0.06668024
었 0.04637587 0.024635706 -0.058568045 0.06009213 -0.023624385 -0.017616853 0.07741843 0.03904386 0.07331714 0.056105457 -0.013386708 -0.03555636 0.032860585 0.047114626 0.013885832 0.06746392
만 -0.012262666 -0.080380805 0.048765145 -0.12506501 0.099905476 -0.012161291 -0.061050173 0.027981685 -0.06642821 -0.059230562 -0.0013683876 0.1398898 -0.08693523 -0.048821975 0.029853022 -0.07338681
는데 -0.079682425 0.031201215 -0.055509888 0.18484682 -0.31228417 -0.24632315 -0.1398554 -0.050754912 -0.015773358 0.0047129914 0.20922466 -0.24173771 0.010155735 0.079423636 0.12555715 -0.17474364
너무 -0.20206667 -0.10349086 -0.06435548 -0.06134114 -0.22687528 -0.035404827 -0.13721964 -0.12469668 0.1756004 -0.055408675 -0.057644498 -0.22963196 -0.013655629 -0.024842653 0.16488175 -0.041316163
봤 0.00943013 -0.056761988 -0.043991297 0.040997896 -0.07882431 0.026054153 -0.052147023 0.018313682 0.078749985 0.015001526 -0.016514856 -0.0017435015 0.082758464 -0.0019786875 -0.03227196 0.12673992
적 0.019743847 -0.029540028 -0.067158 -0.030615985 -0.036888905 -0.07671591 -0.0908995 -0.02613182 0.052089598 -0.02619134 0.018012712 0.10594602 0.0023391615 0.034751058 -0.0009439534 0.05262638
안 -0.08139583 -0.11818891 0.0730185 -0.11901863 0.20858641 -0.19847693 -0.083870865 -0.033290718 -0.21547613 -0.1965964 0.06608648 0.08328875 -0.3002099 -0.18047385 0.0824297 -0.22728097
정말 -0.044528186 0.07459859 -0.07222172 0.15476675 -0.1891682 0.0133455405 0.015380903 -0.062017594 0.072636776 0.026964067 0.027363623 -0.20999126 0.008682479 -0.012734157 0.0042871838 0.002273915
로 -0.07741066 0.047258526 0.05713709 0.04676999 -0.06915545 0.029767111 0.031142827 -0.036604576 0.0066119866 -0.060665462 0.041973162 -0.07137529 -0.010236468 -0.06762961 -0.049719624 -0.06545855
음 0.021988545 0.039283827 -0.012988757 -0.059271883 -0.08408869 0.25794655 -0.044668652 0.02395247 -0.07698754 0.016764631 -0.06407316 0.15430924 0.031475157 -0.034251615 0.010673727 -0.015460655
것 0.01709152 0.009876646 -0.023810435 0.046306416 0.026409695 -0.075942025 -0.0014064838 0.06557368 -0.015363819 -0.011204626 -0.09654299 -0.098220706 0.0670101 0.03671233 0.04358836 0.018475106
아 -0.008574786 0.0028041082 0.040034935 0.07499363 -0.030615365 -0.0027231686 0.015011295 -0.0055390825 -0.021665204 -0.021426128 0.060212936 0.036832415 0.03812282 0.020928785 0.030595621 0.013586996
네요 0.09122473 0.04398256 -0.094931476 -0.056017503 0.021410251 0.23036373 -0.025711047 -0.009290091 0.060880635 0.010634607 -0.032333825 0.32650042 0.0165665 0.035922453 -0.022908447 0.1270469
재밌 0.24053854 0.34215894 -0.3368973 0.13185611 -0.07428074 0.3525277 0.26466584 0.18637307 0.08490039 0.26275936 0.091759525 0.10802851 0.33327118 0.30292764 -0.24452093 0.16745637
어 -0.053358313 0.07842719 -0.058314055 0.045988943 -0.09304811 0.036573276 -0.05844237 -0.052064523 0.02815558 -0.015348315 0.004636987 -0.073433645 0.01008813 0.03577688 0.067479216 -0.03306382
같 -0.10153816 0.098031975 -0.07238121 0.030752046 0.032925483 0.09013032 -0.06829086 -0.055865422 0.021427631 0.012844276 -0.04442554 -0.056603573 0.060533103 -0.019856649 0.0074616973 0.030714467
점 -0.122526266 -0.03553567 -0.020519031 -0.31869403 0.09974525 0.3004804 -0.14541347 -0.040700465 -0.10022628 -0.06055372 -0.06625683 0.31399125 -0.08950848 -0.08240156 0.052194834 -0.029978335
지만 -0.03480741 -0.031310637 0.04644454 0.22187573 -0.27167678 -0.49736524 -0.06411575 -0.043029442 0.099280566 -0.039414443 0.1751485 -0.41930524 -0.032566603 -0.031825088 -0.11281584 0.085399814
진짜 0.05265047 6.894675e-05 -0.009829681 -0.013625332 -0.19715253 0.0059675514 0.040218484 0.0005295714 0.08552561 0.016916893 0.046936847 -0.17134245 0.08194892 -0.0016980057 -0.039134827 -0.006877439
했 -0.027645739 0.03668993 0.033122238 -0.043946754 0.017970039 0.07334241 0.024474889 0.05363709 -0.0395433 0.0586352 -0.084936716 0.013302928 -0.021825302 -0.0033850651 0.02995492 0.024666509
에서 0.04726639 0.020142457 -0.029913891 0.15898007 -0.062081676 -0.13802895 0.035940185 0.07255848 -0.0051206793 0.020352606 0.06666951 -0.05032987 -0.02697447 0.13000868 0.05431086 0.048326265
기 -0.11974703 0.0006860013 -0.019196764 0.015024766 0.022874348 0.11227946 0.0008547701 -0.08856846 0.00058438035 -0.08862196 -0.008043757 0.016569229 0.053614978 -0.05279025 0.041447643 -0.04445199
네 0.0069480464 -0.047921978 0.05586407 0.052508447 -0.01757952 0.15156226 0.052531537 0.041503057 -0.044280402 0.0066217524 -0.044170603 0.053717513 -0.0021991858 -0.06673191 -0.029468395 -0.045144483
않 -0.09267278 0.040320583 0.20862839 0.3518712 -0.008961813 -0.55381036 0.13201652 -0.15920031 -0.09188005 -0.0880501 0.09119336 -0.5217529 -0.084076434 -0.14865315 0.11740648 -0.062105052
거 -0.015716473 -0.068496495 0.0043192254 0.009058215 -0.016896138 -0.040527686 -0.049693 0.08498576 0.011089748 -0.023480717 -0.0013722015 0.060972784 -0.09479199 -0.059573013 0.036138546 0.039808586
았 -0.07884551 -0.008425703 -0.00784348 0.037104372 -0.03865883 -0.04825563 -0.020052828 -0.089272365 0.017359747 0.009022514 0.02776264 0.0160851 -0.059128705 0.025431275 0.033191655 0.11429323
수 0.15775786 0.06434844 -0.052010514 -0.0120004285 0.08449866 0.05707089 0.09091464 0.10930972 -0.15230961 0.110086896 -0.060716737 0.274907 0.07785406 0.066464014 -0.15407193 -0.009249363
되 0.054615628 0.05153625 -0.06947201 0.016151942 -0.1186834 0.024840422 0.014999163 0.002864349 0.06636982 0.0683688 -0.02627837 0.087744065 0.0017491325 0.09965525 0.01588447 0.00034544233
면 0.014830466 -0.013660796 0.050144315 -0.024364255 0.061240043 -0.10827344 -0.0071328217 0.042418595 -0.063884325 0.008923242 0.0019328841 -0.15827836 0.036763795 -0.08753548 0.008023054 -0.03119663
ㅋㅋ -0.011954505 0.085897565 -0.010673851 -0.02168246 -0.014545877 0.113587275 -0.013226585 0.049378406 0.05455957 0.059822205 -0.0144275585 -0.010535948 0.050749563 0.05935088 0.011352761 0.08174743
말 -0.06932742 -0.015843049 -0.036645673 0.046797585 -0.014468811 -0.037057072 -0.013182864 -0.05177256 -0.0014682547 0.03000777 0.06480767 -0.1362064 0.017890995 0.0024678148 0.016725989 -0.12152975
연기 0.07378618 -0.010032249 -0.066251144 0.11450612 -0.07434065 0.07938814 0.1419307 0.08338915 0.11473339 0.044345226 -0.02202822 0.20944047 0.13937807 0.112768985 -0.07096824 0.09933162
인 0.019797642 -0.0028643168 0.028402051 0.05906528 -0.03560007 -0.006325631 0.029825201 -0.026518539 -0.02538289 0.0037523462 0.0076442286 0.13773954 0.04981552 0.0012570802 -0.019480078 -0.0043607885
주 0.09472655 0.02935342 0.03901928 0.08436746 -0.038364045 -0.14334865 0.06138644 0.09547021 0.04362802 0.015319367 -0.005563813 0.0069811847 0.028324742 0.065357305 -0.016981795 0.07534279
내 -0.019628068 0.06432714 0.010677507 0.18532486 -0.07741128 -0.11105059 0.08722119 0.0049399813 0.07734925 0.009984523 0.014067939 -0.12383427 0.006553163 0.0014097317 0.10560241 0.01596691
최고 0.2054943 0.39968494 -0.3831374 0.12570904 -0.25615793 0.3105246 0.3201068 0.3048006 0.18137506 0.3565186 0.0060115317 -0.43332618 0.45746037 0.24217413 -0.30640844 0.1956415
~ 0.039202783 0.06176314 -0.04257735 -0.036055047 0.03116843 0.103946 -0.011143614 0.039484937 0.0740817 0.009221707 -0.031544372 0.14731546 -0.012885735 0.03908608 -0.079725266 0.037863135
평점 -0.10022475 0.06577305 0.016524928 0.21963036 0.00046781008 0.16796704 -0.0023797578 -0.002563567 -0.029079756 0.019275492 0.0034462363 -0.26708105 -0.0031268504 -0.03333327 -0.039026856 0.058999408
이런 -0.0377832 -0.08259239 0.029239578 0.05243819 -0.03155502 -0.09402615 0.0072299493 -0.06389663 0.07321809 0.0037149217 0.029905735 -0.2641185 0.02109753 -0.07307846 -0.04027666 0.022902515
던 0.032917283 -0.027821543 -0.06435954 0.06094226 -0.07354638 -0.06080506 0.038426336 0.017741613 0.013521373 -0.024941409 0.04779248 -0.08278626 0.017699236 0.033903867 -0.017509319 0.01397308
어요 0.034592275 0.08276465 -0.11698004 -0.05112371 -0.008353256 0.40537113 0.08189614 0.06990069 0.0131120235 0.10758045 -0.08410644 0.49383602 0.049324054 0.074058875 -0.06424684 -0.00015583726
할 0.07465438 0.040817816 0.012729105 0.12811081 0.049095504 -0.18409587 0.037513062 0.011344334 -0.06795084 0.07959777 -0.043805268 -0.13728778 -0.016265418 -0.005936804 -0.036021948 0.044359125
왜 -0.0024889016 -0.069290556 0.057331357 -0.00683204 0.040194623 0.19449882 -0.086483516 0.022367788 -0.06899715 -0.034838125 0.0039022265 -0.11429223 -0.06333507 -0.021319855 0.09706414 -0.040122595
겠 -0.14271398 -0.101206966 0.10053932 0.054790117 -0.026231345 -0.062793724 -0.03826393 -0.07978645 0.017518412 -0.12624092 -0.015630865 -0.028740792 -0.039528266 -0.18173872 0.05874416 -0.054943804
1 -0.15128998 -0.14226669 0.0912474 -0.097919814 0.118318744 -0.19135763 -0.19075027 -0.14316966 -0.09195549 -0.11607038 0.08703293 0.09903632 -0.26662156 -0.108974434 0.16624413 -0.15118577
스토리 -0.0942763 -0.107945114 0.03679882 -0.1496962 -0.08798566 0.03131035 -0.14214456 0.018347915 -0.00094409805 -0.098069265 -0.02292046 0.12385864 -0.043193217 -0.061397005 0.04786215 -0.020714626
해 0.078307495 -0.059418265 0.045906104 -0.08025764 0.048810136 -0.059422906 0.052610125 0.04326223 0.012381582 0.013380227 0.014147346 0.07009906 -0.084152676 0.047053292 -0.012640463 -0.018308429
습니다 0.057465266 0.14616913 -0.11452238 0.066268764 0.039687395 0.25277752 0.0352006 0.03969396 -0.10497479 0.06791551 -0.11293282 0.050850794 0.08906815 0.08145909 0.022985287 0.035081096
ㅋㅋㅋ 0.063599065 -0.018700665 0.047135815 0.05699499 0.016505385 0.005226616 0.058056276 0.019767275 -0.060950145 -0.019790968 0.0012049928 0.051356293 0.029201332 -0.04304491 0.017025426 0.056688707
... -0.12328698 0.0027592108 0.0059177456 0.059212454 -0.019602083 0.05662645 -0.020006191 -0.05728643 0.08585545 -0.0022367823 0.029162582 -0.070306465 0.020943297 -0.05178404 -0.033960126 -0.023251979
드라마 0.0659244 0.0049233474 -0.0010725021 -0.16261315 0.0033161277 0.18135104 0.059520546 0.06770954 -0.08366768 0.049714096 -0.08548393 0.1258459 0.0031384225 0.05212962 -0.003583009 -0.018434234
생각 -0.014007638 0.08505457 -0.08614887 -0.02281213 -0.034581784 0.068615004 0.012565299 0.0030512575 -0.03330239 0.12092653 0.00052605226 -0.063264266 0.086737186 0.13396923 -0.07244177 0.017473675
아니 -0.23296632 -0.1218261 0.11612114 -0.13626686 -0.030217357 -0.42633408 -0.09866775 -0.15872508 0.13560028 -0.16681279 0.13386317 -0.2727207 -0.30436093 -0.11218292 0.046168856 -0.15469682
더 0.05179143 0.084800355 -0.0144810835 0.05251211 0.14227581 0.22698793 0.01944422 0.02343401 -0.09432162 0.012695629 -0.049675543 0.06255696 -0.00704095 -0.013000116 -0.0929628 -0.038978286
그 0.009427379 0.031409748 -0.11290045 0.0071876966 -0.04266968 0.02278993 -0.023170052 0.046435457 0.032029252 0.08002154 -0.013530559 0.074684545 0.012095769 0.06829099 -0.014985388 0.011011663
싶 0.04943982 -0.040702436 -0.020026049 0.06701522 0.06409286 0.25738934 0.030903028 0.029616939 0.0077514 -0.034972887 -0.050236903 0.57989895 0.0117434785 0.0009362765 -0.028625768 0.079574116
사람 0.042988673 0.0789429 0.02273063 0.17550032 0.043628115 -0.14770271 0.0239136 0.062207513 -0.09834888 0.11070605 0.040718533 -0.20289406 0.10592523 0.014371287 -0.028396826 0.0022246158
듯 -0.028496489 -0.04538755 0.035885688 -0.04182098 -0.014877683 -0.04821313 -0.05685497 -0.013037765 -0.142293 -0.0121220555 0.004099477 -0.004491491 -0.047857538 0.027963277 0.016261874 0.025561875
때 0.03797476 0.084446885 -0.0856208 0.12352407 0.029356748 0.10407627 0.011349492 -0.029160175 0.0047214855 0.073407836 -0.021306174 -0.0073929825 0.047749754 0.07743399 -0.058168095 -0.057272144
감동 0.2563732 0.042944282 -0.2549509 0.059033606 -0.32983246 0.04472196 0.23009972 0.12773056 0.24201423 0.13934435 0.05782061 0.043697607 0.16948818 0.2545955 -0.06329463 0.08818467
함 0.038191922 0.039818328 0.021985823 0.0049758074 -0.03490274 0.0023049102 -0.010879933 0.112006776 0.053542253 -0.0005263566 -0.06030115 0.07600157 -0.012604006 -0.024859808 -0.029488044 0.064368956
배우 -0.077241875 -0.038470287 0.053579308 0.14356326 -0.009359683 0.030756706 -0.075394385 -0.07784738 0.054275163 0.0075603356 0.048959456 -0.13528031 -0.0021355953 -0.0782761 0.041117538 0.0021937448
본 0.018888265 -0.008694043 -0.021812892 0.10891368 -0.028405527 0.05017402 0.059980284 0.0717827 0.00075233716 0.052669086 0.084137715 0.15454952 0.008073982 0.06283084 0.023051662 0.060628522
까지 -0.034912664 0.003829929 -0.0036621075 0.11507883 -0.044908192 0.02790479 0.112400986 -0.011416609 0.050121274 -0.083001666 0.03072222 0.058646534 0.074424505 -0.0045950627 -0.05707556 -0.031182539
뭐 -0.05073393 -0.040099643 0.113390654 -0.025459914 0.08516106 0.0510842 -0.13894579 -0.0643609 -0.06925484 -0.054661535 -0.06723091 0.015249683 -0.099329695 -0.16724737 0.028549664 -0.041811723
알 -0.054874055 -0.023343489 0.049424775 0.12691328 -0.03470118 -0.030983366 -0.004943429 -0.06534041 0.032877266 -0.0035299263 -0.0069307927 -0.09464564 0.013585001 -0.0024905377 0.08897667 0.04016403
만들 -0.062792495 -0.062081166 0.06553343 0.09780791 -0.15385973 0.20523848 0.060106985 -0.030763047 0.24555205 -0.11503852 0.016786126 0.04615605 0.08687376 -0.06495065 -0.0037951823 0.05363518
내용 -0.0942402 -0.12766033 0.0033596882 -0.15075743 -0.20646578 -0.051589087 -0.15240362 -0.12991771 0.15519065 -0.14544214 0.004294262 0.08161849 -0.080177054 -0.075698204 0.1205917 -0.057955906
볼 0.09342835 0.14878011 -0.048676006 0.34748372 -0.009701036 0.044457927 0.15172741 0.13262568 0.07773303 0.097266704 0.0675858 0.07019705 0.12469164 0.044488195 -0.07324999 0.18244949
감독 -0.15145913 -0.12571836 0.117592745 -0.109124154 0.042951424 0.23484135 -0.16894254 -0.085929744 -0.012771116 -0.1362382 -0.025113825 0.031999066 -0.060736924 -0.16904944 0.14272407 -0.032907337
보다 -0.07488457 0.078087054 0.077361576 0.043446127 -0.10267832 -0.26639056 -0.07424237 -0.05774505 0.110246904 0.053543154 0.021534361 -0.39374784 -0.060432345 -0.057410967 0.07670134 -0.026102114
라 -0.076515235 -0.022920687 -0.022856131 0.09407051 -0.021798957 -0.0023264221 0.0024402123 -0.058337282 -0.038774036 0.00041633885 0.006590717 -0.059120163 0.029846126 -0.01822484 0.06443283 0.046927653
그냥 -0.16531976 -0.0073530404 0.052314296 -0.12796113 -0.11892749 0.21744442 -0.1459897 -0.18598792 -0.041992404 -0.12502226 -0.017069314 -0.18624493 -0.06923535 -0.051879577 0.08958684 -0.14494643
재미 -0.0592226 0.0896415 -0.014496684 -0.017415114 -0.2574274 0.04923196 0.010959241 0.068652935 0.16881675 0.0297467 -0.035164643 -0.2386054 0.12823302 -0.042295475 -0.0105280895 0.14120391
시간 -0.075013004 -0.081473574 0.052947875 0.0015230501 -0.09247168 0.049942974 -0.0525922 -0.07808081 0.052143503 -0.07100626 -0.045501396 -0.13015093 -0.09122689 -0.08872484 0.018960876 -0.077564925
지루 -0.2504003 -0.2198945 0.21845184 -0.5608885 0.032029122 -0.16204634 -0.2690499 -0.27165908 -0.21748495 -0.2568174 -0.058442116 -0.052779637 -0.39589024 -0.33200538 0.2666055 -0.3951887
중 0.04568583 0.038851924 -0.0044656224 -0.075908266 -0.13458002 0.0032660898 0.007107899 -0.0057255826 0.08129326 0.0532544 -0.016038619 -0.20869076 -0.043760106 0.0035121501 -0.044091854 0.00017801173
재미있 0.24345285 0.15778351 -0.14359586 0.25852782 -0.1943355 0.18019271 0.3358599 0.24812752 0.13862367 0.25573313 0.05089234 -0.1764285 0.2721137 0.24715696 -0.25491804 0.23315142
년 -0.0016412416 0.04854445 -0.08884925 0.08170042 -0.036184065 0.052499015 -0.017978132 0.045169372 -0.017476346 -0.016893437 0.06883077 -0.08437897 -0.034959793 0.050969668 0.03819286 0.011810502
10 0.30037165 0.23914304 -0.19298185 0.6507358 -0.0028855696 0.35082126 0.2645351 0.2117682 0.2789948 0.30198365 0.007022186 0.88715285 0.34046698 0.16128786 -0.17449296 0.43357167
였 0.041835982 0.13157648 -0.022499736 0.0032024917 -0.013116067 0.029871365 0.059609875 0.09886537 -0.010180524 0.055082534 0.047623772 0.07139023 -0.021081097 0.016675089 -0.05255883 0.04242811
잼 0.066463694 0.14219841 -0.18911836 0.04043633 -0.21749265 0.3745497 0.06080393 0.025094675 0.18723284 0.13564588 -0.11166766 -0.10077347 0.27119464 0.16597356 -0.12272595 0.10856888
사랑 0.19520396 0.18714283 -0.21545604 0.18011986 -0.08799673 0.0030624527 0.25084692 0.15092291 0.08397281 0.23224178 0.08307595 -0.026241984 0.07650891 0.2461074 -0.19262883 0.1007361
못 -0.16551098 -0.13942571 0.10918241 -0.11624053 0.087926134 -0.025966002 -0.2532133 -0.16181886 -0.21235579 -0.23433435 0.11274489 -0.14943609 -0.23008168 -0.21093991 0.17032456 -0.23450185
냐 -0.24242824 -0.15437186 0.18710998 -0.07568919 0.036736593 -0.07635333 -0.0734895 -0.14568819 0.017182112 -0.10499118 -0.015586287 -0.16382611 -0.029053006 -0.22848298 0.029729169 -0.0668525
재미없 -0.37536994 -0.27242923 0.35254446 -0.32846177 0.3654822 -0.10882212 -0.4173704 -0.28628644 -0.35406283 -0.44623867 -0.0845109 0.17521162 -0.41860864 -0.4504828 0.4202266 -0.23151031
쓰레기 -0.32688442 -0.44891712 0.29114252 -0.46302906 0.07660564 -0.106586896 -0.35182205 -0.42323902 -0.27338633 -0.4261683 -0.074090116 0.18256317 -0.38438398 -0.47470883 0.3805344 -0.3421121
서 -0.025574053 0.039162636 0.005306365 -0.014105297 -0.04915365 -0.22101718 -0.076562054 -0.002880915 0.04042716 0.03266463 0.07209215 -0.017653251 -0.026371945 0.004037993 0.027734952 0.00044606233
2 -0.01381709 -0.015577191 0.040883124 -0.05092946 -0.07166069 -0.15605927 -0.056760747 -0.010211821 -0.05622146 -0.100580215 -0.04689317 -0.048576947 -0.014868359 -0.02781204 0.0999879 -0.08073261
라고 -0.08691949 -0.049074773 0.094379105 -0.0116751455 0.07545109 -0.14981359 -0.03134101 -0.11230167 0.008308129 0.029795244 -0.031748354 -0.17254128 -0.018047947 -0.12698068 -0.016140757 0.014237023
야 0.08091446 -0.07723022 0.060948525 -0.042438418 -0.017765023 0.005925784 0.023168571 0.04910964 -0.008888009 -0.022417715 -0.039797824 0.016049396 -0.053874254 -0.033237092 -0.036433082 -0.047905702
니 -0.08752051 -0.02153425 0.05103014 -0.04355856 -0.03048071 -0.0895477 -0.09263309 -0.04355167 0.015227665 -0.03379961 0.022228776 -0.22218639 -0.0407914 -0.05689905 0.08538888 0.02521513
면서 0.10577124 0.06775499 -0.10839394 0.0852493 -0.11829656 -0.05204587 0.0069179935 0.033439122 -0.050979704 0.0780211 -0.05985574 -0.017354487 0.0453362 0.08351177 0.00034401484 0.101750724
번 0.22069965 -0.058667988 -0.029554827 0.10077563 0.0011037115 -0.10732111 0.08224254 0.09081174 0.081795745 0.0815563 0.01017635 0.13847022 0.058152005 0.1143444 -0.16878971 0.17204542
다시 0.06523733 0.17015105 -0.13461506 0.1603257 -0.101838 -0.04339267 0.19952233 0.10438947 0.06417565 0.114636324 0.05845569 -0.18258183 0.15979941 0.09355748 -0.12110438 0.009543473
나오 -0.0075750146 -0.062464386 -0.038370926 -0.03308579 0.03870812 0.034851972 0.00766746 0.04848681 0.03628934 -0.06569139 0.004089947 0.13108729 0.018661205 -0.054514267 -0.041254677 -0.08505085
작품 0.0709917 0.03367082 -0.077078015 0.10163622 0.0123693785 0.042298447 0.047819123 0.057797525 0.0505103 0.04795247 -0.0012892456 0.1009229 0.041732706 0.01964393 0.045803774 0.09765528
이거 -0.023748182 0.04392922 -0.017110508 0.026210234 -0.036235467 0.040510293 0.06562383 0.015425137 -0.0794017 -0.009968524 0.020366551 -0.043160636 0.008531153 0.0076797986 -0.01190908 -0.033533424
하나 -0.039064925 -0.058843397 0.032135386 0.048855357 -0.012247541 -0.06217709 -0.06840527 -0.0731522 -0.008677424 -0.0060812957 0.06085476 -0.062934354 -0.009571323 -0.048154227 0.025027415 0.03602203
줄 0.023609862 0.036451742 0.060693033 0.097148605 -0.07577204 -0.17881802 0.019156558 -0.020195533 -0.016361808 -0.013517903 0.070070185 -0.060724936 0.006428256 -0.01929699 -0.0030822863 0.06854821
해서 -0.064819284 0.004070998 0.014687557 0.15741909 -0.19814245 -0.01889479 -0.062033944 -0.037354603 0.020093836 -0.033839256 0.05494786 -0.01873922 0.052562807 0.02299278 0.111342385 0.041030787
개 -0.1331002 0.0034987258 0.047098808 -0.09779229 -0.04062328 0.24504946 -0.062126324 -0.05654737 0.07068477 -0.042799912 0.038432155 -0.107885964 0.027588798 -0.07063712 0.026586754 -0.09799862
남 0.0064858953 0.011406344 0.03080904 -0.21716389 -0.06758074 -0.01957205 -0.088544086 -0.009713996 -0.02504655 -0.0062129367 -0.13773367 0.09571044 -0.02610702 0.017451083 0.12934999 0.045648865
정도 -0.0916027 -0.04713514 0.031722307 -0.1089271 -0.08366589 -0.08454966 0.00472475 -0.062049836 0.02578243 -0.05998477 0.045374244 -0.20481084 -0.0024144691 -0.028616816 -0.029714212 -0.07883192
마지막 0.1378206 0.05824761 -0.07746492 0.0115265 -0.039335486 0.061625157 0.09265609 0.16827591 0.046501983 0.12971048 -0.011107735 0.05925489 0.09255768 0.124633 -0.14062898 -0.0074899457
끝 -0.04251464 -0.07795646 0.048524246 -0.08904822 0.05401776 0.026775181 -0.10081154 -0.121811755 -0.015450847 -0.11238303 0.0021145195 0.0589326 -0.13896464 -0.052807715 -0.010086162 -0.14566267
이건 -0.36305538 -0.18073927 0.09808088 -0.03542575 -0.3180725 -0.21560304 -0.115418024 -0.32662252 0.38009858 -0.10925876 0.099003114 -0.39150122 0.11721909 -0.067271434 0.019082667 -0.07836254
액션 0.05227069 -0.006256693 -0.082627766 -0.084060095 -0.10253094 -0.028491639 0.058476344 0.044763662 0.07308891 0.004961754 0.10073061 0.00023885227 -0.012141478 0.04206048 -0.07370275 0.051782973
임 0.015547843 0.0029342987 -0.029825868 -0.06968362 -0.11648692 0.2046321 0.11154292 0.08387144 -0.0063595874 0.064376555 -0.026666822 0.10760955 0.08563989 0.019837152 -0.0184752 0.09350599
ㅋ 0.052164145 0.06408318 -0.028204273 0.13551709 0.0030350073 0.05464977 0.04155661 0.13419217 0.037559167 0.0910912 0.016382793 0.35573733 0.009385295 0.032797646 0.0125295 0.10927304
3 -0.0556321 -0.045255505 0.033542972 -0.052955892 0.04788837 -0.06848107 -0.05839729 -0.08409266 0.07716916 -0.10445983 -0.02278195 -0.03435114 -0.08882477 -0.042388506 0.040031493 -0.076127455
기대 -0.03011015 -0.0940737 0.039534654 0.19775578 -0.12652618 -0.16300632 0.03763598 -0.046998873 0.2338436 0.011197603 0.09518725 0.13250561 0.102576785 0.10411182 0.07303329 0.030802794
입니다 0.06264326 0.13523528 -0.11619499 0.038307372 0.045372277 0.31108606 0.010403013 0.17977029 -0.056509804 0.054710902 -0.103690945 0.34073213 0.07884686 0.0728876 -0.01901396 0.1033773
건 -0.0864927 -0.044422843 0.13432078 0.07601554 0.055544067 -0.20852287 0.03263666 0.0025178434 -0.04201719 -0.020348713 -0.037257873 -0.051836632 -0.037120905 -0.04869788 0.0037585064 -0.015593
라는 -0.040366586 0.013242726 -0.0035871249 0.11453374 0.06858968 0.1410011 0.024197156 0.048917048 -0.019173568 0.030800486 -0.04747795 0.0148964645 0.07520083 -0.026083307 -0.01805265 0.012447872
분 -0.15164493 -0.104723744 0.16115797 -0.039813124 0.06861719 -0.22921935 -0.072932914 -0.14469147 -0.022958566 -0.027495144 0.05135049 -0.36396307 -0.05200442 -0.07660452 0.09214938 -0.117632985
완전 -0.016168416 0.00028731287 0.014690141 -0.03615981 -0.26744404 -0.080242366 0.011955764 -0.050521895 0.13544165 -0.04430618 -0.109396525 -0.34459788 0.045618627 -0.013984982 0.07885953 0.040443096
다는 0.042723734 0.057969466 0.013768409 -0.016618157 0.09485992 -0.26481095 -0.027010132 0.14961256 -0.05019269 0.022835733 -0.07306431 0.08097798 -0.080422856 -0.004463072 -0.006837664 0.15089343
참 -0.11591191 0.005998008 0.016179772 -0.0110161165 -0.0247683 -0.11702547 -0.09534248 -0.06540906 0.01755342 -0.02691073 -0.10361545 0.14664342 -0.105530106 -0.048342377 0.09300572 -0.046418626
많 0.0077886665 0.0659374 -0.047709677 -0.017202567 -0.012644824 -0.16572723 0.015345261 0.07100719 -0.008033683 0.07793322 0.08063399 -0.22136034 -0.000706287 0.082867004 -0.02141173 0.041088294
처음 -0.043770995 -0.06289757 -0.024231574 -0.11962265 -0.024493353 0.2417454 -0.018675124 -0.040221576 0.01658537 0.015210995 0.031891275 0.3659494 0.004031835 0.010240814 0.06259881 -0.063669585
장면 0.023056554 0.029448232 0.05048892 0.17710364 0.006385085 -0.013685929 0.021760516 0.019668605 0.014907837 0.0679357 0.020576907 0.09746704 0.037385628 -0.021664968 0.04177567 0.0509896
대 -0.08192019 -0.050373163 0.026255593 -0.027277155 0.029411536 -0.17985672 -0.092570275 -0.03786222 -0.043040145 -0.06588117 0.14135511 -0.1336359 -0.016713321 0.004622726 -0.009405272 0.033460215
아깝 -0.09957669 -0.21866816 0.054767933 -0.4222133 0.06515986 -0.017464178 -0.2759819 -0.13732818 -0.21411213 -0.22349396 -0.11179631 0.05750813 -0.24334197 -0.17108384 0.09425029 -0.34292808
다가 -0.15409617 -0.16496184 0.19305709 0.0047786273 -0.1889192 -0.21891399 -0.06676096 -0.16849992 -0.03536558 -0.09783518 -0.034462493 -0.13427477 -0.07288815 -0.10828346 0.103354506 -0.06590286
으면 -0.00780093 -0.031237464 0.06660743 -0.04373778 0.17081057 -0.045911565 -0.06654731 0.022637764 -0.10779972 -0.06710917 -0.037501853 -0.00310861 -0.007135823 -0.045052323 -0.045454647 0.036480963
지금 0.033625152 0.07938451 -0.052160397 0.06332165 -0.040036336 -0.08219828 0.120527096 -0.005344444 0.03335604 0.0882131 0.06931412 -0.14905421 0.022158965 0.062412884 -0.10389449 -0.027055772
모르 0.02285232 -0.032807253 -0.044999324 0.13576648 -0.23424193 -0.1348054 0.09071502 0.039554056 0.06123324 0.009312685 0.106607825 -0.29984823 -0.02563811 0.062110893 0.030647546 -0.06937706
이렇게 -0.06138651 -0.11301994 0.0225091 -0.04234149 -0.16238323 -0.037305858 0.067717604 -0.05128723 0.20869412 -0.027107563 -0.058415677 -0.15658712 0.10107576 -0.04609867 0.007219217 0.006005623
' -0.04261257 0.012239864 0.03083412 0.23993634 0.03610597 -0.050786234 0.014441393 -0.02352981 0.011586782 0.020674285 0.073402144 -0.12917008 0.0157059 0.0024435273 0.031205513 0.044933766
편 -0.005546524 0.10212349 -0.09155181 0.14900008 -0.0016916192 0.055325624 0.07535391 -0.03860689 0.060915425 0.027263258 0.14652494 0.13283753 0.002079594 0.063294016 0.016256368 0.062905
일 -0.008958204 -0.023876416 0.016997365 0.12070861 -0.055341557 -0.078735046 0.022036104 -0.07526679 0.0035185704 -0.032705437 0.11486218 -0.103340454 0.010823083 0.024135374 0.01797069 0.038310356
돈 -0.21572298 -0.21401176 0.11662271 -0.082810365 0.17709593 0.3968438 -0.242932 -0.18973625 -0.27170172 -0.18708128 -0.029278984 0.34943065 -0.14580876 -0.24767663 0.20539308 -0.14026283
이게 -0.084483154 0.015576978 0.09002871 0.028472316 0.019766122 -0.079417236 -0.02755817 -0.0450741 -0.04825982 -0.06655195 0.06294357 -0.035221107 -0.091183536 -0.1043303 0.13832626 -0.00047656597
성 -0.079834476 -0.017191509 -0.0011090563 -0.009030203 -0.12262545 -0.035417557 -0.069416024 -0.020006757 -0.059669998 -0.08468461 0.028073478 -0.17235643 -0.028938552 -0.048504293 0.05879801 -0.1564067
느낌 -0.016874172 -0.03841117 -0.012293674 -0.09015133 -0.19389682 -0.03267879 -0.0026046892 0.019682456 -0.02571726 -0.051281717 0.042877477 -0.00836545 -0.025261544 -0.019344019 0.03576854 -0.041817915
시 0.028638702 -0.06459983 0.05502119 0.00947087 0.08509249 -0.20043361 0.0071098213 0.033289406 -0.15119715 0.004974452 -0.013661832 -0.020620264 -0.04726796 -0.0033554877 0.020879917 -0.00925577
이야기 0.092229106 0.018337447 -0.024722062 0.2982081 -0.16595675 -0.11896436 0.0034030685 0.056355357 0.15336162 0.0067436015 -0.07054592 -0.046558723 -0.046956237 0.09394292 0.052191462 0.04115771
최악 -0.37719542 -0.49029672 0.49055374 -0.46266457 0.11572117 -0.023420755 -0.06314524 -0.41041392 -0.18258606 -0.39394715 -0.37023783 0.33938843 -0.40735683 -0.3959661 0.37227398 -0.37489805
된 0.102727875 0.028305206 -0.0817053 0.03768419 -0.021137556 -0.03347073 -0.11659307 0.014152648 -0.043703906 0.060396332 0.041283082 0.24023779 -0.0656082 0.047244627 0.029624224 0.047122106
봐도 0.22067711 -0.080387935 -0.14849633 -0.19305281 -0.04845557 0.09907124 0.04675649 0.10220526 0.036575835 0.120615914 -0.087443165 0.12292756 0.10602984 0.087418765 -0.1455352 0.10545256
님 0.1141229 0.09406498 -0.011365783 0.06364447 -0.03628109 0.02373334 0.09991684 0.027199166 0.009381956 0.048284847 0.04956375 0.09117016 0.035787012 0.13030502 -0.037721783 0.018538127
어서 0.0037841857 -0.09150451 0.026727876 -0.09100016 0.05118769 0.036817428 -0.051124573 -0.022001825 -0.0063402234 -0.048517317 -0.038699087 0.08415726 -0.042486083 -0.084242016 -0.063244656 0.009617791
애 -0.002757267 -0.10192744 0.06860998 -0.1807358 0.08106177 0.13939765 -0.06857427 0.035246555 -0.117914476 -0.077716336 0.00557498 0.23362675 -0.03614682 -0.11910489 -0.017307715 -0.1306571
전 -0.020487592 0.016265005 -0.052281696 0.07525833 -0.056258112 -0.050054647 0.0076040863 -0.05963931 0.12603018 -0.009895678 0.05733809 -0.0067930743 -0.0064355666 0.006511266 0.07412229 0.07040537
넘 -0.0052999617 0.07532362 -0.08975546 -0.03656384 -0.07137673 -0.03978927 -0.029084658 0.03564041 0.06295317 0.039564047 -0.024458874 -0.2506103 0.015425115 0.05561881 -0.06365146 0.016132344
ㅠㅠ 0.10117613 0.12639001 -0.038778335 0.05164532 -0.10137919 0.030134704 0.081335954 0.12822558 -0.13585319 0.052452195 0.021991387 -0.042454287 0.062081948 0.1181882 -0.033427395 0.061693054
인데 0.05927512 -0.012025245 0.022484919 0.044409126 -0.10819567 -0.26588622 -0.1302568 0.029404854 0.07522006 0.021801999 0.16173574 -0.060159262 -0.2196591 0.045324698 0.13373768 0.020889819
다고 -0.06671713 -0.026961021 0.19613793 0.11776664 -0.13276026 -0.39679086 0.06284942 -0.19725306 0.02110463 0.06292126 0.086635 -0.2805245 -0.08083398 -0.18102482 0.1919877 0.06788232
이해 -0.028383028 0.0012144055 0.08679603 0.011721177 -0.017361272 -0.18405914 0.0025565913 -0.007500693 0.060329862 0.009120435 0.02846884 -0.0631356 -0.06392687 -0.064694986 0.03303629 -0.056735657
별로 -0.26315963 -0.37766618 0.18799658 -0.30171737 0.12658389 0.06818834 -0.31603363 -0.34268576 -0.16186816 -0.3214807 -0.08766691 0.24983507 -0.2093308 -0.36523896 0.20139372 -0.3102231
그리고 0.04116388 0.037119143 -0.116696686 0.012806128 -0.1576935 -0.04628972 0.06795463 0.07700612 0.09769827 0.07116588 -0.12224377 0.04107568 0.002386837 0.16354796 -0.052375313 0.056148484
명작 0.26995072 0.33643478 -0.28150374 0.1664135 -0.13267744 0.19748966 0.37813705 0.37747914 0.14459187 0.40055114 0.005355699 -0.30713412 0.4151273 0.33155313 -0.33768564 0.2457515
여자 -0.091758974 -0.015373395 0.08171116 0.068302915 0.06355289 0.15791889 -0.076464765 -0.024551872 -0.031164953 -0.06787684 0.01955852 0.121559605 -0.018944435 -0.05373283 0.011675392 -0.00081450015
^^ 0.15401396 0.1355075 -0.21547149 0.01994515 -0.1132099 0.15651247 0.032851502 0.09835138 0.12052617 0.14200068 0.061483417 -0.093907036 0.16856341 0.16770965 -0.12936677 0.17232537
역시 0.124903396 0.056090813 -0.08731407 0.032917786 -0.20394535 -0.03370433 0.11091905 0.17816545 0.10837882 0.14387873 0.05037848 0.10060189 -0.0034659132 0.18820134 0.030017437 0.117492
난 -0.06874454 0.1293851 -0.092611514 0.02764871 -0.19580911 0.11069541 -0.018296286 -0.04156158 0.22544856 0.058281813 0.03260997 -0.3643314 0.1329641 0.020224579 -0.058493357 -0.02124907
이상 -0.11612147 -0.06962935 -0.03061891 -0.12634555 -0.09816563 0.1348393 -0.059705477 -0.05770517 0.15320663 -0.038984694 0.04737828 -0.11219155 0.01026076 0.057220437 -0.032961506 -0.091296904
또 0.13215388 0.011650579 -0.05112063 -0.042833854 -0.028306551 -0.09872777 0.04525889 0.12790553 -0.00236151 0.105762504 -0.036480065 0.1841033 0.01832382 0.07283521 -0.028165383 0.032174364
걸 -0.024875833 -0.02680413 -0.006378423 -0.015333654 0.003805835 -0.09346746 -0.023631794 -0.0028710424 -0.056140095 -0.030604264 0.020309245 -0.0073336354 -0.099544354 -0.07104189 0.04213176 -0.0012977901
한국 -0.031854723 0.12018828 0.032523107 0.12983279 -0.0050516943 -0.09892165 -0.06241587 0.0692471 0.025290132 0.05838238 0.10723644 -0.07273209 -0.038557813 -0.030430181 0.1133334 0.08838551
는지 -0.017329963 -0.07219737 0.111574456 0.008985319 0.011963909 -0.090777606 0.042001743 -0.04145432 -0.063762 -0.014802711 -0.028373905 -0.20154531 0.004286488 -0.10969475 0.046209116 -0.13539243
많이 -0.05796356 0.0047977725 0.010925697 -0.010421799 -0.052510012 -0.071564525 -0.046250373 0.0017847761 0.08113703 -0.046217576 0.026765011 -0.04706423 -0.03278668 -0.023840709 -0.0349548 0.0074643497
에게 0.035056558 0.12466676 -0.09476016 0.07211341 -0.014840041 0.032464683 0.015614342 0.07301511 -0.009812124 0.08642162 0.02378869 0.035891347 0.024612824 0.063982986 -0.017684113 0.07887276
부터 -0.012714486 0.07159163 0.04074714 0.101028375 -0.13303047 -0.037389822 0.014917857 -0.061769553 0.1422888 -0.014575147 0.0011379344 -0.095485866 -0.027850227 0.031894542 -0.022123806 -0.018718742
만든 -0.058263324 -0.046764776 -0.03672611 0.0057746847 -0.20222093 0.24848966 0.009372392 -0.054475095 0.2525663 0.0041565215 0.060100015 0.17480558 0.0051513296 -0.011058623 -0.02919421 0.029060092
주인공 -0.0074412967 -0.089507125 0.029273596 0.039896566 -0.06510954 -0.070915624 -0.025594631 -0.06681034 0.055803083 -0.083365746 -0.0125783505 -0.025455294 -0.011036562 -0.053111363 0.06869767 -0.06952264
받 0.026626026 0.073279 -0.029581621 0.02466321 -0.057212096 0.11404276 0.035383932 -0.01045671 0.01598754 0.029012863 -0.0682793 -0.089993075 0.0767772 0.0085279215 -0.04175631 0.006847581
합니다 0.0045916704 0.16181056 -0.10976304 0.13634144 -0.058270976 0.11419669 0.063165605 0.055857465 0.08821885 0.07306821 -0.10390309 0.22003861 -0.015512989 0.029837064 0.037649583 0.08241389
우리 0.07178254 0.04684696 -0.11311244 0.044979353 -0.029459205 0.056053247 0.053439137 0.06284689 0.074815355 0.10288946 -0.010002081 -0.021087473 0.22692084 0.08516664 -0.09908752 0.109107204
두 0.019349243 -0.1022438 0.013750035 -0.06341114 -0.0030420378 -0.034381755 -0.07388391 0.026497586 0.11330578 -0.025429802 -0.004225001 0.2937621 -0.029929684 0.025726894 -0.071265936 0.001741415
살 0.08668982 0.16338767 -0.06357715 0.115509994 0.026538098 -0.1316961 0.061060708 0.17244963 -0.019384548 0.038405348 0.10321934 0.12553923 -0.059138328 0.08845203 0.017431417 0.014274746
!! -0.049195413 -0.11121008 -0.009791377 0.08021145 0.010608699 0.091937535 -0.045392472 -0.050245885 0.07628154 -0.084882855 0.0063896617 0.26265472 0.07618032 -0.06413256 0.021365378 0.08457553
길 0.024135463 0.054312132 -0.057545416 -0.031955127 0.03285918 0.004859233 -0.025660552 0.04344227 -0.09250545 0.042407047 -0.00243701 0.1685694 0.03696297 0.09339812 -0.044518813 -0.025202848
엔 -0.02951608 -0.031109016 0.015386326 0.08648034 0.026508441 -0.08536087 -0.039350245 -0.029062662 -0.06429181 -0.015031963 0.11220564 0.14303789 -0.0751028 0.025958996 0.107212946 0.012246261
괜찮 0.20317145 0.07139224 -0.1557593 0.16260436 -0.12765189 0.100633554 0.11537564 0.11576742 0.15169685 0.23593888 0.10855225 -0.10137793 0.31714907 0.16515072 -0.2234131 0.16848648
기억 0.09599267 0.12132679 -0.12036101 0.20787273 -0.15368736 0.0928281 0.07586722 0.048295 0.102969736 0.16055614 -0.01810536 0.23003227 0.07556106 0.12846948 -0.088501245 0.10816224
연출 -0.07100644 -0.10887383 0.028367177 0.009864809 -0.046280146 0.06411979 -0.14386934 -0.107621185 0.107497975 -0.046808325 -0.0020080374 -0.005936966 -0.048067242 -0.10170193 0.04223619 0.10504248
한다 -0.04451779 0.060179405 -0.06764047 0.062288344 -0.04121609 0.2859187 -0.063476205 -0.060478732 0.21571955 -0.021345241 0.021045834 0.09271779 0.11967376 0.02292354 -0.0064567574 0.06399909
때문 -0.056596614 0.09547552 -0.052327543 0.18937753 0.009008695 -0.026266355 0.056768246 -0.002181095 0.111722544 0.047913756 0.04344199 0.008045813 0.033514153 0.04323024 0.0058607883 0.15653558
이나 -0.0917285 -0.09877903 0.09256681 0.025808834 -0.03545655 -0.072334476 -0.086732306 -0.094246425 -0.05289336 -0.06724688 -0.024094727 0.026259072 -0.05628409 -0.02668801 0.13831042 0.047670595
ㅎㅎ 0.10899886 0.22677532 -0.14870937 0.15687628 -0.0020736952 0.16689435 0.039795514 0.10470711 -0.015602734 0.08353885 0.016783198 0.036738712 -0.057879623 0.083632134 -0.03857527 -0.0041800044
요 0.124135844 0.061647628 -0.11013986 -0.18852206 0.15515506 0.30504394 0.021404956 0.18144122 -0.19538234 0.10916064 -0.01127149 0.38001403 -0.002350403 0.06013017 -0.06585861 -0.02369973
저 -0.00023260922 0.038700383 -0.12355259 0.14044808 -0.051772047 0.14089839 0.06908528 0.011690747 0.1358744 0.026760045 0.054608446 -0.047374625 0.07863124 0.06140448 -0.03881645 0.11448537
재 0.044102464 -0.01525901 -0.14809872 -0.0578412 -0.041247144 0.26914802 0.06428227 0.128138 0.113402754 0.042169135 -0.05550549 -0.00079437695 0.118100606 0.045716368 -0.1487947 0.009737167
꼭 0.1751046 0.2126147 -0.17479219 0.12724824 -0.123035066 0.1589165 0.20928735 0.23661034 0.16503032 0.23440394 0.03535863 -0.024766015 0.1474992 0.23471156 -0.27958435 0.08120642
랑 -0.025865411 -0.0011616447 0.043495916 0.24838793 0.04568102 -0.22680877 -0.059471928 -0.07132288 0.08481248 -0.05898528 0.08731219 0.044853184 -0.0560264 -0.015630672 0.05952957 -0.0020204664
며 0.00013683907 -0.024962025 -0.08772494 -0.19965588 -0.10519121 0.1387858 0.068874896 -0.021435702 0.11146035 0.030961046 0.04083317 0.0017408661 0.11998921 0.059405115 -0.11096126 -0.014768959
현실 0.13129964 0.22477086 -0.17337002 0.10295755 -0.052839324 0.24489221 0.06401227 0.0806659 0.044415843 0.19152173 -0.019107323 0.07650546 0.20049919 0.059654083 -0.12303765 0.05313469
긴 -0.14187358 -0.024502803 0.073150635 0.070835195 0.058175698 -0.30157524 -0.060163237 -0.15202175 -0.021940686 -0.065803066 0.14551763 -0.32233733 -0.017710363 -0.14979152 -0.1267679 0.0020559668
ㅡㅡ -0.16243112 -0.085445814 0.14416933 -0.027147114 0.0599554 -0.012038829 -0.18629353 -0.13076162 -0.1851027 -0.17975329 -0.051583026 0.10716388 -0.21245208 -0.14758134 0.23644139 -0.20368218
무슨 -0.06687368 -0.12499864 0.0706097 -0.17128743 -0.018416248 0.118159495 -0.20225841 -0.088656016 -0.040791694 -0.14921148 -0.029739853 0.18266538 -0.04972462 -0.122053884 0.09555879 -0.07020938
내내 -0.1186142 -0.032545596 -0.010202323 -0.065002695 -0.07408006 0.16423233 -0.041117232 -0.08229996 0.010413856 -0.026790977 -0.07704597 -0.20952979 0.047477197 -0.107931584 0.032203693 -0.12301998
결말 -0.028367778 0.0010746678 -0.06477537 -0.13404943 0.09006952 0.10526951 -0.10299891 0.013475723 -0.17928308 -0.004163056 0.0122130485 0.11901557 -0.07086605 -0.07862563 0.027670668 -0.07879263
죽 -0.013422334 0.01084762 -0.011324783 -0.04170656 -0.037485503 0.27686295 -0.086294465 0.02800408 0.051191684 -0.067543924 0.084502116 0.35622257 -0.06846707 -0.04070434 0.015643934 -0.013755472
남자 0.020518528 -0.013640658 -0.042496964 -0.07474502 -0.026558744 -0.050142188 -0.009002839 0.05502225 -0.09018109 0.004395252 0.04214188 0.022104524 -0.013652375 0.010193948 0.048005108 0.030881675
세요 -0.018733013 0.06306126 -0.03166953 0.019109314 -0.036207125 0.09220242 -0.053989388 -0.08313799 0.010758085 0.029878471 -0.095355086 -0.022319656 -0.046301976 -0.066324815 0.09237455 -0.08429814
전개 -0.03977476 -0.05953818 0.025337402 -0.005687309 -0.26953366 0.01767351 -0.00972209 -0.069854915 0.13278024 -0.044890568 -0.072347574 -0.07897213 -0.010207923 -0.049864586 0.10424353 -0.056228947
마음 0.15526842 0.13946 -0.18110925 0.1054552 -0.09889934 0.18398371 0.12748106 0.15938608 0.0982061 0.20074634 -0.06431064 0.08668408 0.06137933 0.18358445 -0.07080223 0.028009944
소재 -0.020546757 -0.18764049 0.17499764 0.11726794 0.039400678 -0.27924636 0.049028307 -0.08643999 0.024918085 -0.03210814 0.015777985 -0.03876551 -0.080613956 -0.06040138 0.10329935 0.09868853
속 -0.001956716 0.06559043 -0.032850068 0.059593927 -0.040451862 -0.009764463 0.030253025 -0.07292413 0.041916944 0.05171263 -0.07306959 0.18232082 0.029314855 -0.06882688 0.033943873 0.024460327
공포 -0.09011594 0.0077554514 0.041875985 0.08571755 -0.03804071 -0.14793019 0.02099687 -0.12493289 0.058891453 -0.041109066 -0.07223345 -0.1172389 0.023322528 -0.015857477 0.037127912 0.0757236
아서 -0.017337669 -0.096620224 0.07113539 -0.0057076574 -0.11318249 -0.16490752 -0.0666227 -0.08171371 0.07854839 -0.051334742 -0.085249 -0.11171087 -0.013410557 -0.02558887 0.15088886 -0.013583207
다른 0.092513174 0.04997382 -0.038378492 -0.06449673 0.063252635 0.08165605 0.031528357 0.07685986 -0.07575374 0.0076797158 0.016586546 0.13600177 -0.031217653 0.08626741 -0.0058971643 -0.009692381
씨 -0.044370137 0.020140689 -0.02417979 -0.19318062 0.03436595 0.24827377 -0.09145471 -0.02690409 -0.09304252 0.039460063 -0.1285062 0.051674075 0.011966461 -0.019582309 0.0150883505 -0.06585404
인생 0.24351534 0.21669695 -0.18015505 0.23028615 -0.15399513 0.024606038 0.14127962 0.18656863 0.10890567 0.27560645 0.11172766 0.006185383 0.23038173 0.26537165 -0.15057708 0.20644206
~~ -0.009667712 0.018506827 -8.453516e-05 0.13744704 -0.089205675 0.08511637 0.06804246 -0.024135057 0.16325314 0.033550173 -0.09203327 0.070468225 0.07666021 -0.0034168488 0.042395532 -0.07322354
짜증 -0.3622297 -0.31535444 0.4846006 -0.19268034 0.16068617 -0.1505555 -0.16610181 -0.3144579 -0.17691877 -0.29105935 -0.074654326 0.07391987 -0.23634882 -0.3139095 0.34209186 -0.15692635
짱 0.085106105 0.10398947 -0.09202348 0.053365577 -0.16246852 0.051149033 0.16427206 0.135597 0.1699846 0.1881294 0.07230999 -0.5684813 0.15567349 0.19414544 -0.12966251 0.14591424
뿐 -0.10286127 -0.23136716 0.12735786 -0.1988553 -0.055581342 -0.22330494 -0.107649334 -0.14904791 -0.048545178 -0.17738785 0.19720127 -0.1378054 -0.05181623 -0.043720625 0.063344866 -0.053599186
은데 -0.034927953 -0.039257474 -0.037140656 -0.2084746 -0.07203617 -0.01606134 -0.0618826 0.0592895 0.090438455 0.027004031 0.14537144 -0.068743 0.04024038 0.1028571 -0.062041316 0.029481806
별 -0.062484898 -0.067771055 0.13290283 -0.01770599 -0.04909428 -0.10351171 -0.037240673 -0.032306626 0.014156893 -0.08558346 -0.07528492 -0.19699517 -0.04177804 -0.10123489 0.18001813 -0.021642877
아요 0.03189835 0.029574692 -0.13163882 0.076439805 0.04884969 0.22953933 -0.0024691862 -0.010210427 -0.0599403 0.09494883 -0.13652594 0.36257082 0.026539894 -0.0052131494 -0.008414038 0.001986674
유치 -0.37118948 -0.22384061 0.37467793 -0.1315767 0.058000367 -0.22109476 -0.33768505 -0.43952274 -0.054806545 -0.32008097 -0.12326037 -0.025099583 -0.48334324 -0.35296807 0.27561823 -0.28485817
가장 -0.10537421 -0.013636308 -0.015633928 -0.011254896 -0.027683107 0.023669625 -0.05235958 -0.11000366 -0.042985473 -0.010530558 0.017100438 -0.44177955 0.06453159 -0.012133208 -0.021022439 -0.04681717
필요 0.26853618 0.38838783 -0.2424893 0.050461475 0.1973842 0.19904982 0.21866453 0.30708602 -0.14141178 0.33051327 0.0626605 0.56643003 0.06088853 0.16784401 -0.4295608 0.017313955
음악 0.10988099 0.03826995 -0.09132319 0.055312272 -0.034200586 -0.049992148 0.037053995 0.04372158 -0.041207418 0.055203125 0.045719605 -0.034059763 0.0881991 0.026448855 -0.06722172 0.039102178
) -0.023843084 -0.0009484083 -0.08828536 0.10057253 -0.05962214 0.06702203 0.0024621869 0.068501115 0.12924686 0.046440974 0.014103595 0.13637944 0.026763953 0.104507156 -0.0005246619 0.030588513
일본 -0.112028696 -0.027942257 0.037234053 0.031953912 0.13896808 0.1359079 -0.049066316 -0.0011297519 -0.0015414639 -0.044837225 0.04371478 0.16696267 -0.051802907 -0.0052130115 -0.060566425 -0.06599884
낮 0.104260415 0.3745284 -0.282211 -0.0466959 0.013402023 0.50215876 0.12564251 0.2364129 -0.050824944 0.28757575 0.12645866 -0.11636702 0.3550446 0.15790367 -0.3158226 -0.046877306
아이 0.09663592 0.07542113 -0.016523601 0.047296405 0.019210609 0.13974452 0.05935193 -0.009634492 -0.077032626 0.038160197 -0.1141817 0.10446493 0.093059495 -0.022999862 -0.0870831 -0.047084756
;; -0.13240846 -0.08345032 0.04712858 0.07080339 0.08303412 0.27594608 -0.07967682 -0.033962157 -0.11020992 -0.055505093 0.039148584 0.06355045 -0.04073133 -0.1508026 0.041821543 -0.05799656
오 -0.022930913 -0.019045794 0.009426295 -0.06894611 -0.040084377 0.12864405 -0.031500034 0.059695885 0.025533643 0.054308817 -0.03465554 0.13612716 -0.05150061 -0.0004698568 0.0096780285 0.101614036
반전 0.060297813 -0.051313285 -0.03919975 -0.04027551 -0.12568863 -0.047555123 0.0063556577 0.04166262 0.07513836 -0.03730074 0.07009703 -0.056782737 0.02748404 0.0574047 -0.01717897 -0.022134677
수준 -0.012990526 -0.19608034 0.17877227 -0.095879816 0.06357738 0.17571318 0.009675587 -0.07122485 -0.15271588 -0.1470585 0.012502235 0.3419171 -0.04071277 -0.091433406 0.09900525 -0.05621545
다니 0.05935847 0.0061627612 0.078120515 -0.019388389 -0.057427596 -0.20264864 0.07141946 0.06524938 -0.25098932 0.035652258 0.027029332 -0.15035497 -0.06897347 0.009195634 0.030247008 -0.08104525
웃 0.0035618024 0.115878716 -0.030580228 0.14483725 -0.09312581 0.14838949 0.039596446 -0.019841133 0.0071821655 0.000114377945 0.0010921673 0.038749315 0.028334128 0.03408931 0.021159546 -0.05383869
매력 0.077298 0.07531207 -0.09060802 0.31816903 -0.34555438 -0.08915313 0.16503875 0.02579308 0.27234218 0.12248467 0.016096627 -0.15790857 0.19356285 0.12258752 -0.06652172 0.13061956
맞 -0.048134 -0.117745 0.027892442 -0.07337469 -0.2028002 0.021185668 -0.014908882 -0.03615024 0.19676529 -0.07716147 -0.051374555 -0.0076003107 0.061475936 -0.037765913 0.031245705 0.06148287
인지 -0.01003251 -0.094283216 0.11606472 -0.06390467 0.000120437166 -0.118532345 -0.021211822 0.007816463 -0.12527257 -0.117481716 0.06130567 -0.057464287 -0.10210965 -0.13228895 0.06947613 -0.087291636
가슴 0.24484183 0.1905899 -0.18317139 0.027136452 0.02240325 0.385028 0.19466515 0.19847289 -0.040367313 0.18281849 -0.054303642 0.25072777 0.049885884 0.112010576 -0.22455786 0.058472425
없이 -0.15476216 0.034766275 0.020165369 0.13589162 -0.0691228 -0.2225135 -0.0134321945 -0.15088737 0.016437065 -0.052342944 0.093017496 -0.16159147 -0.109923616 -0.060208246 0.05929043 -0.057280395
원작 -0.030193308 -0.0875811 0.13087042 0.029648313 0.122611396 -0.11352006 -0.054853264 -0.1512362 -0.06806226 -0.16197953 0.014556268 0.1655947 -0.13957016 -0.17012466 0.08747749 -0.008530395
ㄷ 0.08648782 0.062900506 -0.044931892 -0.03843525 -0.010995563 -0.05280068 0.06028469 -0.013536074 -0.03757784 0.058936875 0.0012131963 0.03514854 0.023200406 0.027953451 -0.06180231 0.024718102
인간 0.12530011 0.024052085 -0.09021029 0.08534372 0.035065208 0.0061077187 0.08104572 0.14277665 0.026288921 0.06766818 0.20644456 0.02324647 0.0221147 0.06502039 -0.06719761 0.16844156
데 0.002647754 0.026114753 -0.07586425 -0.021902805 -0.00869012 -0.06780488 -0.10767913 -0.05296641 -0.01368724 0.011208045 0.0050586634 0.0099358065 -0.08651192 -0.04827796 0.010512104 0.01923788
굿 0.20618936 0.21874386 -0.27918017 0.025299404 -0.33764625 0.3618425 0.22329219 0.22558556 0.18698505 0.27879098 -0.2285463 0.2054758 0.26903746 0.1981556 -0.15734068 0.070863485
ㅠ 0.09125545 0.11096119 -0.054874413 0.140584 -0.00010859907 -0.0044606323 0.030055145 0.10283572 0.0077131707 0.1371366 0.0354648 0.008442067 0.08983646 0.09254266 -0.0984713 0.101080194
높 -0.067194015 -0.09686188 0.114137635 -0.14641382 0.015985511 0.028186027 -0.058210466 -0.0041188216 0.058266405 -0.072570816 -0.06915252 0.21559608 -0.10841318 -0.15200369 0.0045661484 -0.048940457
밋 0.119442105 0.17337248 -0.096193 0.104890004 -0.047833957 0.13744935 0.13188736 0.1583136 0.07105177 0.17849664 0.06327741 -0.5012517 0.3595985 0.159856 -0.19453865 0.2207415
( -0.05311293 -0.040264674 -0.005356281 0.021888355 0.06285542 0.057149187 -0.047684442 -0.021306705 -0.0041382336 -0.08272517 0.08286609 0.22163938 -0.047857404 -0.01256299 -0.011611807 0.046553474
만드 0.017464586 -0.028322691 0.009988241 0.17547785 -0.098409586 0.099346936 0.02029821 0.015601425 0.29878908 0.024253076 -0.10289279 0.21164581 0.002438514 -0.049239714 0.054728772 0.08510212
급 -0.016220108 0.055254217 0.0014766293 -0.13974547 -0.095973864 0.17097312 -0.055923328 0.009512823 -0.021344315 -0.05037277 -0.058805928 -0.081142224 0.0019330833 0.015582398 0.03154941 -0.12556279
눈물 0.14226925 0.15969868 -0.1982343 0.05935369 -0.1664296 0.1275326 0.21972759 0.19348942 0.11421142 0.23581819 0.105259605 -0.14764792 0.13313201 0.2210486 -0.19831708 0.047489014
보여 -0.010899403 0.073927045 0.018039936 0.06890047 -0.113682464 -0.09113456 0.08343382 0.017871458 0.060363002 0.015707688 -0.10068936 -0.05723676 -0.0043764203 0.029516097 -0.008811872 -0.06257589
준 0.05346027 0.12945099 0.030536795 0.18158889 0.08619972 -0.3323605 0.06643769 0.07623187 0.018828202 0.06582712 0.024073312 -0.26015708 -3.50981e-05 0.06511364 -0.1795163 0.15478721
찍 -0.22770703 -0.19543758 0.16494548 -0.15989588 0.0055443575 0.05273734 -0.04112754 -0.16812688 0.052173708 -0.17190017 0.05434469 -0.08320677 0.04793102 -0.09407886 0.057634324 -0.057235006
인가 0.014012794 -0.05002997 0.04436223 0.24551938 0.00820643 -0.013923181 0.0073279343 0.0045351535 -0.022743454 0.011398129 -0.06318049 -0.023281695 -0.01061389 -0.077161916 0.036195677 -0.0075863246
노 -0.20463419 -0.35226467 0.299128 -0.3787592 0.4570489 -0.088590704 -0.38099498 -0.18591644 -0.3782545 -0.3762463 -0.06938051 0.29305255 -0.55554193 -0.47767365 0.24171813 -0.27811006
을까 0.09535315 -0.003315701 -0.0396933 0.059444193 0.014075212 -0.092817925 0.13434923 0.04518386 -0.06222323 0.05192151 -0.04845767 0.0522051 0.04110955 0.055570897 -0.083599545 0.004010313
용 -0.071835265 0.109899305 0.026680447 0.062434588 0.029803362 0.25232288 -0.03914252 -0.012969987 -0.037618324 -0.03478091 0.00032904372 0.027370181 0.006630329 -0.083403245 0.018634973 -0.06920451
코미디 0.058532428 0.027315408 0.006818707 -0.02563383 -0.04096386 0.013756903 0.053314578 0.038940378 -0.029308945 -0.036756072 -0.042445004 0.13588487 -0.023264172 0.0020878834 0.0035991282 0.00023895263
마 -0.10218189 -0.10738722 0.14959103 -0.04561738 0.08411021 -0.19790334 -0.20481236 -0.00790701 -0.1671292 -0.05267019 -0.028268313 -0.07025644 -0.16856928 -0.12029526 0.18459366 -0.18226159
화 -0.12601554 -0.074182555 0.021808011 -0.103336796 0.026370915 0.08045564 -0.058329012 -0.058581185 0.040797792 -0.13831025 0.049111146 0.08020369 -0.066561826 -0.051121663 0.023667943 -0.04324484
신 0.0640528 0.09995892 -0.10461283 0.028435111 0.04033689 0.16563353 0.04370882 0.12810226 -0.057462044 0.079105735 -0.032969285 0.046312757 0.04254367 0.066875294 0.026335917 -0.015748557
모든 0.06519597 0.07762595 -0.014565812 0.0031701492 -0.12871638 -0.14150475 -0.025538191 0.062118802 0.13044424 0.14440511 -0.04963251 -0.28685176 0.06276827 0.028590728 -0.07587503 0.07615175
쓰 -0.06313371 -0.09021268 0.09137575 -0.041965045 0.024129413 0.07306857 -0.07766699 0.03181435 -0.07960762 8.987388e-05 -0.017282408 0.011485399 -0.011395361 -0.073470235 0.13003553 -0.030958803
여 -0.015485366 0.03169197 -0.0033424369 0.17666163 -0.08939118 -0.11547809 -0.060673747 -0.0970857 0.0028226373 0.039840356 -0.021711014 0.001795047 -0.06938788 0.00067659444 0.15662353 -0.027455948
5 0.081710115 0.010473707 0.0915864 0.20897715 0.009539127 -0.02630914 0.047864962 0.04901825 0.034551896 0.094587445 0.11505967 -0.13274959 0.16019024 0.012684797 -0.08384545 0.11623361
아직 0.110686824 0.059206024 -0.028038485 0.1770242 -0.059137203 -0.11293261 0.011243588 0.100026384 0.08300181 0.07362264 0.068690605 -0.20480824 0.036131013 0.09497425 -0.01899606 0.17594218
추천 0.09620097 0.0444016 -0.15832363 0.10199272 -0.110475294 0.1523748 0.10040199 0.0923035 0.1049642 0.13010794 -0.031516995 0.09806185 0.03273892 0.16577274 -0.038301606 0.096652284
처럼 0.054458357 0.04084983 -0.041128416 0.026291782 -0.033224937 -0.043815907 0.06307782 -0.017552 -0.017389476 0.039035264 -0.0512695 0.062570535 0.060502946 0.06497154 -0.08246567 -0.07276901
눈 -0.034406442 -0.022088477 0.055791855 -0.06005869 0.14439401 0.06011313 -0.01094357 0.047792308 -0.11476898 -0.07613213 0.048182458 -0.09688429 -0.0356196 -0.014833203 -0.049757715 -0.022740636
아닌 -0.25529155 -0.19255394 0.14157452 -0.091652684 -0.04516386 -0.36541584 -0.1927936 -0.2114486 0.059089024 -0.13477388 0.08700156 -0.23679583 -0.2212561 -0.16239378 0.124105275 0.025779866
자체 -0.016373329 -0.05205583 -0.0069954805 -0.11317829 -0.08917589 -0.052044384 -0.09873823 0.018409917 0.026538773 -0.051040977 -0.073382206 -0.06324064 -0.094136335 0.05027819 0.06752316 -0.020972969
울 0.11768032 0.40186152 -0.23355412 0.27754113 -0.01726829 0.13259006 0.22353902 0.12250131 0.08329812 0.16158077 0.27626702 -0.112869345 0.14821424 0.24359715 -0.23518607 0.21319905
몰입 0.024621876 0.048078354 -0.1514992 0.006495495 -0.37189522 0.13681272 0.13238087 -0.025866842 0.22985959 0.13585134 -0.092884466 -0.21702898 0.14280975 0.08230407 -0.08035748 -0.028496644
4 0.010997246 -0.05169019 0.18332177 0.06516787 0.12909676 -0.27366856 0.0094921645 -0.044307347 -0.09431193 -0.05605668 -0.03360821 -0.09843535 -0.090261474 -0.05702134 0.083896846 0.0024004576
대박 0.09944694 0.2162662 -0.19510283 0.2047822 -0.11257554 0.109002106 0.13487843 0.13459714 0.09003543 0.21183325 -0.036447536 -0.28021628 0.1364263 0.12932792 -0.1041267 0.09344359
몇 0.007020377 0.10611286 -0.10541449 0.028841441 0.035153687 0.12286617 0.06878364 0.01801172 -0.027961574 0.004935297 -0.07647271 0.13034025 0.066457614 0.052158546 -0.112973705 -0.06992307
스럽 0.044651404 -0.045761082 -0.022396516 -0.024725378 -0.05137009 -0.10097547 -0.031633843 -0.07331381 0.042517215 0.047373 -0.07371912 -0.07583433 -0.013023098 0.025578935 0.024702672 -0.063178726
실망 -0.27616665 -0.17721437 0.31582266 -0.314006 0.20537521 -0.1285317 -0.44806984 -0.3388571 -0.45298335 -0.35624063 -0.075388834 0.17710505 -0.59223425 -0.41703096 0.42348385 -0.32732084
는다 -0.040597074 0.053674225 -0.026234949 0.02229683 0.024377065 0.14524044 -0.021540582 -0.0019846903 -0.0035726966 0.038802695 -0.09592168 0.22922774 0.088500075 0.036883857 0.026954567 0.046264563
대한 0.046411846 0.12597074 -0.12963992 0.042066634 -0.060648564 0.092454374 0.0499323 0.12090479 0.03602851 0.0636048 -0.0035979874 0.08140546 0.055893704 0.07120708 -0.023008006 -0.012328046
죠 0.096447945 0.0783739 -0.09383096 0.112845026 -0.15046924 -0.14904475 0.074056216 -0.012342864 0.15443403 0.11357716 -0.05865195 -0.047834646 0.07601806 0.05547551 0.031475212 -0.010323635
란 0.041659627 0.0119631495 -0.050005235 -0.050554603 0.05091821 0.2670413 0.015169277 0.03358749 -0.1096376 -0.047021575 0.011433941 0.085121766 0.11761174 -0.05119639 -0.14828205 0.005011502
그런 0.11108219 -0.06636827 0.053064205 -0.11064451 0.089347646 -0.09480819 0.047614176 0.09218799 -0.11379696 -0.06305953 -0.02317733 0.19695306 -0.10357592 -0.03751136 -0.022786824 -0.07090327
솔직히 -0.074514166 -0.1549442 -0.03268133 -0.03353809 -0.059718445 0.03387161 -0.05201136 -0.08793097 0.17281279 -0.11323003 0.048883844 -0.016730154 0.03803637 0.011897578 0.027922755 0.062120717
캐릭터 0.054743797 -0.016036581 0.019608423 -0.05577241 -0.13884951 -0.12462478 -0.040772464 -0.034242243 0.004116833 0.0005836922 -0.1150688 0.024475658 -0.1709459 -0.0040706187 0.07019673 -0.041066073
ㅎ 0.06593555 0.13904308 -0.10444046 0.08290319 -0.0066215848 0.09381293 0.09348221 0.11979389 0.055171955 0.10799357 -0.06530558 0.11235593 0.016312493 0.097167104 -0.045356542 0.015253897
모두 -0.00032855145 -0.0684272 -0.051483855 0.13553791 -0.23207285 -0.2550231 0.04627137 -0.023143401 0.17402905 0.052745763 0.048412967 -0.3676433 0.05199271 0.11039736 0.034634545 0.075737424
아주 -0.004026633 0.024488892 -0.034190793 0.11411872 -0.0828737 0.018675597 -0.029986221 -0.032628916 0.09665965 0.0049935365 0.04398255 -0.26649803 0.07827066 0.044686265 -0.037203778 -0.026630053
- 0.066680424 -0.028272934 0.028717624 0.15154873 -0.021231638 -0.19941694 0.05262932 0.06829573 -0.010050267 0.074772984 -0.036873773 0.11305814 -0.12341305 -0.05500767 0.030940214 0.040473666
가족 0.0828812 -0.0043290704 -0.0528532 0.015411832 -0.032462683 -0.28765133 -0.021538846 0.087953046 -0.004216563 0.036255207 0.03317161 -0.07011558 -0.083712384 0.04046526 0.03106015 0.14182702
여운 0.4114355 0.4788455 -0.3434552 0.13787942 -0.19187723 0.35747492 0.5354203 0.39804673 0.3711467 0.39644563 0.13776968 -0.25713998 0.51482016 0.42725575 -0.40652198 0.37545648
건지 -0.13236304 -0.14175326 0.13093305 -0.026501916 -0.046275817 -0.20611607 -0.24647644 -0.098409146 -0.052726455 -0.11408825 0.036236186 -0.15733531 -0.1384816 -0.11487733 0.079626 -0.15571943
전혀 0.010545574 -0.21950339 0.15367994 -0.0107917255 0.19552198 -0.21397088 -0.10027018 0.037852395 -0.019087924 -0.072308816 -0.03861093 0.21187069 -0.14699672 -0.1341274 0.018090498 0.048250165
연기력 0.0057907323 0.015655346 0.042808615 0.0901334 -0.17168336 -0.012857912 0.06987975 -0.0029323199 0.23536439 -0.003746866 -0.12750067 -0.067901194 0.035801087 -0.016332412 0.087699495 -0.01624225
나라 -0.09293444 0.073727734 -0.027499685 0.12777388 0.08452326 -0.067665994 -0.04700435 -0.17922261 0.10494635 -0.019479267 0.08836192 -0.20417975 -0.015456202 -0.002120618 -0.05035967 -0.07488586
후 -0.080012575 -0.010088171 0.122339875 0.11576857 0.102184996 -0.16524814 -0.07553259 -0.019470394 -0.03322934 -0.009513253 -0.036310486 -0.08489883 -0.059130926 -0.12890519 0.033562623 -0.026451718
될 -0.12887375 0.04400312 0.14852394 0.26902568 0.11081559 -0.13824172 0.06385812 -0.091132626 -0.019435696 -0.13414067 0.0797182 0.11889977 -0.08680965 -0.101214044 0.06723214 -0.02929021
다면 0.05325063 0.03562465 0.06487382 -0.009003361 0.023464974 -0.2588175 0.0681017 0.08132728 -0.100784406 0.096901365 -0.01757754 -0.26530758 -0.049575355 0.030022075 0.025328131 0.0031003163
뭔가 0.062428277 0.054295152 -0.02216226 0.04898234 -0.12831202 0.14884566 -0.0063757794 -0.020090552 0.19174993 0.065364756 -0.06185153 0.15808037 0.035651144 0.025140457 -0.005475667 0.044018585
그래도 0.06687811 0.00022311995 0.032905955 0.25842243 -0.14208679 -0.099135794 0.09590805 0.00698326 0.17060342 0.06498917 0.06926139 -0.011335208 0.16166836 0.033230755 0.080092944 0.23737699
; -0.05324664 -0.13475567 0.1507465 -0.10043732 -0.039663624 -0.20808399 -0.017020717 -0.064157784 0.08644671 -0.035907708 0.030701255 -0.0632933 -0.07742904 -0.12402566 0.09139631 -0.025997277
시리즈 0.018056666 0.0004411465 -0.0051090443 0.115626276 -0.03889476 0.081454545 -0.024099596 0.051315356 0.018028175 0.010924392 0.060014226 -0.1395431 0.057828624 0.055451386 -0.040766805 0.04356932
근데 -0.058813635 0.12126755 -0.13283943 0.12024227 0.01655434 0.1704437 0.103454344 -0.038267422 0.17309389 0.060001478 0.06440404 -0.06838353 0.27730614 0.022138964 -0.19208695 0.15766266
작 0.11718447 -0.070062175 -0.07315566 -0.20035855 -0.0635188 -0.06292728 -0.048581842 0.12553947 -0.124391206 -0.00196159 0.08847497 -0.020419303 -0.08998722 0.03544699 0.056851186 -0.07153396
표현 0.21756801 0.14191554 -0.119016826 0.31811306 -0.25439438 0.0664023 0.2473646 0.25795627 0.23089157 0.18851405 0.029762134 -0.018562686 0.13061634 0.18574604 -0.110275574 0.13478386
모습 0.03069415 0.11675679 -0.09947543 0.021426683 -0.06901291 0.30200815 -0.006908562 0.0023015607 0.06592092 0.06497089 -0.14987446 0.23903473 0.122337535 0.05288064 -0.031846084 -0.053224057
공감 0.04514494 0.03510004 0.042513754 0.17546313 -0.22593194 0.016511578 0.20322868 0.07470667 0.19114168 0.08204654 0.007893355 -0.26959336 0.24353111 0.035519116 -0.067217484 0.07566164
계속 0.013666368 0.12464995 -0.119570084 -0.031900875 -0.15584823 0.06654852 -0.03937433 0.052653227 0.03703429 0.01292815 -0.042848937 -0.11748184 0.018839188 0.09219996 0.095730916 -0.074538365
먹 -0.0076082745 -0.06907051 0.069986895 -0.015523246 -0.0011472102 -0.1608179 -0.06799603 -0.008275775 0.054855708 -0.07903187 0.0715687 0.15850934 -0.14900886 -0.10561649 0.057159893 -0.013073739
"" 0.032399338 0.03949007 0.03879083 0.16513154 0.04582399 -0.18063961 0.020951353 0.0032250464 0.054113515 -0.013238565 0.18212657 -0.01178872 -0.026461856 -0.017574593 0.02372623 0.14847632
제목 -0.009535581 0.041188978 -0.00011305096 -0.042006858 0.10001793 0.4086001 -0.019538002 -0.0780922 -0.1549904 -0.011706718 -0.077340856 0.15648557 0.020788282 -0.028208047 -0.008299254 -0.119648665
7 0.08563395 -0.085968286 -0.0028701923 0.18058302 0.065541394 -0.1384765 -0.05503075 0.07524895 0.054911677 0.055586804 0.37987506 -0.25962964 0.11642056 0.15522604 -0.033547632 0.1906467
이랑 -0.0036124957 0.023616038 0.07034465 0.019158987 -0.062430657 -0.22657947 -0.03967714 -0.046553224 0.08247971 0.047963727 -0.047512133 -0.2226008 -0.046854395 0.0023073722 0.041513886 -0.023615101
극장 -0.12994173 -0.090199806 0.14662525 -0.046877466 0.0003448409 -0.1266028 -0.16031142 -0.05555081 0.040002104 -0.09034027 0.007372662 0.12338561 -0.11056332 -0.12075712 0.12706842 0.084289536
치 -0.0725539 -0.20005451 0.17857197 -0.061819196 -0.017128376 -0.24390137 -0.12073167 -0.11037963 0.10076914 -0.059555214 -0.058109757 0.014370221 -0.26083666 -0.106695294 0.17999958 0.01898659
비 -0.041948438 -0.082693376 0.07115696 -0.16685027 0.019073578 -0.0007741811 -0.06503312 -0.057617385 -0.17772776 -0.09350608 -0.0034624462 0.046720654 -0.09431287 0.004043588 0.042419527 -0.113620766
이걸 -0.067350134 -0.030400302 0.14276305 -0.08187222 0.016731326 0.13823496 0.022790177 -0.042566273 -0.06570255 -0.082359485 -0.013109839 0.07289366 -0.024124395 -0.109998256 0.0746373 -0.0637198
진 -0.001810069 0.00045361606 0.03460482 0.3064607 -0.09412828 0.1597881 0.09464812 -0.012878389 0.23381202 0.023513658 0.17387122 0.19526061 0.12316576 0.060917366 -0.07633018 0.06754507
바 -0.07918215 -0.04815579 0.19840463 -0.025716871 0.15781564 -0.12360969 -0.119175866 -0.05799796 -0.19117425 -0.08416058 -0.024910195 0.048356246 -0.1881632 -0.17321487 0.17213808 -0.109701894
대사 -0.04678808 -0.020239916 0.0639852 0.0095353015 -0.106356665 0.02650955 0.007255292 -0.015126873 0.093874834 -0.038053825 -0.17210779 0.071125664 -0.012318995 -0.021438591 0.12312793 0.032894287
부분 -0.119192176 0.031032532 0.086927645 0.120510034 0.07769185 -0.06086146 -0.058489323 -0.081788 -0.09904329 -0.010099853 0.02092803 0.081255145 -0.10052275 -0.11242422 0.046852972 -0.06635753
그렇 -0.06677912 -0.2380367 0.1115098 -0.12196223 0.0004127664 0.051604543 -0.1386537 -0.11584368 -0.021838004 -0.117681235 -0.01500724 0.0066513857 -0.029368728 -0.1441475 -0.0013244628 -0.19489545
개봉 0.0077115404 -0.0015981873 0.0008989126 0.021012465 0.06198368 0.13468009 -0.06445422 -0.05240879 0.020268332 -0.014837374 -0.03113162 0.2200697 0.0023064902 -0.04050835 -0.010933774 -0.043773476
0 -0.16826187 0.0107461205 0.1176822 -0.18176827 -0.008833978 0.17241862 -0.079170585 -0.12450955 0.032334205 -0.16085112 -0.23898262 0.050782066 -0.07640161 -0.079898894 0.09898312 -0.10626842
OO -0.26940414 -0.014909521 0.17171876 0.116202846 0.2393828 -0.20593056 -0.17597388 -0.08040701 -0.21006328 -0.15015958 0.0062393635 0.10245038 -0.20131509 -0.22702071 0.050411955 -0.04754984
대단 0.1036301 0.05466847 -0.11394205 0.11688456 -0.03887251 0.030691335 0.14809094 0.13972755 0.089904994 0.108638294 0.06443488 -0.04588509 0.09883011 0.13415565 -0.1392302 0.07435879
어디 0.05530524 -0.04016067 -0.005015714 -0.10530881 0.024890985 -0.24668151 -0.035108004 0.13285942 -0.08054761 0.034114696 -0.022196619 -0.034843877 -0.09115761 0.010484126 0.09565385 0.0075425985
작가 -0.16232315 -0.14848386 0.021618335 -0.047098905 -0.005083363 0.20098847 -0.10421784 -0.10952901 0.1385535 -0.10295207 -0.04363191 0.09210923 0.012913095 -0.10187876 0.0057921032 -0.11007341
된다 0.013773805 -0.08211677 -0.07054128 -0.15369503 -0.036756363 0.14479184 -0.015357842 0.03890381 0.14428276 0.009452171 -0.031729795 0.10473367 0.06274749 0.08035671 -0.048785914 0.026527364
아쉽 0.08332774 0.06986171 -0.017448308 -0.03497199 -0.00035909697 -0.27641916 0.06326836 0.06728406 -0.18652037 0.06780285 0.13935626 -0.3859414 -0.05143245 0.110795245 -0.02873807 -0.04702196
기분 -0.034943417 -0.036466815 0.012634598 -0.024059426 -0.0572169 0.14256254 -0.019770006 -0.040907826 0.062084876 -0.048110455 -0.035219047 -0.026764804 -0.015161537 0.0009361133 -0.006693727 -0.0010786348
제 -0.124043815 -0.017182998 -0.0036910723 -0.04989545 -0.12475592 -0.07883782 -0.048634 -0.0743571 0.20169857 -0.066877 -0.06879113 -0.22200485 -0.028035814 0.011784412 0.05304326 -0.048646305
진심 -0.0017782087 -0.14674939 0.0785725 -0.09128185 -0.14568332 -0.14353895 -0.12208887 0.009548791 0.0489062 -0.024812516 -0.13745019 -0.01052678 -0.07189996 -0.01799569 0.11863393 -0.049730368
타임 -0.07976913 -0.038661223 0.03793198 -0.04228716 0.0011936647 0.050514806 -0.0049787634 -0.0008532403 0.0007352511 -0.04736509 0.031937577 -0.36398593 -0.05338212 -0.025761234 0.06379471 -0.08234018
/ -0.0071281036 0.020127252 -0.09219829 0.025328577 -0.004682727 0.089276366 -0.0116360355 0.10182957 -0.05150617 -0.016354818 0.047259085 0.27065912 0.05884318 0.02660084 0.014371374 0.07246053
웃기 0.13752042 0.113040015 -0.041396167 0.45205873 -0.0023608166 0.22177657 0.12414354 0.16810119 0.07773364 0.16912895 0.07119185 0.6234912 0.07915141 0.15585047 -0.024527758 0.2720504
보이 -0.014225519 -0.034782346 0.016062 -0.03836087 -0.007676701 0.14476076 -0.044282798 0.049234223 0.055374905 -0.06493576 0.04657733 0.18062724 -0.039737627 0.0026623528 0.019226221 0.034663804
놓 -0.13093823 -0.029287389 0.02556172 0.006836148 0.062194027 -0.26212537 -0.21629371 -0.0867564 -0.092845194 -0.12013169 0.11664328 -0.36380228 -0.064838804 -0.0608444 0.022268668 -0.08284404
해도 0.00093642843 -0.0650038 0.08360625 -0.0026732583 -0.18891354 -0.21552376 -0.042842444 -0.03709619 0.13684636 -0.056241903 0.013566179 -0.18869717 -0.10269191 0.025740042 0.10470442 -0.010189183
이제 -0.05512649 -0.02585766 0.07752537 -0.030274205 0.14122266 0.05434662 0.057614617 0.044724405 -0.07729015 0.00039949137 -0.035750158 -0.0130560305 -0.057203323 -0.04889285 -0.04296943 0.08163084
물 0.010615716 -0.025884429 0.076118864 0.017665222 0.0055958917 -0.16139913 -0.06083638 -0.033813193 0.008343771 -0.049262047 -0.057822213 -0.02309185 -0.025639778 -0.034492213 0.085921906 -0.07605344
봐야 0.14770488 0.13808757 -0.19078757 0.050413683 0.026870573 0.29823637 0.14601173 0.21695186 0.04143888 0.113579474 -0.026266156 0.5653303 0.1430427 0.1312235 -0.12309523 0.116234824
막장 -0.30037758 -0.26027793 0.14342389 -0.19835189 0.14284939 0.23328047 -0.18092887 -0.20602852 0.08762987 -0.20524777 0.06619773 0.1822736 -0.12235266 -0.19522059 0.13203532 -0.06457464
삶 0.2489616 0.18105447 -0.26659018 0.18431443 -0.1988711 -0.0026689772 0.15296562 0.24508415 0.13891505 0.29833487 -0.013749857 0.022138163 0.2161172 0.20304108 -0.18150948 0.14038937
친구 0.023669729 -0.010084655 -0.022742616 0.13178448 0.09002271 -0.003459406 -0.047851533 0.06636602 -0.048459157 -0.030283716 0.09798971 0.10220404 0.0013967775 -0.04649842 0.020763945 0.17437106
잔잔 0.07248898 -0.001744249 -0.030018533 -0.004620907 0.04523235 -0.040597036 0.08846756 0.02309299 0.07990364 -0.022847692 -0.030134019 0.040763877 0.066544116 0.02349506 -0.026683357 -0.08582592
조금 0.028150646 0.09320353 -0.0035682658 0.19608751 0.1983205 0.07444349 -0.10647644 0.018136725 -0.15145032 0.019187376 0.15450643 0.15524405 -0.10833273 0.0031411496 0.0008171809 0.08181594
씬 0.062204473 0.03036973 -0.02376483 0.09958154 -0.06802255 0.04076398 0.01869532 0.06877408 0.06777718 -0.016617693 -0.035726044 0.24747124 0.01569646 -0.031025982 0.043072764 0.010301893
딱 -0.13587074 0.02477104 0.015001435 0.023399789 0.027371632 0.15354607 -0.0664576 -0.11149577 0.0379301 -0.10591878 0.05313869 -0.11528256 0.0036115213 -0.084532596 0.028373938 0.030543745
영상 -0.07268794 0.03137489 -0.07893035 0.18370825 -0.068223864 0.23489684 0.030166099 -0.020838544 0.12399811 -0.014109434 0.024631843 0.40553492 0.013837187 0.034657452 0.019650498 0.10601587
억지 -0.20740865 -0.20289408 0.20439242 -0.23362273 0.19917662 -0.1344345 -0.25206897 -0.1715789 -0.10340053 -0.30677414 -0.00526434 0.019510902 -0.30202398 -0.25002545 0.2065645 -0.07563863
찾 0.02070385 -0.03958963 -0.06707194 -0.09568638 0.038885526 -0.0530996 -0.06348387 -0.055619612 -0.030246744 -0.00032780046 0.1214991 -0.1511505 -0.020945229 0.039317034 -0.049461495 0.022318764
요즘 0.18180813 0.20561032 -0.16008022 -0.108328074 0.04349325 0.34031075 0.20772237 0.16303766 -0.04969475 0.12036974 0.1790656 0.20932364 0.2420616 0.13958824 -0.23903498 0.045020834
같이 0.028121844 -0.06794462 0.008326011 0.14697663 -0.10985932 -0.15443416 -0.02393564 0.010817361 0.07779651 -0.053070776 0.05990147 -0.020003278 0.0163101 0.037674095 0.104784094 0.014245784
중간 -0.035994127 -0.11330082 0.055204555 -0.16504602 0.11744295 0.18553334 -0.13234548 -0.11109411 -0.0768365 -0.043129012 -0.017649354 0.31669107 -0.09449181 -0.05927443 0.056736223 -0.06170519
" -0.004472295 0.03966214 -0.012636 -0.10391428 -0.0092894975 0.13889377 -0.053154 -0.036881324 -0.016768433 0.008043434 -0.16022006 0.2534743 -0.018294813 0.028436258 0.10095004 -0.03876824
구 0.082564116 0.0804381 -0.078174725 -0.020832472 -0.03771322 0.26883692 0.06596454 0.06624857 -0.00315024 0.04375798 -0.21247247 0.31963953 0.06263078 0.03832371 0.006841597 -0.13274498
라도 0.026750145 -0.08259699 0.06564784 0.10855899 -0.11707622 -0.15280361 0.08819603 -0.07124219 0.12812972 -0.03914678 -0.08047354 -0.09176239 -0.0023982944 0.018324502 0.07532426 -0.007853948
스릴러 0.04554802 0.0094301 -0.06386305 -0.11685972 -0.09426279 0.060012423 0.01624416 -0.0033883492 -0.0011010134 -0.005170796 -0.1113137 0.06823865 0.051231045 -0.041207097 -0.030590022 -0.04728865
가지 0.010349813 0.031005085 0.08677276 0.044416957 -0.038367733 -0.15214223 -0.07034561 0.043539777 0.01224192 0.026007434 0.009250145 -0.060840234 -0.027311707 0.009771318 0.008866862 0.010091936
8 0.19573848 0.08095629 -0.15841419 0.12134907 -0.11528095 0.07588723 0.12993068 0.20566267 0.22599521 0.17983252 0.07663718 0.11275918 0.059413567 0.17157009 -0.12311751 0.1732818
믿 0.20196097 -0.008581521 -0.12414607 0.02477163 -0.08416963 0.17721504 0.0731944 0.1303285 -0.017296689 0.06040039 -0.05723743 0.28351778 0.012108976 0.06716739 -0.08811006 0.12376265
싫 -0.4336141 -0.10268911 0.31773838 -0.14621423 0.1723235 -0.28097585 -0.3463111 -0.3300748 -0.15019248 -0.37293765 0.19553618 -0.022595787 -0.41318926 -0.2620758 0.3887708 -0.18620318
.... -0.03421384 0.019574746 0.03932853 0.124138206 -0.064145684 0.08921348 0.03011427 -0.13548258 0.026777938 -0.0778622 -0.043946687 0.0035511774 0.09300894 -0.08442194 0.026791532 -0.050141227
나왔 0.036314644 0.036478553 0.018635835 0.1260283 -0.024971813 -0.13054796 -0.025103845 0.09476051 0.10185965 0.012581699 -0.016176498 0.049857516 -0.12590218 -0.024739183 0.14246923 0.069737285
아까운 -0.13591345 -0.14452323 0.10288827 -0.280734 -0.11144955 0.23589922 -0.113340214 -0.15120915 -0.058691088 -0.15643196 -0.021560973 0.03256362 -0.09504395 -0.11664367 0.104193486 -0.14295088
긴장감 0.018333575 0.07181568 -0.058942582 0.18180744 -0.34621298 -0.068273455 0.1622741 -0.03752321 0.31423488 0.08257414 0.08464149 -0.4822301 0.1288355 0.09304797 -0.021749614 0.003761677
점수 -0.022054635 -0.060959235 0.04336801 -0.15819044 0.08840994 -0.08928071 -0.07680848 0.010571778 0.00062732835 -0.06333839 -0.00059521577 -0.15829512 0.050454143 -0.049198613 0.0063039204 0.08524474
개인 0.034492936 -0.04516711 -0.018244294 0.032608043 -0.10522965 0.21475841 -0.021405458 0.010754054 0.15939121 0.040780913 -0.17418979 0.20456886 0.18729538 -0.006936478 0.026730845 0.019451732
제대로 0.1430971 0.033265125 -0.034025308 0.030455865 -0.12948023 -0.010446604 0.046506517 0.045711894 0.05594954 -0.011089398 -0.01354982 0.013358632 -0.020929854 0.033639617 -0.014664622 0.11076864
부족 -0.029604778 -0.0731844 0.0979947 -0.2622447 0.17483595 -0.18678513 -0.19471435 -0.08372587 -0.36974454 -0.15597294 -0.0215436 0.121719375 -0.1832015 -0.18517412 0.1376075 -0.11451704
이유 -0.048914686 -0.036181975 0.07184213 -0.038450126 0.04659351 0.15655601 0.0018548694 -0.06214998 -0.1570189 -0.048714537 -0.08813137 0.034083556 -0.04636659 -0.085051484 0.039413817 -0.09916183
노래 -0.0052997936 -0.12292875 0.013645068 -0.20389012 0.05461223 0.004010303 -0.000594238 -0.027485376 0.023614503 -0.009393337 0.024967026 0.39575437 -0.051999103 -0.07322584 -0.021337438 -0.11527115
만큼 -0.007710283 0.13372813 -0.09113739 0.15902786 -0.16747166 0.012395405 0.20138182 0.0047094007 0.15219586 -0.027089939 0.10741603 -0.5007527 0.16570565 0.08278419 -0.06855658 -0.0014996302
라면 0.12968826 -0.072339274 -0.012630243 -0.051355075 -0.018078007 -0.20386675 -0.030529514 0.1507689 -0.058379445 0.0772793 -0.032403532 0.07693617 -0.07253185 0.0546775 0.13212489 0.041219097
시작 0.046619404 0.120042786 -0.07274896 -0.031201426 -0.0552259 0.015099301 0.029014625 0.07434636 -0.08737266 0.03469887 -0.088324465 0.20863171 -0.07887723 0.033682626 0.040758636 -0.007731927
구나 -0.052800044 -0.039493892 0.08365543 0.08828927 0.044032946 0.036818985 -0.033155013 -0.0508924 0.09176659 -0.073605046 -0.011191224 0.13601854 -0.011727207 -0.05002879 0.009777832 -0.06585575
잇 0.113291815 0.14254317 -0.100585185 0.14529823 -0.030214015 0.05901765 0.0875816 0.11485316 -0.03381707 0.09239754 -0.013476554 0.21629658 -0.035895105 -0.00029208788 -0.06577671 0.034301016
특히 0.040358964 0.011264548 -0.07887832 -0.16396502 -0.039705683 -0.031005662 -0.03000717 0.05613555 0.12197606 0.07930508 0.053346977 -0.066023484 -0.07886447 0.116780154 0.0060598208 0.05095039
한테 0.021953857 0.06830245 -0.09661342 0.24745606 -0.0016459145 0.0800513 0.070710026 0.03212716 0.00514675 0.024964932 -0.004486531 0.2833471 0.1558643 -0.003253248 -0.07417309 0.08384366
날 0.07281447 -0.04381298 -0.030578846 -0.012226607 -0.09273317 -0.15895484 0.003674546 0.076515876 -0.06157957 0.0024029359 0.04116058 0.03470546 -0.07171907 0.023874888 0.025333479 -0.06297574
려고 -0.25677952 -0.17241897 0.1728588 -0.10155515 0.066713296 -0.121477656 -0.13984384 -0.18522972 -0.010976972 -0.1805621 0.07286617 -0.044670664 -0.20239711 -0.12670594 0.15642238 -0.1798494
제일 -0.055461355 0.087320484 -0.021362651 0.22148551 -0.11017914 -0.015379103 0.043621868 -0.099621 0.10851324 0.02612573 0.033764083 -0.17725062 0.14906459 -0.049099382 -0.12725039 0.09126468
아름다운 0.25345924 0.19579431 -0.1727152 0.16874433 -0.18626527 0.0909876 0.3100482 0.20909229 0.3649667 0.26411656 -0.091315255 -0.08506441 0.23492625 0.25985694 -0.08672463 0.12069687
시대 -0.061037418 0.101724625 -0.11571669 0.044398736 -0.110828474 -0.102473184 -0.10779521 -0.11080132 0.14678104 0.0002177858 0.1232292 -0.3410624 0.060094327 0.09925573 0.09538115 -0.05145514
ㅜㅜ 0.08921382 0.03115977 -0.040336642 -0.12413624 0.02883973 0.10858779 0.07538893 0.053125624 -0.100283526 0.00027568653 -0.0035163425 0.13548635 0.00057762867 0.06170375 -0.038288552 -0.091021605
어떻게 0.08094478 -0.045924433 0.04816529 0.05521725 0.22559008 -0.12109541 -0.0026922543 0.100694306 -0.29382545 -0.036188193 0.10184522 -0.022095168 -0.013794391 -0.106433935 0.02970078 0.16794644
엔딩 0.1107199 -0.024913326 -0.08641905 -0.09084684 0.07813027 -0.00020267395 0.08191297 0.05783322 -0.21494736 0.0664641 0.021866618 0.18603933 -0.031227577 -0.0038902254 -0.041858517 -0.020228734
당시 -0.022581808 0.0691557 -0.07365039 0.0143693555 0.14281836 0.07571839 -0.0075523704 0.009292038 -0.09115658 0.061022054 -0.06397039 0.13433856 0.091372274 -0.0043261955 -0.08114608 -0.020187767
하지만 -0.09636578 0.0488423 0.031594913 0.18010126 0.11971624 -0.33997408 -0.020883558 -0.09628756 -0.009345138 -0.0031523693 0.4114315 -0.44916844 0.0046721594 0.017383931 -0.137214 0.14141402
나름 -0.040298365 0.012315786 -0.09775077 -0.12553258 -0.0073236143 0.27932608 0.08474125 0.013733123 -0.046110913 -0.027881447 0.004817085 0.049425624 0.1293421 0.025135636 -0.079521544 -0.094602585
봐 -0.031995248 0.030880762 -0.029120311 0.048932526 -0.025970768 0.12899807 -0.015329609 0.022901168 0.021883754 -0.003511276 0.0657173 0.15280615 0.040223327 -0.015958603 0.012957903 0.008803157
무섭 -0.035249062 -0.075339735 -0.05180242 -0.11705573 -0.1431859 0.2902406 -0.09911713 -0.03267199 0.1752582 -0.02180091 -0.045221765 0.038327746 0.03938522 0.015477866 0.01454614 -0.06812827
나온 -0.043610934 -0.008087854 -0.0110428445 -0.09263463 -0.026476813 0.19758362 -0.05354758 -0.02011898 -0.16796583 0.03730607 -0.09071596 0.13599785 0.049343128 -0.053412907 -0.031452067 -0.181258
명 -0.08631162 -0.10745191 0.12184773 0.0543115 -0.09251693 -0.2237327 -0.0033951434 -0.15911025 0.20143555 -0.07262932 0.06406535 -0.04286751 -0.08748404 -0.020551939 0.081578344 -0.0631449
사 0.1016745 0.08064176 -0.00488989 0.115975864 -0.17752631 -0.015228163 0.051703822 -0.040486515 0.13153914 0.08984873 0.09448156 -0.14949521 0.051190984 0.10153789 -0.024213012 0.12351553
니까 -0.10376512 -0.03880084 -0.055087555 0.020806711 -0.10257538 -0.11085505 -0.023854453 0.018290196 0.17981465 -0.053823255 0.14696926 -0.21076842 0.013657924 0.06430856 -0.08241983 -0.07707637
오랜만 0.084017985 0.15342115 -0.08211873 0.03751767 -0.105978 0.05948842 0.05157296 0.07216365 0.13777833 0.11847032 0.010408793 -0.22198367 0.045945562 0.075293966 -0.09654948 -0.0066983
이것 0.0061349464 -0.0069209873 -0.0056744027 -0.10102285 -0.027597124 0.15776147 -0.025133228 0.014255325 -0.014591439 -0.07398706 -0.08383019 0.2136454 -0.085374795 0.021044103 0.06919113 -0.015917143
해요 0.10419436 0.06931936 -0.07864362 -0.19425723 -0.09972027 0.19587997 0.09500501 0.13487197 0.011496261 0.022517378 -0.16339812 0.18160242 0.049625978 0.05098086 -0.016718391 -0.09368968
9 0.3795164 0.09235651 -0.25812003 0.3754527 -0.19592954 0.0039803023 0.360441 0.33829886 0.44399756 0.35251307 0.12001025 0.10269729 0.12505199 0.4814018 -0.1720154 0.3402874
팬 -0.0023023123 -0.06336519 0.07281699 0.06010834 -0.018613461 -0.06673882 -0.06492352 -0.007424325 0.031759124 0.0048812903 -0.03739944 -0.13736582 0.03346967 0.0131160095 0.023566574 0.007431816
차라리 -0.41531473 -0.38096625 0.3628126 -0.3422596 0.34203178 0.27895245 -0.2903245 -0.33811054 -0.4712097 -0.37406158 -0.23891458 0.2513169 -0.39579856 -0.49239582 0.4009139 -0.37686437
절대 0.022883993 -0.052843254 0.115380764 0.12172818 -0.066406064 -0.19147846 0.019466126 -0.106485024 -0.1069837 -0.08375279 0.022715997 -0.15856409 -0.061118312 -0.043593865 0.04613274 -0.079756446
세상 -0.022507409 -0.0903044 -0.10843678 -0.014125634 -0.071564704 0.054025557 0.021841355 0.01809441 0.09414788 -0.03498705 0.09707631 -0.026451768 0.12802167 0.16785808 -0.04265782 0.032552782
세 0.103886895 0.06396571 0.036286112 0.007553931 -0.018749049 -0.22469373 0.07102593 -0.008885153 -0.04594854 0.06283686 -0.022439033 -0.34222174 0.079521 0.0080771325 -0.03057619 -0.0074326266
못하 -0.15997893 -0.14694811 0.11432935 -0.17037073 0.09244307 -0.21684793 -0.21401119 -0.100469455 -0.26902926 -0.03972456 0.033508193 -0.27254778 -0.22037342 -0.106510006 0.19055589 -0.16173998
의미 -0.029977307 -0.0131443385 -0.041754402 -0.029002544 -0.14347267 -0.06286027 -0.035652053 -0.05526473 0.2088877 -0.049806327 0.038262706 -0.071246274 0.024533795 -0.026577163 0.044833917 -0.06922449
던데 0.063821785 -0.00932499 -0.07556064 -0.3053125 0.10105152 0.2574908 -0.06804446 0.22174445 -0.24974868 0.027706733 0.009084111 0.2533453 -0.029306957 0.04326183 -0.06550123 -0.038401864
봄 0.01925261 0.011292597 -0.03849229 -0.14433257 -0.06742138 -0.026631616 -0.05004898 0.049675316 -0.05754505 0.029109055 -0.16913538 -0.033073742 -0.03895739 0.017503954 -0.050542757 -0.0795174
욕 -0.32205054 -0.20079646 0.18038823 -0.11072672 0.18808796 -0.06910097 -0.36592773 -0.18882123 -0.24266668 -0.2731993 0.053169906 0.119803905 -0.20918824 -0.24699342 0.29993203 -0.16919376
훌륭 0.20508234 0.059325665 -0.22201306 0.16856125 -0.38441867 0.07838497 0.1302116 0.12423215 0.34840924 0.19947697 -0.09899869 -0.2807305 0.26903567 0.23176716 -0.11451238 0.14098224
너무나 -0.0211702 0.13445431 -0.019720355 0.08877656 -0.095546365 0.09327032 0.04468957 -0.043411955 0.11140278 0.052212402 -0.111883186 -0.08804038 0.115325674 0.03959226 -0.053836703 0.100146726
강추 0.11246269 0.12892066 -0.24803965 0.13816822 -0.3388128 0.09157579 0.21445592 0.14744742 0.38413012 0.17666426 0.056039482 -0.23760419 0.22373582 0.2785689 -0.025373658 0.09696428
감 -0.07529852 -0.09406054 0.008178093 -0.16115882 -0.1430774 -0.034681674 -0.017235598 -0.05339441 0.15134232 -0.019341273 -0.057816185 0.0067668585 -0.042537045 -0.024185993 0.11292515 -0.011520275
됨 0.083319664 0.15944996 -0.11039285 0.024606772 0.027145224 0.3103068 0.108611554 0.029534645 -0.25247762 0.01612356 -0.025505897 0.15880598 0.09027836 -0.008410119 -0.06272442 -0.04314233
ㅡ 0.023849549 0.008051211 0.04281384 -0.026459862 -0.065756634 -0.23929471 0.01221247 -0.011665448 0.07824316 -0.013402827 -0.047780946 -0.20818207 -0.051942438 0.0037413195 0.0134983 -0.10562572
따뜻 0.23937482 -0.013301576 -0.19930357 0.07019577 -0.32084993 -0.021661988 0.19636852 0.16109428 0.32511783 0.15856683 -0.060451496 -0.24340463 0.17820372 0.2568995 -0.11826772 0.07086415
빼 -0.17429881 -0.00739765 0.12715383 0.068633355 -0.2164258 -0.21345954 0.011081336 -0.14641231 0.2342695 -0.11229173 -0.070669785 -0.12169011 -0.044173412 -0.08171628 0.087517045 -0.116574
느끼 0.09031005 0.15829596 -0.12761837 0.13643056 -0.08121117 -0.15191375 0.111457594 0.15740731 -0.068916954 0.1403686 0.10732169 -0.25615615 0.072352834 0.13275345 -0.05892997 0.049233507
해야 0.06719923 -0.1081667 0.07238136 -0.020449677 0.019850548 -0.24097729 0.03668698 0.017304908 -0.01769594 -0.08424195 0.19913203 -0.11006548 -0.079788394 0.073151045 -0.07024266 0.010219045
드 0.06543024 0.010735889 -0.08019501 -0.12997836 0.11263827 0.17830867 0.016911238 0.04066311 -0.049761232 0.044339433 -0.03451932 0.32272133 0.018778635 0.00041112484 -0.050649688 0.0058273305
도대체 -0.20787257 -0.059997097 0.22983775 -0.13340187 -0.0021639976 -0.09688517 -0.09865373 -0.18818945 0.06782632 -0.13448855 -0.026904913 -0.19787008 -0.0777144 -0.10895793 0.08904275 -0.06843321
어야 -0.111919045 -0.12834084 0.09975354 -0.1248617 0.0498458 0.10396189 -0.09532979 -0.10298413 -0.023419434 -0.11957455 -0.082692444 0.09643971 -0.11020712 -0.13045062 0.15018052 -0.19367819
답답 -0.166359 -0.13600034 0.119055435 -0.2529429 0.02660327 -0.16889256 -0.24754897 -0.16724204 -0.05445534 -0.11213119 -0.06572925 0.09076034 -0.17976816 -0.14390144 0.18138544 -0.24373126
마다 -0.08825705 0.054103933 -0.031276304 0.071967445 -0.08803414 0.116997376 -0.00093579775 -0.04052798 0.092500955 -0.03208589 -0.21785629 -0.0042424006 0.084964894 -0.019531976 -0.03610289 0.07547374
준다 0.00040712795 -0.028767372 0.02602681 -0.2982914 0.09445631 0.32603574 -0.095807545 -0.05402002 -0.320684 -0.04385521 -0.036206592 0.40039074 0.012950481 -0.023115302 -0.04422746 -0.11560276
글 -0.066781744 -0.050951544 0.06974652 -0.011524533 -0.0003706083 -0.2858147 -0.100307725 0.0033506053 -0.008194864 -0.023399692 0.0068807187 -0.20482731 -0.11289255 -0.03868037 0.025218628 -0.0095233135
전쟁 0.033137098 0.02105956 -0.062558435 0.16862684 -0.012386763 -0.041739106 0.073420376 -0.03941648 0.03260052 0.026336443 0.0842259 -0.063977085 0.10047111 0.043589965 0.0024361792 0.01685075
놈 -0.0055323048 -0.16229297 0.15888673 -0.05763375 0.035345808 -0.38309374 0.0011274361 -0.036589652 -0.03854015 -0.12911591 0.15193172 -0.22238849 -0.12737863 -0.1307078 0.020364627 0.105860926
설정 -0.068281196 -0.09301038 0.060425926 0.059613965 -0.1497327 -0.030929854 -0.08802651 -0.057850815 0.10163456 -0.040011834 -0.06960152 0.08350687 -0.04999467 -0.15479444 0.021035803 -0.06550564
무엇 0.1401416 0.045209438 -0.14096089 -0.1065592 -0.1163573 0.24895965 0.011021569 0.05776706 -0.05479663 0.102318086 -0.25143358 0.48672172 0.06618586 0.08825092 -0.089431256 -0.022902153
수작 0.4425465 0.39225933 -0.31589085 0.15571453 -0.27228 0.259885 0.53317136 0.4388332 0.36381948 0.47630703 0.055654164 -0.503023 0.49595636 0.3646471 -0.43989933 0.19375299
만화 -0.005979991 -0.15825737 0.07134577 -0.11068328 0.07564758 -0.09219645 -0.0712853 0.041391626 0.0695521 -0.03082618 0.035377473 0.13384187 -0.040977504 -0.11409993 0.062181033 0.14661337
흥미 -0.017615331 -0.16407013 0.08693546 0.11118713 -0.17255165 -0.27359128 0.030316472 -0.1270685 0.33923304 -0.07358936 0.064704165 -0.18754633 0.061770722 0.06471754 -0.023386221 0.050980724
그저 -0.11038375 -0.12421943 0.10118162 -0.18663305 0.000514951 -0.1262217 -0.16335253 -0.06953774 -0.1332408 -0.07105744 -0.021030216 -0.05709094 -0.24199119 -0.055713963 0.11512221 -0.18679199
감정 0.10428953 0.114090234 -0.08462635 0.1094008 -0.08113531 -0.17710958 0.10240532 0.052364863 0.094901845 0.09051739 -0.0021871214 -0.25577715 -0.0152834095 0.07553078 0.03407795 0.06723395
미국 -0.07494683 -0.014554089 0.0023231439 0.049345095 0.03139619 -0.20868903 -0.10560118 -0.07118087 -0.0072119064 -0.05437819 0.18828927 -0.19313335 -0.08067608 0.058535133 0.037516035 0.025961068
신선 0.18876259 0.12948975 -0.08802465 0.12932192 -0.13534725 0.06595597 0.11386958 0.16645508 0.05666279 0.13564406 0.046353 0.16114838 0.062549755 0.08079446 -0.122757904 0.13934006
행복 0.21528448 0.4271433 -0.26760936 0.14068164 -0.06642585 0.26529792 0.33880046 0.33820307 0.12913659 0.25370595 -0.06146856 0.43612987 0.16618156 0.18822518 -0.14257814 0.09202321
뻔 -0.017346121 -0.043258306 0.05248814 -0.06697249 0.03936524 -0.15004364 -0.10020464 -0.027477494 -0.07976816 -0.10984716 0.07966162 0.09716688 -0.0958919 -0.10088462 0.09147839 -0.06507158
형 0.0060582063 0.06466581 0.025113031 0.23499094 0.01649448 -0.19594374 -0.038256425 0.021584403 0.11523678 0.07405617 0.11383045 -0.0045617986 0.078824304 0.046192378 -0.0065477993 0.19888785
앞 0.10047046 0.111919045 -0.014296639 0.015127921 -0.07177188 -0.14913741 0.08832359 0.045100506 0.001958281 0.038243905 0.031582985 -0.29966295 -0.09947227 0.12148058 -0.005195267 0.0009480534
허접 -0.29052782 -0.31658494 0.44191378 -0.21773851 0.083223164 0.032054756 -0.05995745 -0.2942573 -0.012628831 -0.2802363 -0.22944668 0.22504587 -0.19481765 -0.37370047 0.23812222 -0.2558975
어도 -0.07429883 -0.007175301 0.13424183 0.1254052 0.06044279 -0.15566356 0.0026552142 -0.04018863 -0.0768064 -0.06410699 0.078778125 0.032679457 -0.11323492 -0.051638294 0.03766577 0.011574164
군 -0.08870148 -0.099439375 0.019632155 -0.24106061 0.02989233 0.069450885 -0.20053461 -0.07998507 -0.11860239 -0.06611001 -0.024715168 0.057911593 -0.03964828 -0.06072334 0.045144103 -0.045694888
시절 0.023696933 0.09418565 -0.108339585 0.20464621 -0.07002134 0.15436453 0.09805718 0.06837554 0.05816355 0.118731156 0.015359907 -0.14338608 0.22217019 0.095820874 -0.14683533 0.105631955
관객 -0.20082761 -0.11294954 0.27460685 0.013638514 0.25279984 -0.051642314 -0.08405814 -0.13392828 -0.17747925 -0.14857325 -0.043393597 0.107360564 -0.16098006 -0.26656115 0.17961708 -0.0577383
배경 -0.068998314 -0.038710404 -0.03887317 -0.052572828 0.06343044 0.099708065 -0.10189682 -0.06886679 -0.02872124 -0.011971268 0.0026695214 -0.074212976 0.010325784 -0.0023056464 -0.120091006 -0.14975113
6 0.08836182 0.007903638 -0.08907517 0.053545095 -0.050577987 0.04214027 0.019515999 0.12606175 0.105993114 0.08680543 -0.0222135 -0.010203342 0.09863744 0.07161763 -0.038888536 0.0968935
초반 0.010936735 -0.05910962 0.04668662 -0.034468353 0.26131192 -0.14451478 -0.19160786 0.016929373 -0.1379968 -0.07984817 0.1529205 0.2771109 -0.16844638 -0.10251588 0.1261766 0.022112276
사실 0.14220636 0.08398902 -0.13500786 0.02294106 0.025943108 -0.022541093 0.040631667 0.114517495 -0.014073403 0.04499052 0.12664524 -0.15366162 -0.004505728 0.10642925 -0.108586855 0.005226066
웃음 0.032681715 0.030343676 -0.05715998 0.014981033 -0.11672533 -0.06833856 -0.0006950506 0.0773002 0.021115135 0.0370792 0.016441839 0.1002504 -0.057200227 0.01981614 -0.027869046 -0.01546009
답 -0.042734258 -0.025264584 -0.097059555 -0.07154045 -0.11723962 0.13918562 -0.05833641 0.0021232436 0.013989725 -0.02837804 0.049282447 -0.06721997 -0.026835792 0.023129934 -0.06489799 -0.058944117
엄청 -0.11084597 0.071302794 -0.06114131 -0.070161365 -0.14752945 0.09244736 -0.0029072769 -0.042342607 0.27748984 0.023716468 -0.12887357 -0.049071975 0.08033611 0.06862184 0.017446697 -0.016269114
더라 0.034060456 -0.024591332 -0.026249096 0.014974626 0.0296074 0.22873382 -0.028392099 -0.068263285 -0.112975135 -0.04852409 -0.066474006 0.2633334 0.07847637 0.013951728 -0.07561064 0.03323404
라니 0.026616603 0.013031769 0.079036236 0.11556231 -0.055116966 -0.11764762 0.06854425 -0.0103081595 -0.028579012 -0.0116275465 0.110681534 -0.21668047 0.1101753 0.022717487 0.0076659694 -0.000226646
질 -0.13508248 -0.007767946 0.11560432 -0.06842639 0.18979521 0.038746443 -0.13382393 -0.028770408 -0.20256554 -0.114671886 -0.04481441 0.09737545 -0.07233921 -0.15239161 0.01619225 -0.061250858
자신 -0.025881505 -0.005648546 -0.013060842 0.005889462 0.11777246 -0.032721605 -0.0020229528 0.0034080194 -0.055597678 0.050042223 0.03280958 0.043357316 -0.015278422 0.014022308 -0.12053421 0.025067883
추억 0.18089254 -0.05837673 -0.07520114 0.03628513 -0.09834161 -0.040580895 0.15107983 0.1456929 0.19139175 0.017974267 -0.09348532 0.19757806 -0.0026241557 0.1524517 0.008342432 0.01790008
캐스팅 -0.07710337 -0.10270199 0.064042635 0.08152154 0.09903022 0.008023388 -0.121087 -0.13660932 -0.06833754 -0.09359594 0.14981079 -0.0035342763 -0.10881373 -0.08156976 0.078839764 -0.040975302
첨 0.07273707 -0.074264124 -0.045604784 -0.06593722 -0.051959503 0.12998886 -0.052970033 0.023734042 -0.026683848 0.007881736 -0.038525544 0.24596918 -0.09266238 -0.008015905 0.027863674 -0.071352035
멋있 0.14629053 0.23659556 -0.13959703 0.25849864 -0.16790175 -0.008368101 0.18781081 0.17312798 0.098198615 0.24043213 -0.04295013 -0.3333318 0.3991222 0.17130375 -0.10578799 0.22299656
류 -0.058658 -0.008671807 0.09304884 0.06971353 -0.025505349 -0.122813344 0.004628954 -0.014850662 0.00069657713 0.011362849 -0.037603978 0.10601428 -0.05095662 -0.053449385 0.053989857 0.04992509
어색 -0.20124994 -0.27768812 0.1930323 -0.3477724 0.2511709 0.1885649 -0.19335885 -0.18091168 -0.32438993 -0.28550372 -0.15622462 0.2721051 -0.16904269 -0.2679452 0.1662855 -0.23720515
시나리오 -0.1010859 -0.22480252 0.094414905 -0.11355722 0.027309544 -0.088019244 0.046976883 -0.11157295 0.25699738 -0.059799116 0.0030855064 0.037900355 -0.050984662 -0.04388605 0.03640293 -0.026253995
머 -0.007606786 -0.070650086 0.039916772 0.17107064 0.1110757 -0.073929794 -0.12816432 0.022171503 -0.060036425 -0.024918534 -0.034907777 0.121296346 -0.0418617 -0.0718565 0.023085115 -0.009391927
밖에 -0.06305163 0.14644483 -0.07271295 0.10893571 0.004607882 0.11908118 0.025644867 0.04916891 -0.056985512 0.027287621 0.05363059 0.26641312 0.02470702 0.01864242 -0.0029424308 -0.008072079
OOO -0.12106085 -0.16663784 0.17317167 -0.28956524 0.267807 -0.05450479 -0.31439868 -0.15284505 -0.24609071 -0.16836984 0.0031168042 0.122722715 -0.25464123 -0.13104327 0.10493999 -0.1855698
슬프 0.08312438 0.27626544 -0.19416364 0.22525841 -0.012696652 0.21887235 0.15379219 0.12669751 0.074438095 0.2523425 0.14436103 -0.34481785 0.36558667 0.16674894 -0.30191442 0.069372244
정신 -0.092257686 -0.03951693 0.06903098 0.052370317 0.13526429 0.02315407 -0.07455839 -0.12686113 -0.12871957 -0.045837652 -0.11108532 0.15550354 -0.09305963 -0.12212452 0.10180617 0.015672462
분위기 0.013157624 0.04305148 -0.06827146 0.19588321 -0.05396317 -0.011773897 0.06821233 0.018596508 0.17658207 0.09632915 -0.036512982 0.19097587 0.117694035 0.09557449 -0.07357102 0.1615119
소름 0.17401919 0.13280743 -0.19967538 0.09241806 -0.086674854 0.1058448 0.16413617 0.15266362 -0.01593386 0.092441946 0.05708061 -0.12250656 0.11402384 0.19029625 -0.14088282 0.03446789
멋진 0.11025912 0.0371784 -0.12244944 -0.026952948 -0.07014469 0.28701845 0.09821063 0.08709057 0.06565916 0.06892409 -0.12495262 0.53439456 0.17612408 0.09785894 -0.09066931 -0.025485005
힘들 -0.0032541275 0.00026010358 0.09139564 -0.07222471 0.13575463 -0.08274277 -0.070774935 -0.053980947 -0.21638396 -0.08313647 -0.06623038 0.11420811 -0.07994826 -0.09548514 0.06231819 -0.08376563
오늘 0.07784874 0.005190678 -0.008644606 0.032482017 -0.01596305 -0.087040685 0.073876075 0.09708908 0.024010291 0.022261472 0.11602096 0.09087293 0.001058404 0.031713564 -0.051016428 0.12418109
어이없 -0.35551098 -0.16013709 0.30499154 -0.37725282 -0.04885223 -0.14718689 -0.32418844 -0.39901456 -0.13872664 -0.19977464 -0.08113976 -0.024774503 -0.55517304 -0.23328196 0.33333284 -0.32168666
봐서 -0.061491203 -0.03362649 0.05732992 0.047082987 -0.11853352 0.017851997 0.025224658 -0.07782655 0.06433512 -0.02867943 -0.06423844 -0.012364051 0.07760167 0.0010569941 0.03661712 -0.072323486
잡 -0.053396467 0.046494532 0.0054984046 -0.057046052 -0.052709345 0.00022109345 -0.07305145 -0.016271228 -0.11000003 -0.06414748 0.02836125 0.046646956 -0.1139876 -0.0035988996 0.09564134 -0.07785596
구성 -0.055406943 0.018252967 -0.06972081 0.045780066 -0.16492587 0.011131864 -0.005193492 -0.04081681 0.16257106 0.014978578 0.048837285 -0.0627147 -0.031448074 0.018751709 0.07395971 0.061191507
엄마 0.076055706 -0.00020557985 -0.08528199 -0.054771595 -0.03907469 0.13434154 0.1060254 0.12026863 0.021265395 0.032583732 0.049761966 0.052511152 0.12576634 0.11594301 -0.11848568 -0.015266274
함께 0.1147201 0.0092923315 -0.04415945 0.035501193 -0.14907339 0.02999648 0.057622507 0.024229715 0.028419143 0.011125017 -0.08441183 0.008575797 0.095786884 0.054189805 -0.090160005 0.0074071717
문제 -0.17873746 -0.07982741 0.123632565 0.06956154 -0.0780703 -0.31701627 -0.16083533 -0.18790378 0.09594769 -0.0884305 0.079549335 -0.2195513 -0.13010289 -0.06853576 0.2244979 -0.19068953
위해 -0.085240066 -0.045683045 0.07211948 0.07552384 -0.01421175 -0.050665464 -0.07898233 -0.029499639 0.08458942 -0.11210613 0.045661848 0.192192 -0.07238724 -0.002439579 0.108274415 -0.04600969
졸작 -0.3509567 -0.44891605 0.41447935 -0.3317423 0.2635927 -0.17195927 -0.15031208 -0.4382443 -0.1369415 -0.35787898 -0.26032767 0.1943843 -0.3280631 -0.397783 0.2600437 -0.4714011
잊 0.15839855 0.52968985 -0.25927502 0.09218933 0.027928248 0.34048188 0.24851902 0.2921265 -0.0059695826 0.29105848 0.1893434 0.008170819 0.20044847 0.17657608 -0.47519612 0.15010662
이딴 -0.34628668 -0.16486047 0.4209878 -0.13557966 0.3734248 0.09932698 -0.3378551 -0.25665084 -0.3278815 -0.34866086 -0.27154824 0.30607182 -0.50962484 -0.45068535 0.3433071 -0.26703924
등 0.015618651 0.096204706 -0.090902135 -0.11136559 -0.07517071 -0.018008122 0.023894077 0.124071956 0.040471092 0.04294415 0.2026277 -0.3048323 0.059657034 0.083934374 -0.056112822 -0.044959895
집 0.016330684 0.047889743 -0.0011795976 0.030920504 0.054140564 -0.115363725 -0.061899856 0.0046818946 -0.09746003 0.012946412 -0.018421438 -0.08399489 0.011268489 -0.03405631 0.0061508254 0.05933658
유쾌 0.30042192 0.058729507 -0.2650197 0.20535605 -0.485951 -0.09253577 0.3393855 0.15274599 0.5451291 0.2651882 0.2086979 -0.80691785 0.11280758 0.5894738 -0.11032132 0.14798626
뻔한 -0.12552413 -0.18497097 0.21120259 -0.19902226 0.11756971 -0.11962904 -0.20662408 -0.11025682 -0.040067326 -0.11858565 -0.07390284 -0.025963465 -0.18780802 -0.22178845 0.09662224 -0.10466
킬링 -0.0019597223 0.029591404 -0.037177257 -0.019145785 -0.054818384 0.16855788 -0.017813189 0.01041135 0.08978726 0.007803325 0.014626652 -0.062430244 0.01758095 0.05518589 0.058521952 0.0038380085
스러운 0.028665334 0.11571384 -0.042579953 0.10727597 0.004917132 0.2755125 0.09189258 0.029345943 0.07734718 -0.029399889 -0.0009316433 0.21751545 0.15717553 0.0064057237 -0.04952636 -0.0023691673
결국 -0.014095006 -0.024345923 0.042297322 0.031360567 -0.086947486 -0.027301872 0.04737245 -0.015872186 0.0015353742 0.037778184 -0.090321206 -0.23414573 0.045713387 -0.032653827 0.06533426 -0.09101581
낫 -0.12572889 -0.011194974 0.19690952 0.09127441 -0.14676057 -0.14990585 0.049460392 -0.22990642 -0.064559415 -0.01585945 -0.037830792 -0.31933677 0.08689618 -0.09644193 0.016692022 -0.028835578
한데 0.012641398 -0.049877807 0.06273293 0.047634684 0.0037463584 -0.18344912 -0.13200428 0.020429302 0.112309575 -0.06868813 0.17181697 -0.029140534 -0.053003732 -0.07133221 0.024394304 0.044302896
나요 -0.032007333 0.1115046 -0.08903842 0.16838013 -0.023134239 0.14054109 0.029865868 -0.0318901 -0.07988779 0.025243968 0.13414398 -0.101396054 0.09318999 0.08594096 -0.0992935 0.05563018
뭘 -0.31640494 -0.28711337 0.19359197 -0.23495129 0.06932461 -0.16829103 -0.39527637 -0.15143873 0.14176244 -0.23434104 0.14594837 0.12186963 -0.32161146 -0.14434093 0.227004 -0.061586607
소리 -0.04695075 0.003326623 -0.019615576 0.08358299 -0.16675256 0.13479881 -0.0017322609 -0.13626337 0.009607219 0.04838217 -0.025270108 -0.1144417 0.016844187 0.009278598 6.6559616e-05 -0.098005705
간 -0.07900152 -0.021484002 -0.0073748496 -0.060175456 -0.2190514 -0.14626065 0.058397125 -0.0991544 0.21006903 0.032918923 -0.0050256704 -0.21400218 0.07066112 0.033976756 -0.009535683 -0.089598335
20 -0.10626694 0.093608186 -0.012923552 0.022983303 0.10216218 0.036060117 -0.013958292 -0.043506138 0.023979053 -0.059631858 0.07266621 -0.09325863 -0.036370717 -0.013103796 -0.01780547 0.0016521345
역사 0.06272783 0.039755594 -0.014440105 -0.024363298 0.05256885 -0.035970956 -0.042780004 0.021304134 -0.071359344 0.044742625 0.07285404 0.061998982 -0.05149522 0.047227986 -0.060644582 -0.04504215
뭔 -0.083789155 -0.07418065 0.07694878 -0.030591559 -0.086585894 -0.014769179 -0.14131795 -0.040041048 -0.019361071 -0.10324327 -0.08561465 0.12563382 -0.10679869 -0.0641485 0.11290103 -0.14340061
제발 -0.10880358 -0.053254552 0.25598037 0.1939607 0.09266606 -0.22594868 0.07629957 0.01643216 0.086265564 -0.14996095 0.071589194 -0.0037615763 0.0048221964 -0.07191831 0.086765505 0.1874725
포스터 0.017286953 -0.13284571 0.12668113 0.14721398 0.19472426 0.33532387 0.06579743 -0.06583514 -0.08894965 0.0020065757 0.058902375 0.323275 0.18196356 -0.15460163 0.02445488 0.020680908
아무리 -0.047164842 -0.061312925 0.038211964 -0.14302106 0.09003211 0.32855836 -0.029021412 -0.04539347 -0.1734687 -0.063305534 -0.101414 0.19725159 -0.070946366 -0.05893614 0.0228304 -0.054273646
